tree
version=v4
num_class=1
num_tree_per_iteration=1
label_index=0
max_feature_idx=29
objective=binary sigmoid:1
feature_names=Column_0 Column_1 Column_2 Column_3 Column_4 Column_5 Column_6 Column_7 Column_8 Column_9 Column_10 Column_11 Column_12 Column_13 Column_14 Column_15 Column_16 Column_17 Column_18 Column_19 Column_20 Column_21 Column_22 Column_23 Column_24 Column_25 Column_26 Column_27 Column_28 Column_29
feature_infos=none none [-55.842158890958146:35.169516212225432] [-512.3222940564267:132.68296018984827] [-613.01156386509774:315.10020587688666] [-0.26018822289048421:1.2646034653973104] [-0.14255422824993513:1.9883573673702453] [-0.38391053952801901:0.739276824960866] [-0.096992356539839161:2.7121112693431804] [-0.50763285616555376:0.45191889465488311] [0.34620032304115261:99.999999999999815] [0:100.00000000000001] [0:100.00000000000001] [-0.33486559606220173:0.2081429197861808] [0:1] [0:1] [0:1] [0:1] [0:1] [0:1] [0:1] [0:0.079286336133582047] [0:1.1979055915104104] [0:1] [3.6910187290719263e-16:1.7213825674308284e+193] [0:100] [-0.033431985383545477:0.049899139655828165] [0:100] [0:100] [-666.66666671453493:666.6666668342051]
tree_sizes=3607 3588 3595 3569 3613 3573 3556 3546 3617 3569 3585 3591 3609 3589 3621 3584 3610 3622 3611 3596 3633 3620 3599 3602 3615 3618 3612 3614 3616 3600 3608 3652 3654 3623 3619 3628 3618 3645 3604 3654 3626 3640 3616 3594 3659 3644 3632 3606 3611 3638 3646 3585 3637 3603 3618 3617 3643 3650 3618 3603 3630 3614 3628 3620 3637 3614 3645 3620 3572 3603 3626 3626 3606 3617 3600 3577 3576 3577 3596 3633 3603 3632 3565 3574 3608 3580 3573 3656 3528 3628 3611 3596 3596 3611 3629 3569 3591 3528 3587 3593 3545 3613 3588 3589 3595 3545 3574 3577 3586 3585 3590 3577 3593 3540 3526 3582 3546 3551 3544 3480 3544 3529 3525 3567 3494 3527 3547 3558 3579 3520 3525 3538 3515 3532 3614 3483 3502 3622 3541 3545 3486 3495 3500 3462 3562 3571 3537 3564 3563 3556 3509 3514 3516 3500 3574 3519 3444 3585 3539 3540 3498 3552 3560 3512 3463 3455 3563 3582 3556 3479 3588 3568 3479 3481 3533 3499 3527 3527 3590 3554 3622 3496 3532 3519 3535 3564 3520 3533 3500 3528 3588 3541 3515 3554 3518 3527 3520 3490 3540 3511 3493 3599 3559 3539 3562 3506 3515 3512 3472 3509 3527 3504 3579 3488 3539 3544 3473 3557 3500 3505 3571 3475 3570 3517 3492 3469 3539 3426 3439 3532 3489 3501 3505 3500 3511 3497 3609 3469 3592 3514 3599 3501 3534 3441 3532 3500 3591 3493 3546 3573 3518 3549 3532 3464 3530 3539 3479 3518 3533 3522 3598 3462 3558 3476 3495 3529 3577 3455 3478 3559 3470 3596 3543 3597 3467 3574 3474 3591 3494 3436 3558 3494 3558 3524 3516 3521 3502 3452 3538 3577 3473 3516 3569 3539 3493 3602 3524 3492 3490 3506 3475 3538 3540 3453 3559 3492 3505 3563 3545 3506 3583 3551 3520 3563 3515 3502 3559 3493 3479 3552 3576 3456 3496 3478 3546 3530 3478 3518 3482 3513 3494 3482 3533 3491 3495 3478 3487 3538 3521 3550 3486 3520 3517 3588 3453 3566 3497 3523 3519 3529 3483 3512 3529 3537 3530 3498 3568 3547 3500 3553 3513 3506 3495 3558 3537 3559 3520 3506 3511 3457 3491 3438 3538 3594 3526 3545 3499 3465 3508 3585 3584 3591 3453 3566 3496 3512 3535 3508 3505 3572 3486 3516 3535 3449 3555 3539 3500 3523 3504 3461 3515 3515 3473 3541 3493 3519 3539 3541 3471 3472 3541 3543 3559 3528 3503 3519 3458 3537 3528 3503 3480 3563 3540 3522 3485 3533 3514 3477 3501 3505 3527 3485 3561 3515 3523 3547 3558 3577 3579 3470 3575 3508 3559 3529 3537 3599 3507 3532 3533 3487 3511 3489 3496 3502 3486 3451 3466 3468 3508 3545 3554 3554 3502 3520 3485 3513 3574 3479 3546 3518 3466 3594 3540 3506 3511 3490 3502 3601 3490 3506 3518 3516 3492 3516 3596 3514 3584 3473 3563 3518 3516 3500 3473 3457 3496 3498 3530 3478 3481 3553

Tree=0
num_leaves=31
num_cat=0
split_feature=22 21 7 21 21 12 29 24 29 6 11 21 8 15 8 21 12 4 21 24 24 24 24 11 21 29 29 24 24 11
split_gain=25856.2 3412.27 2583.74 1599.17 714.84 612.234 1125.74 587.658 535.656 467.503 290.032 279.776 251.089 206.196 183.015 246.38 166.081 160.532 154.344 143.481 139.812 134.301 127.549 123.792 123.647 122.501 120.166 119.096 116.058 115.54
threshold=0.00020853328083434453 0.00052492001025070611 0.001008386438007757 2.514076750227754e-06 0.000171098078864273 31.631182841805732 -48.760949355711325 3.7952740726166234 -98.652299313406047 -0.0019628670800479206 35.756692686338532 2.4248844165026411e-11 0.0023146082866033297 1.0000000180025095e-35 0.018555152536301422 0.0018409656505372696 39.315357567558685 -0.063748338559725448 0.0022508824783426195 0.51993685876325946 11118.826550388729 1.2018075836795066 0.99023734677734943 24.621026917185674 2.7448052908616035e-05 98.961590925095521 135.46966046675496 2.7776919009797401 7.6296496189118219 37.141116971199232
decision_type=2 2 10 2 2 10 2 2 2 8 10 2 10 2 8 2 10 10 2 2 2 2 2 10 2 2 2 2 2 10
left_child=3 4 5 11 -2 9 20 24 21 12 19 -1 17 14 -11 -16 29 -3 -10 -6 22 -4 -7 -15 -5 -12 -19 -13 -21 -8
right_child=1 2 8 7 10 6 16 -9 18 13 25 27 -14 23 15 -17 -18 26 -20 28 -22 -23 -24 -25 -26 -27 -28 -29 -30 -31
leaf_value=-0.11482511378373232 -0.056778207451498641 -0.02659664602541318 -0.0095896817126965052 -0.075485352089986218 -0.044057433834312779 -0.030338535821525563 -0.034281710320835573 -0.096288756211795612 -0.021354500201749369 -0.029577039479263177 -0.047221470390312735 -0.094798625077588447 -0.025983290965583744 -0.022349934289443135 -0.043093877173350059 -0.029386123399838981 -0.045283177379864911 -0.015638603727228566 -0.010233918232875564 -0.032638958810404024 -0.1042848130409539 0.0028453373301205315 -0.022751475789536912 -0.029564822912670145 -0.062070403697127477 -0.037965113307933937 -0.0015129841578089415 -0.1136116021479355 -0.056478396055886143 -0.044382495828811687
leaf_weight=4003.3054242134094 7844.0939935445786 2288.4255068898201 3807.0101738572121 3237.9780920147896 4119.8698416948318 9903.0259371399879 9081.5499628782272 2593.4456409811974 10424.720043540001 33311.94613134861 13075.645494997501 5174.486287176609 11935.331157505512 12341.052988529205 6861.9355762004852 6276.2687759995461 13749.971376597881 4995.8819628357887 4452.9092342853546 14157.945623576641 57.317018568515778 5053.7537137269974 12571.905174732208 11471.897784352303 3658.4170849323273 4919.0450484752655 2155.0529732108116 1004.5661244988441 529.63181692361832 4113.5152780413628
leaf_count=15956 30926 8971 14876 12811 16204 38849 35653 10301 40826 130662 51459 20547 46783 48340 26984 24617 54093 19544 17402 55565 228 19701 49248 44997 14438 19325 8408 4003 2088 16180
internal_value=-0.0359588 -0.0308123 -0.0274915 -0.0907658 -0.0430742 -0.0300589 -0.0345409 -0.0759991 -0.0122297 -0.0276389 -0.0401533 -0.104528 -0.0211639 -0.0296087 -0.031548 -0.0365455 -0.0414377 -0.0150703 -0.0180261 -0.0358116 -0.0262934 -0.00249734 -0.0260945 -0.0258257 -0.068369 -0.0446911 -0.0113816 -0.0978572 -0.0334986 -0.0374306
internal_weight=229172 209500 164853 19672.2 44646.2 141115 49477.3 9489.84 23738.4 91637.8 36802.1 10182.4 21374.7 70263.1 46450.2 13138.2 26945 9439.36 14877.6 18807.4 22532.2 8860.76 22474.9 23813 6896.4 17994.7 7150.93 6179.05 14687.6 13195.1
internal_count=899985 821929 646362 78056 175567 553557 194251 37550 92805 359306 144641 40506 83706 275600 182263 51601 105926 36923 58228 73857 88325 34577 88097 93337 27249 70784 27952 24550 57653 51833
is_linear=0
shrinkage=1


Tree=1
num_leaves=31
num_cat=0
split_feature=22 21 25 3 9 21 6 21 11 2 25 25 24 5 9 21 4 13 18 24 11 22 9 15 15 24 24 24 21 11
split_gain=23372.2 3079.85 1983.97 1749.57 692.917 633.749 595.878 557.924 473.116 376.94 291.221 231.086 214.349 207.648 255.746 274.403 196.97 194.856 185.597 160.528 151.798 128.92 117.738 117.419 116.857 113.372 110.777 109.436 102.659 101.316
threshold=0.00020853328083434453 0.00051794974573483637 42.915620527717742 inf -0.0088474480671549196 0.000171098078864273 -0.0034125842412112716 4.6982723532182325e-06 35.986893993074595 -0.71333277113104498 43.669745600446511 59.382173401780143 3.7952740726166234 0.0012862723265345988 -0.008198425862457644 0.0024862679504244907 1.2464297326697436 0.0045544088264564521 1.0000000180025095e-35 0.46738052111312939 62.288473153435419 0.0092764280554030517 -0.046180963707276625 1.0000000180025095e-35 1.0000000180025095e-35 7.6296496189118219 485.6205300154873 15.272588430655533 9.1697416503450083e-05 74.056104435836687
decision_type=2 2 2 8 10 2 8 2 10 10 2 2 2 10 10 2 10 2 2 2 10 2 10 2 2 2 2 2 2 10
left_child=3 5 4 7 17 28 11 -1 13 26 25 -4 -9 -8 15 23 20 24 29 -12 -13 -21 -5 -15 -3 -7 -6 -11 -2 -10
right_child=1 2 6 22 9 10 8 12 18 27 19 16 -14 14 -16 -17 -18 -19 -20 21 -22 -23 -24 -25 -26 -27 -28 -29 -30 -31
leaf_value=-0.051850365759952 -0.025873983939402875 0.0047615742361434184 0.0099894404904311389 -0.082883121668836837 0.035616680659629529 0.0063831864692004917 0.0051918627262518072 -0.02724947086105807 -0.0022765236988352556 0.021161260171661422 -0.012815588754551511 0.016291599418524549 -0.048026984795946262 -0.0016807887922254093 0.015113066722394869 0.015827324870514758 0.027556921115767786 0.019676180043988915 0.0087214653963893756 -0.0021960387187888275 -0.013352149100657261 -0.020674469943424527 -0.067978105067711042 0.007714612666492553 0.015049044788340227 -0.017234074942879443 -0.026264439721378499 -0.028335133441517391 -0.013837361950382644 -0.024940216981275336
leaf_weight=6032.1057976931334 2703.9085452258587 6541.834978684783 10584.28489421308 1982.2292900979519 7929.0235482156277 9207.9958423525095 52041.457198098302 6066.5678337067366 18965.060585305095 10314.722623214126 5300.5416606515646 3338.0748780667782 1560.6133714914322 7429.8056650310755 14936.956039682031 5446.1687822192907 4944.5378980487585 7084.8420511186123 4201.4731734395027 19897.701553463936 496.02984113991261 990.91443192958832 3995.5732810497284 6019.7786931544542 4775.582753136754 537.82284060120583 72.988014325499535 112.8962914198637 5136.6747243702412 506.28860272467136
leaf_count=23991 10681 25671 41491 7936 30921 36130 204208 23981 74533 40345 20878 13069 6202 29196 58495 21324 19315 27720 16476 78206 1953 3909 15946 23608 18702 2121 288 446 20245 1998
internal_value=0.00179826 0.00668686 0.00980233 -0.0503605 0.0200365 -0.00510887 0.00687825 -0.0404874 0.00544906 0.0268894 -0.00229873 0.014964 -0.0315008 0.00717429 0.0102237 0.0063586 0.0209618 0.0131734 -0.000809297 -0.00504454 0.0124565 -0.00307262 -0.0729206 0.00252441 0.00910255 0.00507987 0.0350523 0.0206254 -0.0179883 -0.00286582
internal_weight=229154 209517 165742 19637.1 36831.9 43775.6 128910 13659.3 109547 18429.6 35935 19362.9 7627.18 85874.2 33832.7 18895.8 8778.64 18402.3 23672.8 26189.2 3834.1 20888.6 5977.8 13449.6 11317.4 9745.82 8002.01 10427.6 7840.58 19471.3
internal_count=899985 821929 649759 78056 144093 172170 505666 54174 429838 72000 141244 75828 30183 336831 132623 74128 34337 72093 93007 102993 15022 82115 23882 52804 44373 38251 31209 40791 30926 76531
is_linear=0
shrinkage=0.05


Tree=2
num_leaves=31
num_cat=0
split_feature=22 21 7 3 21 25 12 21 25 8 25 25 12 8 12 4 12 10 15 22 10 15 21 7 15 25 4 9 9 25
split_gain=21153.2 2780.75 2165.32 1601.28 582.728 531.885 1277.34 509.695 459.525 429.856 306.461 271.212 272.982 228.832 175.905 175.129 158.783 156.582 143.183 142.406 141.183 139.861 186.546 128.162 134.869 120.591 116.725 114.251 108.632 97.4139
threshold=0.00020853328083434453 0.00052492001025070611 0.0014320083425182009 inf 0.000171098078864273 42.915620527717742 31.631182841805732 2.514076750227754e-06 41.934689017511722 0.00093938935982991803 48.687739292706404 47.387491394246105 37.164644821626808 0.016809206473812423 99.856939691000932 1.6726003807264183 41.444174596915396 74.444155376164346 1.0000000180025095e-35 0.0093943843416117792 95.565853578272666 1.0000000180025095e-35 0.0015116178459333646 -0.0013483157356364592 1.0000000180025095e-35 1.1983144471843661 -2.2250908868529184 -0.0045026070235688271 -0.046180963707276625 52.174988530801691
decision_type=2 2 10 8 2 2 10 2 2 8 2 2 10 8 10 10 10 10 2 2 10 2 2 10 2 2 10 8 10 2
left_child=3 4 5 7 -2 14 9 -1 25 15 -8 27 19 17 23 -7 -12 18 -11 -13 -9 22 -15 24 -3 -4 -27 -6 -5 -10
right_child=1 2 8 28 11 6 10 20 29 13 16 12 -14 21 -16 -17 -18 -19 -20 -21 -22 -23 -24 -25 -26 26 -28 -29 -30 -31
leaf_value=-0.050654520248662661 -0.017099439265649878 0.008451649728150077 -0.0089408334416221698 -0.07924869525296252 -0.00077260242458946401 0.013928239942673618 0.0041337828125529675 -0.026593806083638667 0.019849579892845352 0.0081028278354589502 -0.0024631251039605308 0.00026604350885054475 -0.012228405951667479 -0.0062812554895735956 -0.047979847437463079 0.028165279042826043 -0.011083159146373259 -0.026527082324120623 0.013854701009278759 -0.019416377026172174 -0.040850066257446326 0.0080268368679869417 0.0054489090003785687 0.02015741742728502 0.017096551234256824 0.040771182620760502 0.028999377957073899 0.0084329278282307529 -0.064890311650969784 0.0091566279099316999
leaf_weight=5309.6165756583214 7835.8843079507351 11188.541502654552 180.01520462334156 1969.7760424911976 7185.9891437888145 5861.2200223356485 11559.930639252067 5849.3363328874111 7873.0724618732929 33827.443962827325 13403.215408265591 13362.285618260503 8914.3819461017847 5835.9638656228781 114.93910782039165 3420.6282411962748 8882.7717681527138 296.07139572501183 15907.643122270703 986.86541314423084 2469.9598609954119 11255.22741651535 8084.7487529069185 6347.6579326242208 7560.1255102008581 2938.9367814660072 7428.3049928098917 6348.1246654093266 3976.8670777976513 2919.848943978548
leaf_count=21194 30926 43864 708 7936 28234 22954 45366 23164 30793 132638 52675 52502 35112 22955 456 13357 34972 1169 62302 3895 9816 44130 31719 24826 29586 11448 29000 24898 15946 11444
internal_value=0.00170838 0.0063524 0.00934933 -0.0479972 -0.00471894 0.0071401 0.00573527 -0.0385511 0.0242099 0.00902318 -0.00247228 -0.00208257 -0.00535667 0.00777027 0.013734 0.019175 -0.00589891 0.00972673 0.00994255 -0.00108762 -0.0308264 0.00388227 0.000531286 0.0140166 0.0119376 0.031632 0.0323365 0.00354522 -0.0696464 0.0169568
internal_weight=229095 209520 164886 19575.6 44633.5 143546 118335 13628.9 21340.2 84488.9 33845.9 36797.6 23263.5 75207.1 25211.3 9281.85 22286 50031.2 49735.1 14349.2 8319.3 25175.9 13920.7 25096.3 18748.7 10547.3 10367.2 13534.1 5946.64 10792.9
internal_count=899985 821929 646362 78056 175567 562969 464237 54174 83393 331224 133013 144641 91509 294913 98732 36311 87647 196109 194940 56397 32980 98804 54674 98276 73450 41156 40448 53132 23882 42237
is_linear=0
shrinkage=0.05


Tree=3
num_leaves=31
num_cat=0
split_feature=22 21 7 3 21 25 21 6 25 11 29 29 25 24 24 24 24 24 24 15 24 21 8 21 9 29 27 24 9 11
split_gain=19165.3 2514.03 1980.78 1475.48 495.906 478.207 468.331 444.201 631.489 320.89 242.218 239.08 224.039 192.539 160.061 149.724 140.586 140.032 127.312 122.119 151.35 113.371 210.16 109.217 125.915 105.103 115.948 104.349 101.463 99.7765
threshold=0.00020853328083434453 0.00050330217522504689 0.001008386438007757 inf 0.000171098078864273 42.444935638189477 4.6982723532182325e-06 -0.0034125842412112716 43.520080651991528 35.756692686338532 118.11499409392464 84.279261514648724 43.669745600446511 3.7952740726166234 80.422562998567926 485.6205300154873 0.46738052111312939 1.0961988277143333 1.2684332626171229 1.0000000180025095e-35 1.1493659352028647 0.0018629081690797542 0.018319705282206323 0.0022508824783426195 -0.011297735100909615 101.61980983561173 96.156972352700677 7.6296496189118219 -0.046180963707276625 52.696873490034235
decision_type=2 2 10 8 2 2 2 8 2 10 2 2 2 2 2 2 2 2 2 2 2 2 8 2 10 2 8 2 10 10
left_child=3 4 7 6 -2 15 -1 11 14 19 -11 29 27 -8 18 17 -14 -4 -9 21 -21 22 -10 24 -7 26 -18 -6 -5 -3
right_child=1 2 5 28 12 23 13 8 9 10 -12 -13 16 -15 -16 -17 25 -19 -20 20 -22 -23 -24 -25 -26 -27 -28 -29 -30 -31
leaf_value=-0.047192014548091625 -0.016256329504011412 0.0097764539464802389 0.021990921224751186 -0.075999985438335665 0.005611471254896248 -0.0056689237392821114 -0.024465159069506817 0.010332902688869872 0.0041425451921565321 -0.0048008777330916207 0.0065269155059353035 0.01969952512429474 -0.012096718627744509 -0.044206662029469809 -0.040618755273865492 -0.032001680607798622 -0.0026904870544413738 0.033441487341609642 0.017986186077278848 0.011557543490959043 0.0037486844262942225 0.0081790844699041187 -0.0056488198839855239 0.022440051187620939 0.0140178159321799 0.0038876565295227726 -0.013743595160870363 -0.017564678513345887 -0.062065385630710658 -0.012257759506845989
leaf_weight=5987.5454648882151 7830.3080172389746 11534.641398698092 4017.3682054579258 1951.7225799113512 8761.3725890517235 910.89222055673599 6049.8909297883511 17714.217457935214 31316.76766474545 16531.508316218853 6604.3225796818733 8612.5768989473581 5192.4492383152246 1551.9123228192329 141.63914619386196 99.453289523720741 12255.3771417588 7961.171636402607 7838.3874620348215 13694.622293427587 11345.98960237205 11073.232843399048 6642.72408439219 3459.1364149153233 7497.5474309027195 4475.1337137073278 2942.2796805351973 514.17696118354797 3950.6321131438017 537.72655779123306
leaf_count=23991 30926 45204 15707 7936 34374 3580 23981 69410 122884 65008 25906 33687 20463 6202 562 393 48184 31066 30667 53655 44520 43415 26128 13521 29355 17570 11598 2029 15946 2117
internal_value=0.00162315 0.00603521 0.00877667 -0.0457994 -0.00490775 0.0220899 -0.0367332 0.00655648 0.00541559 0.00357297 -0.00156726 0.0133353 -0.00230491 -0.0284954 0.0123868 0.0290939 -0.00477873 0.0296012 0.0126806 0.00517845 0.00801932 0.00372764 0.0024291 0.0149617 0.0118851 -0.00284721 -0.00483038 0.00432673 -0.0666731 0.00879501
internal_weight=228997 209505 167534 19491.7 41971.1 23945.6 13589.3 143588 122903 97209.2 23135.8 20684.9 34140.8 7601.8 25694.2 12078 24865.2 11978.5 25552.6 74073.3 25040.6 49032.7 37959.5 11867.6 8408.44 19672.8 15197.7 9275.55 5902.35 12072.4
internal_count=899985 821929 656785 78056 165144 93622 54174 563163 482155 381516 90914 81008 134218 30183 100639 47166 97815 46773 100077 290602 98175 192427 149012 46456 32935 77352 59782 36403 23882 47321
is_linear=0
shrinkage=0.05


Tree=4
num_leaves=31
num_cat=0
split_feature=22 21 7 21 21 24 12 25 25 24 15 25 12 9 21 25 24 13 9 22 12 24 9 24 2 9 24 25 21 25
split_gain=17380.5 2277.02 1759.19 1186.37 499.713 493.661 446.431 1107.24 386.011 255.577 241.953 236.485 270.537 179.764 176.39 175.509 159.936 150.481 148.489 142.703 142.281 127.113 117.299 113.781 98.5308 97.9814 97.1673 94.3305 93.0528 91.3966
threshold=0.00020853328083434453 0.00054720738325554294 0.0014320083425182009 4.7439086849323298e-07 0.000171098078864273 15.272588430655533 31.631182841805732 47.387491394246105 41.243158335318284 28.319568222398065 1.0000000180025095e-35 47.387491394246105 35.934907797097324 -0.053501557795156703 2.7448052908616035e-05 41.769335929183505 11118.826550388729 -0.0052283068273053998 -0.011297735100909615 0.0092764280554030517 41.928285106886079 485.6205300154873 -0.0038372551056156368 1.1129434281586603 0.37288393852030355 -0.043346498275759225 1.0961988277143333 50.42501372776389 9.1697416503450083e-05 66.021267162355755
decision_type=2 2 10 2 2 2 10 2 2 2 2 2 10 10 2 2 2 2 10 2 10 2 8 2 10 10 2 2 2 2
left_child=3 4 6 13 28 14 9 15 21 10 17 22 19 -1 -5 16 23 -3 24 -13 -9 26 -6 -8 -19 -26 -4 -10 -2 -16
right_child=1 2 8 5 11 -7 7 20 27 -11 -12 12 -14 -15 29 -17 -18 18 -20 -21 -22 -23 -24 -25 25 -27 -28 -29 -30 -31
leaf_value=-0.070278218808232609 -0.022974515661642263 0.013436278736272879 0.022417951824919607 -0.034363745305598492 -0.00034544856503321677 -0.054974925304935841 0.0099200026327101263 -0.0020004757296557801 0.018999043975718898 -0.037423354539830825 0.012234861123909261 0.0011689814176111572 -0.010762499161660609 -0.053612539135606756 -0.014611824915032601 0.0052334084348597733 -0.062588843281643311 -0.00031591152356111904 0.0089714627013424333 -0.017952424635006684 -0.0099443371101800362 -0.029688320956294218 0.0087687520894518377 0.018895846830331759 -8.0618405211457968e-05 0.0079475692083477156 0.033208347180424536 0.0093853303996271516 -0.011501502040524192 -0.030094039149076504
leaf_weight=2200.5812677145004 2697.0042071342468 7565.9803764820099 3038.6872022598982 4893.5291004180908 8484.7132670879364 2081.5722708702087 7715.637299194932 14985.999057725072 7504.4599483013153 300.74044273793697 32192.482616588473 13600.713621035218 10350.194071784616 6112.6587506085634 2592.5704432427883 10882.665066599846 68.442996978759766 10537.919126570225 22234.591713890433 1051.1514351218939 9034.9779624789953 90.555947735905647 6045.5318409651518 6509.3945276886225 5263.7363709807396 13672.525309443474 6656.9628397226334 3866.0898969471455 5126.9477339833975 1507.540128827095
leaf_count=9018 10681 29630 11885 19576 33332 8421 30232 58890 29358 1190 126090 53432 40781 24762 10281 42689 274 41393 87153 4153 35572 358 23704 25463 20668 53602 26004 15150 20245 5998
internal_value=0.00154229 0.00573421 0.00855163 -0.0437483 -0.0039111 -0.0330327 0.00653385 0.00269088 0.0219959 0.00859408 0.00874538 -0.00162614 -0.00457425 -0.0580241 -0.0279542 0.0100178 0.0136605 0.00685022 0.00588656 -0.000202823 -0.00498839 0.0292758 0.00344665 0.0140274 0.00355938 0.00571596 0.0298266 0.0157303 -0.0154564 -0.0203044
internal_weight=228867 209478 162122 19388.5 47356.3 11075.2 140965 49197.1 21156.8 91768 91467.2 39532.3 25002.1 8313.24 8993.64 25176.1 14293.5 59274.8 51708.8 14651.9 24021 9786.21 14530.2 14225 29474.2 18936.3 9695.65 11370.5 7823.95 4100.11
internal_count=899985 821929 635601 78056 186328 44276 552846 193120 82755 359726 358536 155402 98366 33780 35855 98658 55969 232446 202816 57585 94462 38247 57036 55695 115663 74270 37889 44508 30926 16279
is_linear=0
shrinkage=0.05


Tree=5
num_leaves=31
num_cat=0
split_feature=22 21 7 3 12 25 25 8 21 21 11 15 8 21 13 9 13 24 13 25 11 24 21 26 9 24 24 25 12 15
split_gain=15777.2 2207.85 1739.54 1193.61 671.19 977.178 445.796 371.619 333.811 308.038 279.655 236.891 207.407 223.173 202.212 173.767 157.29 151.86 139.668 124.836 137.53 121.584 114.107 111.255 107.657 103.118 102.725 99.1012 98.7582 96.8581
threshold=2.4362927406269576e-05 0.00038914583249360755 0.00055708871437538379 inf 34.795548770052285 48.327585490553737 42.444935638189477 0.00093938935982991803 2.514076750227754e-06 0.00010351352571201588 68.233235255211994 1.0000000180025095e-35 0.0085774181252914906 0.0018409656505372696 0.0025242999886628454 -0.0085238839663970035 0.00056723383432133077 15.272588430655533 0.0064009341962053372 60.48008963286744 90.26792150549511 485.6205300154873 0.0022508824783426195 3.977984768782972e-05 -0.011297735100909615 80.422562998567926 1.0751507872125379 35.864804269918949 46.850459107035469 1.0000000180025095e-35
decision_type=2 2 10 8 10 2 2 8 2 2 10 2 8 2 2 10 2 2 2 2 10 2 2 2 10 2 2 2 10 2
left_child=3 9 4 8 7 14 18 19 -1 -2 11 12 -9 15 -6 -14 -11 23 25 -3 26 27 24 -10 -8 -4 -21 -16 -7 -5
right_child=1 2 6 29 5 28 22 10 17 16 -12 -13 13 -15 21 -17 -18 -19 -20 20 -22 -23 -24 -25 -26 -27 -28 -29 -30 -31
leaf_value=-0.043995766205026987 -0.020432405268743487 0.010435315099048629 0.022822218672101782 -0.066232096172434543 0.0032275529580438472 -0.0056856926429016495 -0.0050929601291967684 0.0080567517695714075 -0.028744194533965026 -0.0075251778170544797 -0.014510619104592247 0.010133893867552285 -0.0031547001548034529 0.0078206373120293087 0.019405293729524566 0.0084689153569384983 0.0017389104213553345 -0.04549073345791009 0.033709082033958553 0.015290735037777409 -0.015472074810677411 -0.054017655251183606 0.020223396637262546 -0.014048441646485886 0.011671475942159728 -0.020267875487488127 0.028862451320871653 0.0090819507794149719 -0.013550882249334865 -0.0524396688817408
leaf_weight=5213.0454142391682 3904.3597676753998 5040.0296812355518 10237.245068535209 3900.505651012063 14528.141416713595 15666.639720857143 1063.6269669681787 28198.803122714162 4592.7428103387356 19531.972209900618 1561.6674548387527 34367.453433975577 16688.245041251183 11311.768595844507 3697.3895923048258 3982.6632438451052 5986.008129581809 1009.7937067449093 3564.98235706985 2534.7641495317221 245.52817711234093 68.315061315894127 3667.9501155465841 1789.7560580521822 9610.4243984818459 140.75100868940353 3098.774171680212 6262.1056336164474 5355.4307319670916 1889.5369434952736
leaf_count=21160 15483 19749 40076 16113 57015 61640 4180 110547 18335 76963 6157 134663 65586 44343 14462 15612 23509 4086 13943 9925 968 274 14349 7115 37650 556 12104 24543 21110 7769
internal_value=0.00146555 0.00534939 0.00741548 -0.0429386 0.00530458 0.000223237 0.0188045 0.00746845 -0.0343066 -0.00735318 0.00647539 0.00682202 0.00493073 0.00217454 0.00699713 -0.000915179 -0.00535201 -0.0274738 0.0251708 0.0162094 0.0211594 0.0124584 0.0126153 -0.0246233 0.010001 0.0222378 0.022756 0.0129144 -0.00768937 -0.061731
internal_weight=228710 210315 180893 18395.4 152608 45578 28285 107030 12605.3 29422.3 96110.6 94548.9 60181.5 31982.7 24556 20670.9 25518 7392.29 13943 10919.1 5879.07 10027.8 14342 6382.5 10674.1 10378 5633.54 9959.5 21022.1 5790.04
internal_count=899985 825407 709452 74578 598698 179044 110754 419654 50696 115955 376908 370751 236088 125541 96294 81198 100472 29536 54575 42746 22997 39279 56179 25450 41830 40632 22029 39005 82750 23882
is_linear=0
shrinkage=0.05


Tree=6
num_leaves=31
num_cat=0
split_feature=22 21 7 3 12 25 25 8 21 21 11 4 15 12 21 8 24 25 3 25 9 24 24 24 24 21 8 24 4 27
split_gain=14332.2 1993.54 1567.92 1115.12 609.212 945.216 403.173 350.11 308.061 286.273 244.091 223.024 200.291 156.149 149.663 208.694 142.335 140.099 148.768 139.603 132.673 125.745 143.546 118.896 109.14 107.841 106.406 101.622 92.196 91.4137
threshold=2.4362927406269576e-05 0.00039648129008075273 0.00055708871437538379 inf 31.631182841805732 47.387491394246105 42.444935638189477 0.0022355474532052204 2.514076750227754e-06 0.00010351352571201588 68.233235255211994 1.6492428607676981 1.0000000180025095e-35 40.497363907531941 0.0018197767573021537 0.0085774181252914906 3.7952740726166234 41.418043733352754 inf 41.418043733352754 -0.0085238839663970035 80.422562998567926 1.0961988277143333 7.6296496189118219 0.43144066117010399 0.0012734518424039182 0.009761144849297642 1.1129434281586603 -0.8105025988880542 inf
decision_type=2 2 10 8 10 2 2 8 2 2 10 10 2 10 2 8 2 2 8 2 10 2 2 2 2 2 10 2 10 8
left_child=3 9 4 8 7 17 21 11 -1 -2 12 28 14 -7 15 -9 26 18 27 23 -17 22 -4 -11 -21 -8 -10 -6 -3 -26
right_child=1 2 6 -5 5 13 25 10 16 19 -12 -13 -14 -15 -16 20 -18 -19 -20 24 -22 -23 -24 -25 29 -27 -28 -29 -30 -31
leaf_value=-0.042098248385502468 -0.019441225767672096 0.0025479032707396722 0.017820316726306178 -0.059389179002597971 0.0076562586394990752 -0.0020160218818461506 0.0070748935913396184 0.0067578752416786771 -0.028389276302115907 0.0036112350128627161 -0.014744717431268079 0.022591610809585445 0.0097431098151451075 -0.0094039694047196656 0.0089178002117287353 -0.0031011722261684808 -0.039330928717355315 0.0037173534133538434 -0.061949148663674992 -0.012889625103804007 0.0079019965612844422 -0.018776016742520565 0.028424399815586907 -0.021224284861789955 -0.0039260584084314203 0.015830960375522091 -0.014654974199480357 0.016056288770197869 0.012839017090777819 -0.026062245097028005
leaf_weight=5176.5482471138239 3898.3989782780409 2952.1126453131437 5057.6098090857267 5719.2603674530983 8455.0850431323051 15711.344902172685 6226.751884624362 16758.023214310408 3294.8538283407688 5803.2572341263294 1377.9722166806459 5282.7516471594572 29349.530673220754 13128.342765644193 13757.074989497662 14443.601036310196 1609.0841288119555 12621.678919136524 69.773178651928902 5606.5734488964081 3380.877642095089 169.84450919926167 8649.2576268613338 525.54390944540501 13925.023194983602 8078.8578535020351 2465.526130348444 6271.0178639143705 8281.8436246812344 482.54815359413624
leaf_count=21160 15483 11585 19820 23882 33145 61751 24417 65705 13180 22794 5436 20665 115004 51723 53914 56768 6530 49522 281 22141 13253 671 33902 2078 54812 31635 9826 24552 32439 1911
internal_value=0.0013927 0.0050832 0.00707862 -0.0410913 0.00506832 0.000940101 0.0179098 0.00749804 -0.0327499 -0.00679535 0.00611497 0.0141189 0.00648496 -0.00537915 0.00450676 0.00275203 -0.0261834 0.00758713 0.0108883 -0.00492393 -0.00101413 0.0239818 0.0245117 0.00154889 -0.00697074 0.0120197 -0.0225108 0.0112334 0.0101347 -0.00466746
internal_weight=228530 210265 180023 18265.3 151841 56257.2 28182.3 95583.8 12546 30241.3 79067.1 16516.7 77689.1 28839.7 48339.6 34582.5 7369.46 27417.6 14795.9 26342.9 17824.5 13876.7 13706.9 6328.8 20014.1 14305.6 5760.38 14726.1 11234 14407.6
internal_count=899985 825407 706188 74578 595743 220974 110445 374769 50696 119219 310080 64689 304644 113474 189640 135726 29536 107500 57978 103736 70021 54393 53722 24872 78864 56052 23006 57697 44024 56723
is_linear=0
shrinkage=0.05


Tree=7
num_leaves=31
num_cat=0
split_feature=22 21 7 3 21 4 25 25 12 21 25 11 25 11 9 12 25 3 29 15 3 4 25 10 27 9 12 4 15 29
split_gain=13027.1 1815.71 1270.93 1045.25 492.003 401.763 380.558 309.869 530.536 284.8 264.099 259.588 186.572 168.361 140.033 131.303 123.985 114.166 113.672 108.654 102.076 101.065 100.629 99.2637 95.454 94.0274 92.4329 92.5763 89.4539 84.2006
threshold=2.4362927406269576e-05 0.00062648232213913658 0.00047802789456407067 inf 0.000171098078864273 1.6233630974942159 37.744381915064558 42.915620527717742 32.119920114306105 2.514076750227754e-06 61.562262193789849 35.986893993074595 49.963189157539269 68.233235255211994 -0.0045026070235688271 40.497363907531941 49.266518723237567 inf 98.961590925095521 1.0000000180025095e-35 inf -0.74890314493728949 47.62729004894144 98.362473831659557 67.07023318611634 -0.046180963707276625 97.840871998076267 -2.1382824373322236 1.0000000180025095e-35 -91.715752077405739
decision_type=2 2 10 8 2 10 2 2 10 2 2 10 2 10 10 10 2 8 2 2 8 10 2 10 8 10 10 10 2 2
left_child=3 4 5 9 -2 7 26 20 13 -1 -7 14 -10 19 15 -6 -8 -12 24 21 28 -9 -17 -11 -13 -5 27 -4 -3 -16
right_child=1 2 6 25 11 10 16 8 12 23 17 18 -14 -15 29 22 -18 -19 -20 -21 -22 -23 -24 -25 -26 -27 -28 -29 -30 -31
leaf_value=-0.040306431766426072 -0.013790705943658145 0.0078290616509321693 0.036731525544994752 -0.066447655067051734 0.0039442565446964964 0.0089472653045182381 0.016804050353430796 0.0010494129555028776 0.0020825972076239227 -0.021655127025409671 0.023110307482702076 -0.0035187352504702785 -0.00696541677030783 -0.016110925910658637 0.013139542602928201 -0.0011459281028089062 0.0080160075263522885 -0.06290708713001944 0.00089144832524814307 0.0087473241352820415 -0.065059611469899928 0.0061892850370451049 -0.013062735073091686 -0.035184214031008187 -0.011304964943583129 -0.052698949202432704 -0.0094086891758550159 0.024472563653586018 0.015134818799018785 0.0037456465020860017
leaf_weight=5137.3433723598719 8513.8042443692684 11372.220506191254 2203.5614010989666 1850.3960919380188 8662.7794313430786 16585.736603289843 12300.617798522115 14950.609098464251 9632.7364695817232 5551.0908631235361 4642.1367752552032 8655.0378209352493 13946.111718386412 887.38884569704533 3640.8304234147072 5667.102316364646 5957.2729608714581 38.897957533597946 6270.3314663916826 21054.978241488338 44.784025683999062 26544.636829823256 2577.0898189842701 1793.9439840912819 7219.6450820416212 3792.0407246500254 167.43615572154522 5114.498506501317 6634.2525769323111 6917.9312556236982
leaf_count=21160 33762 44584 8651 7936 34001 65020 48236 58693 37816 22274 18167 34055 54901 3500 14265 22265 23360 155 24640 82520 183 104103 10169 7262 28480 15946 661 20078 25979 27163
internal_value=0.00132355 0.00483054 0.00770344 -0.0393487 -0.00268618 0.00564011 0.0178292 0.00437155 0.00313481 -0.0312758 0.0119074 -0.00078051 -0.003269 0.00551502 0.00246712 -0.000354275 0.0139366 0.0223955 -0.00480844 0.00582182 0.0103333 0.0043374 -0.00487106 -0.0249595 -0.00705983 -0.0572077 0.0273235 0.0281639 0.0105208 0.00698481
internal_weight=228327 210202 152078 18124.8 58124.6 126334 25743.4 105068 87016.5 12482.4 21266.8 49610.7 23578.8 63437.6 27465.7 16907 18257.9 4681.03 22145 62550.2 18051.3 41495.2 8244.19 7345.03 15874.7 5642.44 7485.5 7318.06 18006.5 10558.8
internal_count=899985 825407 596607 74578 228800 495621 100986 412279 341533 50696 83342 195038 92717 248816 107863 66435 71596 18322 87175 245316 70746 162796 32434 29536 62535 23882 29390 28729 70563 41428
is_linear=0
shrinkage=0.05


Tree=8
num_leaves=31
num_cat=0
split_feature=22 21 25 12 21 9 24 4 25 21 8 11 21 26 21 29 8 15 25 9 25 24 25 24 21 8 10 15 24 6
split_gain=11846.6 1647.18 1107.52 957.955 846.742 404.86 374.916 292.151 261.706 234.732 209.785 206.449 204.016 168.561 159.657 154.915 147.023 133.629 124.276 117.178 116.497 114.519 113.773 108.21 99.9055 178.038 96.8958 94.6968 89.3375 81.3658
threshold=2.4362927406269576e-05 0.00038914583249360755 42.915620527717742 35.174723818700976 3.429139295122136e-08 -0.0090544934463632782 15.272588430655533 1.6233630974942159 48.687739292706404 0.00010351352571201588 0.0049097297181960164 41.309251228597269 0.0011204446343538045 3.977984768782972e-05 0.0016852156837102136 135.46966046675496 0.0012545503073789844 1.0000000180025095e-35 60.279322853686111 -0.011297735100909615 41.418043733352754 80.422562998567926 31.570075311945626 7.6296496189118219 0.0014977539037045607 0.0074327612274976045 99.609273512170788 1.0000000180025095e-35 0.43144066117010399 -0.0050872862440366996
decision_type=2 2 2 10 2 10 2 10 2 2 10 10 2 2 2 2 10 2 2 10 2 2 2 2 2 8 10 2 2 8
left_child=4 9 5 7 16 14 13 11 -5 -2 18 17 -7 26 27 -13 -1 19 -9 24 23 -20 -14 -11 25 -4 -6 -3 -22 -10
right_child=1 2 3 8 6 12 -8 10 29 20 -12 15 22 -15 -16 -17 -18 -19 21 -21 28 -23 -24 -25 -26 -27 -28 -29 -30 -31
leaf_value=-0.060406971810111815 -0.017834119244265069 0.0012868355606309497 0.007215884474471905 0.0027993067805057504 -0.025470064810785509 0.013994585862360191 -0.048138763787682511 0.012437461605815294 0.0054907890915836177 0.0033498720291886734 0.0069661126987980108 -0.0049195812196108583 0.033522226279643005 -0.01191627319003348 0.014498694313534228 0.0071071018806587467 -0.045063907292968525 0.0091736102530974445 0.025146941524786609 0.0073249442435896041 -0.011927478259590734 -0.047402999488265263 0.020788358318353805 -0.020577544864316729 0.0055737161451684383 -0.0048247302278874157 -0.038504761865847392 0.010158479067709579 -0.0044029890720868317 -0.0073830654703370691
leaf_weight=3055.4388413280249 3887.002344429493 7130.5319613516331 4772.0870853364468 11533.559705123305 5725.0008781552315 11511.261360421777 2247.6723481267691 5082.965524494648 1309.124008461833 5641.9363222569227 9227.8102121502161 7777.610565662384 2317.7972655594349 1856.7122546732426 6964.9761881828308 4083.3359754681587 3192.9859322607517 26639.722642749548 4012.7308498471975 24231.511051014066 5520.3948996067047 55.140453726053238 7212.7367366403341 515.70569944381714 13432.205270409584 8608.2455742508173 1898.5665354281664 5202.5593986362219 13820.751291200519 19646.142394945025
leaf_count=13124 15483 27992 18710 45273 23259 45159 9440 19914 5140 22164 36186 30588 9121 7444 27310 16017 13450 104422 15714 95014 21827 219 28350 2042 52686 33846 7861 20399 54439 77392
internal_value=0.00125785 0.0045905 0.00637541 0.00427759 -0.0376997 0.0136774 -0.0297789 0.00654353 -0.00324957 -0.00638848 0.0122857 0.00536497 0.0184744 -0.0254259 0.00844691 -0.000779188 -0.0525666 0.00630307 0.0176501 0.00480495 -0.00464372 0.0241635 0.0238852 0.00134594 0.00252754 -0.000530453 -0.0287162 0.00502923 -0.00655065 -0.00657881
internal_weight=228114 210138 180752 140412 17976.4 40339.9 11728 107923 32488.8 29385.8 18378.6 89544.7 21041.8 9480.28 19298.1 11860.9 6248.42 77683.8 9150.84 51044 25498.8 4067.87 9530.53 6157.64 26812.5 13380.3 7623.57 12333.1 19341.1 20955.3
internal_count=899985 825407 709452 551121 74578 158331 48004 423316 127805 115955 72033 351283 82630 38564 75701 46605 26574 304678 35847 200256 100472 15933 37471 24206 105242 52556 31120 48391 76266 82532
is_linear=0
shrinkage=0.05


Tree=9
num_leaves=31
num_cat=0
split_feature=22 21 7 3 21 4 25 25 12 21 25 11 8 9 25 8 10 25 12 25 29 21 15 3 25 12 15 7 4 11
split_gain=10776.8 1506.5 1083.5 948.699 407.106 335.472 315.289 254.077 470.005 245.576 223.615 207.052 149.497 125.716 125.442 124.162 120.384 115.966 109.043 107.881 97.3002 95.56 93.9171 93.7973 88.3142 83.531 83.2045 83.4862 82.5341 81.8009
threshold=2.4362927406269576e-05 0.00062648232213913658 0.00047802789456407067 inf 0.00021289393622263034 1.6233630974942159 37.744381915064558 44.377659685805746 31.129100493000511 2.514076750227754e-06 59.382173401780143 35.986893993074595 0.016809206473812423 -0.0045026070235688271 50.644783906882893 0.0063723054896623341 74.444155376164346 64.254155529656472 40.497363907531941 52.174988530801691 118.11499409392464 9.1697416503450083e-05 1.0000000180025095e-35 inf 67.971742950057148 97.840871998076267 1.0000000180025095e-35 -0.007720311384535254 -2.1382824373322236 28.417298392704335
decision_type=2 2 10 8 2 10 2 2 10 2 2 10 8 10 2 10 10 2 10 2 2 2 2 8 2 10 2 8 10 10
left_child=3 4 5 9 21 7 25 23 12 -1 -7 13 16 18 -10 -12 17 -9 -6 -8 -13 -2 -5 26 -11 28 27 -3 -4 -14
right_child=1 2 6 22 11 10 19 8 14 24 15 20 29 -15 -16 -17 -18 -19 -20 -21 -22 -23 -24 -25 -26 -27 -28 -29 -30 -31
leaf_value=-0.036919252952696609 -0.01813127805747624 0.0019813100743384169 0.033929597834138667 -0.058012085066388885 0.0037639788536912109 0.0076286538066433849 0.014762247042440835 0.0059765736643043743 0.0011161315345291172 -0.017768825974819779 0.023452569528189568 -0.0059803808205843752 0.0040325358671811804 0.0070342584516435063 -0.0063392825290071236 0.0070229203389419251 -0.026050627303282101 0.013917776328010023 -0.004456402386179315 0.0052607393060110329 0.002478656400074877 -0.0080202897381259491 -0.04407082552768414 -0.063536574375791036 -0.028876458687149793 -0.0099135868551498765 0.012789590834476961 0.0097155864605268528 0.022321222308269772 -0.0024775219232287052
leaf_weight=5050.3016247004271 3197.5717055350542 6014.5344221293926 2189.1980980932713 3684.760594189167 8518.1471579670906 15359.052322074771 14470.111371085048 32887.155940636992 9418.813161700964 4136.3253584206104 4326.5581762939692 15848.393347144127 12721.236437246203 9854.7281794101 14070.96433955431 1566.2076501250267 276.05749048292637 5344.3239286839962 7663.6850011497736 3764.692577496171 4327.7853032052517 8681.2271812260151 1797.2667955905199 44.946790441870689 3153.9751774966717 167.39324052631855 8176.5544941276312 8309.6692744344473 5094.3371597081423 7774.2189616113901
leaf_count=21160 12769 23607 8651 16113 33433 60233 56824 128971 36990 16713 16965 62443 49919 38669 55407 6144 1092 20935 30158 14772 17001 34327 7769 185 12823 661 32050 32576 20078 30547
internal_value=0.00119544 0.00436251 0.00698035 -0.0361335 -0.00248615 0.00507639 0.0163417 0.00391725 0.00263166 -0.0284449 0.0108055 -0.000364011 0.00501297 0.00258215 -0.00334985 0.0190858 0.0068491 0.00708666 -0.000129178 0.0128006 -0.00416592 -0.010742 -0.0534415 0.00862111 -0.0225743 0.0250078 0.00876525 0.00646807 0.0258103 0.00156318
internal_weight=227890 210068 151976 17822.6 58091.5 126290 25685.7 105038 82492.8 12340.6 21251.8 46212.7 59003 26036.6 23489.8 5892.77 38507.5 38231.5 16181.8 18234.8 20176.2 11878.8 5482.03 22545.7 7290.3 7450.93 22500.8 14324.2 7283.54 20495.5
internal_count=899985 825407 596607 74578 228800 495621 100986 412279 323861 50696 83342 181704 231464 102260 92397 23109 150998 149906 63591 71596 79444 47096 23882 88418 29536 29390 88233 56183 28729 80466
is_linear=0
shrinkage=0.05


Tree=10
num_leaves=31
num_cat=0
split_feature=22 21 3 25 12 21 4 21 8 25 24 24 24 15 24 25 21 8 12 4 24 24 24 25 15 22 25 13 21 24
split_gain=9807.04 1364.04 895.315 879.597 580.106 314.615 278.524 229.564 227.116 197.48 170.028 157.659 156.626 150.016 147.808 142.22 139.169 201.333 134.765 125.573 121.866 136.817 118.184 96.0465 89.5217 88.5184 85.119 76.1391 72.8883 70.9345
threshold=2.4362927406269576e-05 0.00054720738325554294 inf 41.934689017511722 37.801945200169271 0.000171098078864273 -1.9263864878087653 7.9608216269734971e-06 0.00086074786389708053 48.687739292706404 0.51993685876325946 28.319568222398065 11118.826550388729 1.0000000180025095e-35 80.422562998567926 42.915620527717742 0.0018629081690797542 0.028560785441799085 40.497363907531941 -0.063748338559725448 1.0961988277143333 15.272588430655533 3.7952740726166234 64.254155529656472 1.0000000180025095e-35 0.0088265090395785069 35.067308197833945 0.0083964192611912427 3.429139295122136e-08 1.0500416842253288
decision_type=2 2 8 2 10 2 8 2 8 2 2 2 2 2 2 2 2 8 10 8 2 2 2 2 2 2 2 2 2 2
left_child=2 5 7 6 8 -2 12 28 19 29 -7 13 27 16 15 -12 17 -10 25 -5 -8 26 -9 -21 -4 -17 -22 -3 -1 -6
right_child=1 3 24 4 9 10 20 22 11 -11 14 -13 -14 -15 -16 18 -18 -19 -20 23 21 -23 -24 -25 -26 -27 -28 -29 -30 -31
leaf_value=-0.040449240610508794 -0.011981445861455428 0.021738925066592082 -0.056134217046297133 0.0045381697124071063 -0.0021587543071481022 -0.0071299004473320453 0.0084785322823953714 -0.016199507388200786 0.0036122458632516109 -0.0067813222674979676 0.006930605405524386 -0.034882516800900272 -0.057263457768535003 0.0079997050125359039 -0.026107811846375929 0.0024662850673302546 0.0077909959742691499 -0.0074216035052949263 -0.0070184719735000723 0.012065267900049581 0.02167861378495271 -0.018752079563511173 -0.032807299163432155 0.024071398452873149 -0.042423842216901736 -0.013474038221250885 0.012928001080205429 0.035768325446500035 -0.02947355348581019 0.0067976124615247435
leaf_weight=2499.1070193499327 8485.3546066731215 4099.1764673888683 3619.2985889166594 2878.3003157824278 3950.8962824642658 9692.1912419497967 13765.393810421228 4536.7356045842171 40933.982028856874 13068.556972905993 7436.4935318976641 243.2883109152317 58.422112286090851 35788.912295550108 513.42449061572552 14440.665947541595 17074.818642303348 4598.7556868195534 6641.9888978153467 4075.4405294209719 4406.9548297524452 287.37788769602776 1402.3201396614313 2817.2991891652346 1774.2799028158188 926.81890171766281 7522.9331312179565 1265.7069921791553 3832.0827308744192 5019.2234916239977
leaf_count=10620 33762 16175 16113 11295 15523 38214 54061 18292 160644 51498 29168 966 238 140368 2035 56726 66969 18099 26180 15988 17343 1139 5822 11064 7769 3670 29580 5010 15962 19692
internal_value=0.00113615 0.00414597 -0.0346454 0.00634361 0.00453505 -0.00324337 0.0138557 -0.0271821 0.0060384 -0.00286008 -0.00137344 0.00531811 0.0241621 0.00541751 0.000488835 0.000952578 0.00394143 0.00249784 -0.00106726 0.0133097 0.0117045 0.0153393 -0.0201209 0.0169726 -0.051624 0.00150492 0.0161605 0.0250488 -0.033806 0.00285277
internal_weight=227656 209992 17663.8 161855 130449 48136.9 31406 12270.2 108411 22038.7 39651.6 98639.8 5423.31 98396.5 29959.4 29446 62607.6 45532.7 22009.5 9771.04 25982.7 12217.3 5939.06 6892.74 5393.58 15367.5 11929.9 5364.88 6331.19 8970.12
internal_count=899985 825407 74578 635652 512106 189755 123546 50696 425393 86713 155993 387046 21423 386080 117779 115744 245712 178743 86576 38347 102123 48062 24114 27052 23882 60396 46923 21185 26582 35215
is_linear=0
shrinkage=0.05


Tree=11
num_leaves=31
num_cat=0
split_feature=21 13 3 12 11 25 9 24 21 25 11 8 29 25 15 9 8 9 21 24 24 24 25 24 4 9 2 11 12 2
split_gain=8953.53 1129.11 874.954 766.526 645.525 467.52 406.795 299.262 240.431 239.959 207.747 195.859 185.762 181.87 147.457 136.112 117.801 164.066 199.565 117.324 115.512 114.796 110.846 100.31 100.295 94.9322 83.6721 79.8873 79.4781 78.8762
threshold=9.1697416503450083e-05 0.0024742327827530926 inf 35.174723818700976 64.026098316501788 48.927152774337181 -0.0084148928207691837 80.422562998567926 7.9608216269734971e-06 67.971742950057148 41.007907196580589 0.0059474596677697054 67.639397985688603 36.848769122720846 1.0000000180025095e-35 -0.0040032865643214307 0.0077086462410996684 -0.009710775463623136 0.0019314954869767361 80.422562998567926 1.8880214579045982 28.319568222398065 30.856490808535181 0.85421693388395437 -0.68412772490972984 -0.046180963707276625 -0.1703821295684316 0.17009186645558746 46.850459107035469 -1.4608809617066518
decision_type=2 2 8 10 10 2 8 2 2 2 10 8 2 2 2 10 8 10 2 2 2 2 2 2 10 10 10 10 10 10
left_child=2 3 8 4 9 7 19 15 -1 10 14 23 21 27 16 -5 24 18 -18 22 -10 -6 -3 -11 -2 -4 -17 -8 -7 -15
right_child=1 6 25 5 12 28 13 -9 20 11 -12 -13 -14 29 -16 26 17 -19 -20 -21 -22 -23 -24 -25 -26 -27 -28 -29 -30 -31
leaf_value=-0.032425889198178154 0.0014541160168878694 0.018550819153314441 -0.059244311144436783 -9.1023952697751701e-05 -0.015512584434895661 -0.0056581078367389072 -0.018630025369802398 -0.033408959799642889 -0.015968993218624657 0.010665429763317745 -0.0013785195989211461 0.004694710524043683 -0.003714484190455853 0.022597690649980771 0.0086852537171092838 0.010638698254185779 -0.0041727154913392224 0.0076824738990219901 0.0067642190840467757 -0.046293337546261831 -0.031931806375992106 -0.042215016484819179 0.0066671751819348084 0.026556454124865448 0.0085133999761021623 -0.044784334510040387 0.0014952542920474907 0.02489724665201646 -0.011742495226411688 0.011306534273459094
leaf_weight=6332.6692298203707 6806.239758759737 2131.8108719289303 1672.2239773869514 18282.424753442407 2155.0929395854473 19516.938901603222 107.27191618084908 591.66375839710236 5816.0842156857252 1520.1686178445816 11429.501219972968 3144.8888828754425 4360.6826223433018 1885.6924353390932 29018.515344321728 6379.5778928697109 12812.326259404421 8687.8468345850706 6184.1254859119654 101.32084411382675 1407.595339268446 494.93705756962299 24674.774824410677 2864.0653624981642 19296.186625167727 3533.5037552267313 4116.6277874261141 6083.7521795779467 7403.198509812355 8604.0578615665436
leaf_count=26799 26719 8370 7717 71917 8599 76965 430 2420 23424 5973 44945 12345 17198 7435 113833 25091 50366 34092 24255 409 5806 2045 96870 11239 75678 15680 16186 24091 29269 33819
internal_value=0.00107979 0.00405477 -0.0320051 0.00216467 0.00461576 -0.00257177 0.0112124 0.00179075 -0.0253141 0.00562676 0.00494046 0.0142164 -0.0100593 0.0173472 0.00581267 0.00251442 0.00426287 0.00199076 -0.000612294 0.00740925 -0.0190795 -0.0204997 0.00761223 0.0210465 0.00667268 -0.0494293 0.00705263 0.024143 -0.00733135 0.0133363
internal_weight=227416 208654 18762.1 165065 108775 56290.4 43588.7 29370.3 13556.3 101764 94234.7 7529.12 7010.71 16680.8 82805.2 28778.6 53786.7 27684.3 18996.5 26907.9 7223.68 2650.03 26806.6 4384.23 26102.4 5205.73 10496.2 6191.02 26920.1 10489.8
internal_count=899985 820559 79426 649135 427287 221848 171424 115614 56029 399445 369888 29557 27842 65775 324943 113194 211110 108713 74621 105649 29230 10644 105240 17212 102397 23397 41277 24521 106234 41254
is_linear=0
shrinkage=0.05


Tree=12
num_leaves=31
num_cat=0
split_feature=22 21 25 21 12 24 5 8 25 11 24 24 21 15 8 10 21 8 14 13 12 24 25 22 12 12 25 17 29 15
split_gain=8151.43 1140.26 789.344 694.202 694.174 315.583 279.556 242.818 237.939 186.518 162.297 176.289 158.077 141.09 137.862 137.685 104.265 184.399 102.867 96.9563 92.8872 90.0162 93.2047 79.0542 77.0215 73.7935 120.52 72.6323 72.4425 71.981
threshold=2.4362927406269576e-05 0.00038914583249360755 42.915620527717742 3.429139295122136e-08 31.129100493000511 28.319568222398065 0.0023265274158179318 0.00093938935982991803 50.644783906882893 68.233235255211994 80.422562998567926 1.1244145252716009 0.00010351352571201588 1.0000000180025095e-35 0.0012545503073789844 99.609273512170788 0.0018629081690797542 0.023228648981523214 1.0000000180025095e-35 0.00056723383432133077 44.97816118688133 80.422562998567926 60.48008963286744 0.017428085311683657 42.710960900820126 90.980754191171414 31.570075311945626 1.0000000180025095e-35 -90.326625394941502 1.0000000180025095e-35
decision_type=2 2 2 2 10 2 10 10 2 10 2 2 2 2 10 10 2 10 2 2 10 2 2 2 10 10 2 2 2 2
left_child=3 12 6 14 7 15 29 21 20 13 11 -8 -2 16 -1 18 17 -9 -5 -14 -6 22 -4 -11 -10 26 28 -24 -13 -3
right_child=1 2 4 5 8 -7 10 9 24 23 -12 25 19 -15 -16 -17 -18 -19 -20 -21 -22 -23 27 -25 -26 -27 -28 -29 -30 -31
leaf_value=-0.053729439967633123 -0.01482409863315565 0.0046763048177084271 0.008287745176999017 -0.010850274524042618 0.0044343631972625173 -0.043296521056720667 0.010781175211962467 0.0038367779074167663 -0.0030627010957434957 -0.0021146246735431109 -0.024701815817194706 0.032295717763197875 -0.0056748247737952104 0.0080411279686044661 -0.03843967585340953 -0.031877421043450857 0.0074081948400151728 -0.0060284933318066041 -0.022845078183104106 0.0016017841244725071 -0.0028175649721070496 -0.034418970746837634 0.024000931942143727 -0.024771680864610231 -0.0090849004373005551 -0.0014409745663880483 0.017583507140411174 0.012517219292675514 0.0083509529114459673 0.011170596950448364
leaf_weight=2859.9441445767879 3859.6157298088074 12178.05846722424 4384.4650706648827 3134.0296519547701 14648.14585185051 1907.8195212334394 9621.572646677494 33092.779154092073 16214.729964211583 873.65942150354385 250.47877678275108 2584.0618684589863 19489.380570337176 30633.271428108215 3042.8847633749247 2234.3448813855648 14412.477054849267 5528.0130586922169 4160.0318309664726 5983.1857046633959 6321.0264910459518 98.036208465695381 2659.2824130505323 688.32136231660843 7894.2531304061413 389.99099896848202 8244.5048394352198 2855.3203761726618 359.86198307573795 6567.8446443974972
leaf_count=13124 15483 47814 17205 12868 57498 8397 37881 129857 63796 3442 999 10274 76963 120183 13450 9531 56542 21753 17208 23509 24860 389 10469 2731 31176 1540 32613 11220 1428 25782
internal_value=0.00102624 0.00374886 0.00523468 -0.0319221 0.00346489 -0.0247344 0.0114121 0.00588467 -0.00164679 0.00501994 0.0153101 0.0157829 -0.00539443 0.00533954 -0.0458476 -0.0210178 0.00377903 0.00242471 -0.0176913 -0.00396564 0.00224831 0.0132567 0.0137289 -0.012099 -0.00503461 0.0199392 0.0206845 0.018055 0.0293687 0.00695166
internal_weight=227171 209832 180500 17339.1 140304 11436.2 40196.4 95225.6 45078.2 85228.5 21450.5 21200 29332.2 83666.5 5902.83 9528.41 53033.3 38620.8 7294.06 25472.6 20969.2 9997.1 9899.07 1561.98 24109 11578.4 11188.4 5514.6 2943.92 18745.9
internal_count=899985 825407 709452 74578 551121 48004 158331 373791 177330 334508 84735 83736 115955 328335 26574 39607 208152 151610 30076 100472 82358 39283 38894 6173 94972 45855 44315 21689 11702 73596
is_linear=0
shrinkage=0.05


Tree=13
num_leaves=31
num_cat=0
split_feature=21 7 21 3 12 11 11 8 12 7 2 21 28 8 4 21 17 27 15 21 9 3 12 7 12 19 15 17 9 4
split_gain=7450.82 1089.83 779.484 667.774 331.35 404.621 257.67 271.055 231.548 164.37 162.918 151.868 141.209 139.065 123.189 107.901 104.316 93.4585 89.7116 99.6349 87.7496 86.3075 84.7198 78.5062 80.4526 74.7303 74.5023 74.4389 110.137 73.3115
threshold=6.7819344938939373e-05 0.0015610984543326016 0.00033988184080134103 inf 29.023207589440869 31.680941410402788 86.23380653497334 0.0022355474532052204 97.840871998076267 0.006086501968370928 -0.019976551463297239 3.429139295122136e-08 inf 0.017656875291532311 -0.21243625764890114 0.0013494825073286144 1.0000000180025095e-35 48.255896447692258 1.0000000180025095e-35 0.0014977539037045607 -0.046180963707276625 -0.69204580519478331 37.801945200169271 -0.0041761244001931206 12.083398012827397 1.0000000180025095e-35 1.0000000180025095e-35 1.0000000180025095e-35 -0.0092678426198488668 -0.17162193408313162
decision_type=2 10 2 8 10 10 10 10 10 10 8 2 8 10 8 2 2 8 2 2 10 10 10 8 10 2 2 2 8 10
left_child=3 2 12 11 6 10 7 14 9 -3 21 -1 27 18 -4 16 -15 -12 19 -9 -5 -6 -19 24 -16 -11 -22 -2 -29 -7
right_child=1 8 4 20 5 29 -8 13 -10 25 17 -13 -14 15 23 -17 -18 22 -20 -21 26 -23 -24 -25 -26 -27 -28 28 -30 -31
leaf_value=-0.035896361965446065 -0.0027270026266067266 0.011481093048451387 0.0047955461649016396 -0.05632435636813117 0.0020591622338334572 -0.0066259784237030347 -0.018475194956522625 0.0027638410979302377 -0.015861786346061772 0.017835194087951048 0.003946975695812145 -0.021825770823683029 -0.017569104785994948 -0.0014877616823822017 0.025356175686542266 0.0038039122037255915 -0.021463960733015451 0.00237950737722528 0.0091070937536565782 0.0088823705002696093 -0.047883626458577168 0.0090052232306685066 -0.0056841829883184057 0.00689925902992518 0.014154678823948347 0.029507605183799159 -0.032486859208113367 -0.022057233245734179 -0.0061575021256824554 -0.0013466972360549399
leaf_weight=2418.594256401062 12942.566764608026 14484.298347711563 4394.6122353971004 1594.5069556236267 6337.3271250277758 13137.233384802938 1104.8089785575867 22644.627143636346 639.91290827095509 6107.6399597525597 14248.404963627458 9259.8987701386213 2515.9978066682816 7324.1093569099903 2150.4289617240429 16349.444228991866 717.55681023001671 6128.722899004817 16410.164317011833 9422.0719612389803 2080.6127072870731 15194.450351640582 6952.316834077239 2486.9564416408539 6296.6509412378073 1768.2413652688265 1262.4021677970886 1328.3044021725655 6049.8125669807196 13166.844101861119
leaf_count=10620 51176 57185 17249 7681 24943 51778 4406 88887 2579 24170 55961 38433 10251 28795 8468 64186 2833 24063 64389 36948 9583 59672 27407 9758 24753 7067 5711 5285 23927 51821
internal_value=0.000975368 0.00352206 0.00226076 -0.0312573 0.00346269 0.00101647 0.00552168 0.00582228 0.0137936 0.0146422 0.0037081 -0.0247398 -0.00639536 0.00455096 0.0118658 0.00147159 -0.00327024 0.0011454 0.00610034 0.00456163 -0.0466729 0.00696083 -0.00190619 0.0147075 0.0170063 0.0204558 -0.0420694 -0.00501188 -0.00901998 -0.00398337
internal_weight=226920 210304 187303 16616 164467 75165.3 89301.4 88196.6 23000.1 22360.2 48861.2 11678.5 22836.7 72868 15328.6 24391.1 8041.67 27329.4 48476.9 32066.7 4937.52 21531.8 13081 10934 8447.08 7875.88 3343.01 20320.7 7378.12 26304.1
internal_count=899985 827957 736956 72028 646317 295645 350672 346266 91001 88422 192046 49053 90639 286038 60228 95814 31628 107431 190224 125835 22975 84615 51470 42979 33221 31237 15294 80388 29212 103599
is_linear=0
shrinkage=0.05


Tree=14
num_leaves=31
num_cat=0
split_feature=22 7 21 21 12 25 24 8 13 11 12 8 4 26 12 11 8 25 24 24 21 4 18 15 9 25 25 17 25 21
split_gain=6786.53 1001.38 694.577 616.874 303.275 632.4 291.703 239.894 207.118 168.956 145.289 131.766 129.288 123.675 119.472 127.904 114.876 106.07 105.985 117.495 100.835 99.7568 99.1979 87.5547 85.9712 90.5676 83.918 81.7985 80.4573 79.7451
threshold=2.4362927406269576e-05 0.0014320083425182009 0.00033988184080134103 3.429139295122136e-08 27.753559212688511 47.508039019326539 28.319568222398065 0.0027452575661511994 0.0029781627530394207 74.056104435836687 42.45760939420137 0.0012545503073789844 -0.21243625764890114 3.977984768782972e-05 99.856939691000932 25.727578170259829 0.017656875291532311 1.1983144471843661 0.31000662051758537 3.1622814082690316 0.0014977539037045607 -0.39205863850883033 1.0000000180025095e-35 1.0000000180025095e-35 -0.020491052851256051 37.744381915064558 30.856490808535181 1.0000000180025095e-35 52.274819520111969 0.0018197767573021537
decision_type=2 10 2 2 10 2 2 10 2 10 10 10 10 2 10 10 10 2 2 2 2 10 2 2 8 2 2 2 2 2
left_child=3 2 18 11 7 14 13 12 17 16 21 -1 -4 -5 15 24 23 -3 -2 -20 27 -7 -14 29 -6 -26 -10 -18 -19 -9
right_child=1 8 4 6 5 10 -8 9 26 -11 -12 -13 22 -15 -16 -17 20 28 19 -21 -22 -23 -24 -25 25 -27 -28 -29 -30 -31
leaf_value=-0.050706656616125549 -0.012377162224269357 -0.016541955410620809 0.0039651207530600986 -0.021980767887056284 0.0040108825393275352 -0.004641713819132135 -0.040744040876427551 0.0028868226204165261 0.026690676455964096 -0.015346333178531466 -0.0079343325086345846 -0.035513593500144887 0.010948572993545432 -0.0077262244351707816 -0.034110164180775893 0.0017421354700038905 -0.0011621346078743741 0.012003213419473897 -0.0028351300653491267 -0.016490400592411667 0.0041877900298428576 0.0011662154992846138 0.021571236828013221 0.0090421795535090676 0.014951147223832967 0.0072977872225222775 0.015970590368403297 -0.017983167506768184 0.0027611072479341854 0.0095235743862331027
leaf_weight=2751.4887536168098 5101.8313134014606 394.44258697330952 5093.3995776176453 7527.7604741901159 9183.0037693083286 12987.106223523617 1864.1627905070782 21954.141922384501 2379.3698741048574 1104.8112229853868 11530.795287236571 2964.8589701503515 9341.9468175619841 1907.1688755601645 187.39326132833958 12451.423304691911 8058.7012821733952 9789.5753417760134 15849.13776665926 1749.1389499008656 13580.065236181021 17165.106259435415 2873.8160703331232 14590.976939335465 6004.1091617643833 10852.5218462497 7843.4800295829773 793.93985685706139 3100.7185904234648 5701.685903608799
leaf_count=13124 20366 1567 19999 31823 36080 51108 8397 86170 9555 4382 45544 13450 36729 7784 753 48913 31678 38592 62605 6971 53309 67459 11324 57265 23587 42599 31164 3133 12192 22363
internal_value=0.000926972 0.00339159 0.00216366 -0.0294419 0.00330183 0.00111181 -0.0226704 0.00541985 0.0131155 0.00404177 -0.00316084 -0.0428266 0.0106573 -0.0190994 0.00571635 0.00591025 0.00437295 0.00899852 -0.00603189 -0.00419236 0.00148121 -0.00133537 0.0134476 0.00590843 0.00790332 0.0100238 0.0184657 -0.00267071 0.00978005 0.00425509
internal_weight=226678 209663 186155 17015.4 163455 80361.5 11299.1 83093.5 23507.6 65784.3 41683 5716.35 17309.2 9434.93 38678.5 38491.1 64679.5 13284.7 22700.1 17598.3 22432.7 30152.2 12215.8 42246.8 26039.6 16856.6 10222.8 8852.64 12890.3 27655.8
internal_count=899985 825407 732337 74578 642395 316043 48004 326352 93070 258300 164111 26574 68052 39607 151932 151179 253918 52351 89942 69576 88120 118567 48053 165798 102266 66186 40719 34811 50784 108533
is_linear=0
shrinkage=0.05


Tree=15
num_leaves=31
num_cat=0
split_feature=21 7 21 3 13 24 4 24 25 25 24 25 4 21 24 25 4 7 25 7 21 9 8 8 4 10 5 24 16 25
split_gain=6214.09 914.538 626.039 611.258 313.349 294.656 278.957 219.479 188.976 175.813 162.198 160.377 129.068 128.35 110.74 109.103 100.685 100.472 99.1597 94.0997 87.2315 84.8141 80.7135 75.6573 75.4212 71.8027 66.7764 65.7106 63.9811 63.5021
threshold=6.7819344938939373e-05 0.00012297064425461696 0.00050330217522504689 inf 0.0024742327827530926 485.6205300154873 1.6233630974942159 15.272588430655533 64.254155529656472 44.377659685805746 0.46738052111312939 1.1983144471843661 -0.7645462130930506 1.2140861482909578e-06 1.8880214579045982 36.205878501691387 0.67368340398334492 -0.012235902462941831 64.254155529656472 -0.065113777762052349 0.0022871719270862469 -0.046180963707276625 0.010475424732436957 0.065504635594151747 -3.240680189682386 58.330243950466055 -0.0020444206362547394 485.6205300154873 1.0000000180025095e-35 53.281882521286583
decision_type=2 10 2 8 2 2 10 2 2 2 2 2 10 2 2 2 10 8 2 8 2 10 8 10 10 10 10 2 2 2
left_child=3 2 7 13 11 6 9 10 -8 -4 -2 -3 19 -1 26 27 17 -12 28 -11 23 -5 -20 25 -13 -21 -15 -6 -14 -26
right_child=1 4 5 21 15 -7 8 -9 -10 12 16 24 18 14 -16 -17 -18 -19 22 20 -22 -23 -24 -25 29 -27 -28 -29 -30 -31
leaf_value=-0.029616310719465713 -0.0087307415039548138 -0.018079891105473225 0.0061563578166112451 -0.053639827407997831 0.02219903939936671 -0.042521856207011106 0.0064215845566568206 -0.023515791740477719 0.018806522884099282 -0.024070105169310727 -0.014803076969663907 0.021346547759722265 0.00095417578848926935 -0.021214860912935517 -0.031688992129597596 0.012682555947099248 0.0026351750934314982 -0.0022896185702895896 0.012822128300799339 -0.0012302072580048873 0.0049130916755298114 -0.039341686277497907 0.0012026529679420338 -0.022225515557026926 0.0081910569071048846 -0.0181503269705247 -0.010671054410447399 -0.025554184610523431 0.0049861115377556019 0.0013144573997404666
leaf_weight=4187.8969973325729 9946.3571873754263 638.77505038678646 24013.638248816133 1524.5484297126532 5530.6707963496447 350.68280205130577 19186.066757723689 1395.6126850694418 3669.0757945179939 440.97117371857166 1815.1437443345785 920.59666782617569 36443.899552568793 2901.8190508782864 1332.6558262854815 8961.4582360088825 10241.646579265594 13796.545170843601 4132.5095014125109 26289.330902129412 5523.7798723578453 3244.3088131695986 2341.3200483471155 453.58350247144699 15554.182308062911 642.32891266047955 3112.1287456154823 72.990103706717491 13478.230900540948 4281.3039443492889
leaf_count=18593 39486 2593 94347 7681 22196 1441 75370 5778 14500 1743 7237 3628 143228 12001 5680 35484 40366 54408 16238 103379 21682 15294 9202 1791 61257 2543 12779 291 52924 16845
internal_value=0.00088102 0.00318831 0.00168941 -0.0288557 0.0104477 0.0032516 0.0033691 -0.00406309 0.00840981 0.00235639 -0.00330475 0.0065967 0.00133961 -0.0226305 -0.0186483 0.0161045 -0.00121725 -0.00374454 0.00279774 -0.00112613 -0.000818684 -0.0439126 0.00861984 -0.00197482 0.00735613 -0.00163376 -0.0157586 0.021577 0.00204274 0.00670681
internal_weight=226424 210121 174161 16303.4 35960 136965 136615 37195.3 22855.1 113760 35799.7 21394.9 89746 11534.5 7346.6 14565.1 25853.3 15611.7 56396 33350 32909 4768.86 6473.83 27385.2 20756.1 26931.7 6013.95 5603.66 49922.1 19835.5
internal_count=899985 827957 685663 72028 142294 538388 536947 147275 89870 447077 141497 84323 352730 49053 30460 57971 102011 61645 221592 131138 129395 22975 25440 107713 81730 105922 24780 22487 196152 78102
is_linear=0
shrinkage=0.05


Tree=16
num_leaves=31
num_cat=0
split_feature=21 7 3 21 24 12 25 13 8 24 25 29 21 4 4 25 24 15 21 8 7 15 15 9 24 12 25 17 21 24
split_gain=5660.23 826.867 580.083 568.661 292.206 293.078 456.892 285.309 225.957 163.367 136.22 121.224 121.185 117.869 114.627 113.791 110.141 108.584 104.746 118.606 98.1136 91.8768 85.9522 84.9226 72.373 70.9224 70.3495 70.3161 69.8826 64.7484
threshold=6.7819344938939373e-05 0.00012297064425461696 inf 0.00038914583249360755 485.6205300154873 29.023207589440869 48.327585490553737 0.0021043757983071555 0.0027452575661511994 28.319568222398065 1.1983144471843661 -129.0123435516376 3.429139295122136e-08 -0.4654652590884516 1.1960296206017929 60.279322853686111 1.8880214579045982 1.0000000180025095e-35 0.0018629081690797542 0.0088831068605614676 -0.0070618311636116834 1.0000000180025095e-35 1.0000000180025095e-35 -0.032573563837882569 0.99925564456718174 38.633499515459718 28.413679831402472 1.0000000180025095e-35 0.0040257153793401947 1.6990947093955342
decision_type=2 10 8 2 2 10 2 2 10 2 2 2 2 10 10 2 2 2 2 10 10 2 2 10 2 10 2 2 2 2
left_child=2 3 12 9 5 8 21 10 15 14 -3 26 -1 -8 20 -5 -14 18 19 -10 -2 -7 -4 -21 -17 -15 -9 -22 -12 -19
right_child=1 7 22 4 -6 6 13 11 17 -11 28 -13 16 25 -16 24 -18 29 -20 23 27 -23 -24 -25 -26 -27 -28 -29 -30 -31
leaf_value=-0.031801014518142455 -0.012030765188241175 -0.017401121612052952 -0.047233589125160985 0.0062644150698869597 -0.038696767357813147 0.0025803143887697471 -0.0073138294760839899 0.029156559235874614 0.003685292432251866 -0.025088782683274021 0.0060266038047382675 0.01160830430651167 -0.016611982138041975 0.0014646025663065413 0.0016978804635975739 0.0084005908634146691 -0.031478363246236027 0.0071621926346909269 0.0059522782288507639 -0.0096084154519023267 -0.00096223126928039531 0.0081135018706028524 -0.032774475911101268 -0.00069349756867964738 0.018257284655394036 -0.0047543515594313541 0.017075961471631911 -0.0083091934765632744 0.022142796421678684 0.00015739310850589028
leaf_weight=2335.0593258291483 5438.2461526095867 609.16965791583061 3156.4659978598356 9418.7666322886944 423.22458584606647 20718.605490624905 13771.316339328885 1701.9066346734762 13730.282086417079 1000.7351804971695 18298.290903493762 10481.769723042846 7639.6483527123928 10629.278028935194 5750.6307642310858 3049.3557921797037 1488.6617679595947 21632.450253099203 11554.366907283664 3462.5575323998928 7714.985051497817 11761.039660006762 1524.0865883827209 11690.333971887827 4784.0775570422411 8061.3910004198551 4128.3369455337524 5635.6968557089567 698.31185132265091 3892.583764821291
leaf_count=10620 21678 2481 15687 36992 1749 81392 54313 6864 53893 4199 72058 41632 32003 41758 22748 12013 6430 84943 45349 13633 30493 46205 7288 45936 18908 31811 16508 22335 2751 15315
internal_value=0.000837277 0.00303015 -0.0276928 0.0016053 0.00278999 0.00290851 0.000391177 0.00993746 0.00487305 -0.0052866 0.0058727 0.014823 -0.0216365 -0.00380384 -0.00447906 0.00996764 -0.0190364 0.00354059 0.00192885 0.000319328 -0.0063696 0.00458391 -0.0425254 -0.00273063 0.0144203 -0.00121767 0.0206024 -0.00406359 0.00661903 0.00609396
internal_weight=226182 210038 16143.9 174120 148580 148156 64941.6 35917.8 83214.8 25540.3 19605.8 16312 11463.4 32462 24539.6 17252.2 9128.31 65962.6 40437.5 28883.2 18788.9 32479.6 4680.55 15152.9 7833.43 18690.7 5830.24 13350.7 18996.6 25525
internal_count=899985 827957 72028 685663 584210 582461 255479 142294 326982 101453 77290 65004 49053 127882 97254 67913 38433 259069 158811 113462 74506 127597 22975 59569 30921 73569 23372 52828 74809 100258
is_linear=0
shrinkage=0.05


Tree=17
num_leaves=31
num_cat=0
split_feature=22 7 24 21 24 25 12 24 6 25 29 11 7 29 24 9 12 11 21 24 9 22 24 21 11 29 24 21 6 9
split_gain=5165.56 772.055 550.171 525.186 362.567 252.964 405.944 251.652 218.369 173.787 161.914 144.266 130.666 129.92 123.475 119.474 99.9227 98.6079 97.0114 91.3458 89.6659 93.6221 87.2761 79.8998 74.5274 117.631 73.463 70.6488 117.187 74.3864
threshold=2.4362927406269576e-05 0.0024561487167662666 0.59494794764320236 3.429139295122136e-08 15.272588430655533 39.460765237354984 37.801945200169271 15.272588430655533 -0.0034125842412112716 48.327585490553737 -105.17388825715319 68.233235255211994 -0.028313948650760871 95.238095238084767 0.3596070849559288 -0.046180963707276625 95.335471459854531 30.163901480217479 2.7448052908616035e-05 80.422562998567926 -0.021844988985054225 0.0062022653843763183 1.5896008437737117 0.0037059595500295354 30.323768696216536 135.46966046675496 0.88407298516124755 0.00279850455068364 0.044177994164261471 -0.011422935642986088
decision_type=2 10 2 2 2 2 10 2 10 2 2 10 10 2 2 10 10 10 2 2 8 2 2 2 10 2 2 2 10 10
left_child=3 2 14 15 5 16 8 18 13 22 -3 12 -10 -7 -2 -1 20 -16 -5 23 21 -4 -8 -12 26 -26 -14 28 29 -28
right_child=1 10 4 7 -6 6 9 -9 11 -11 19 -13 24 -15 17 -17 -18 -19 -20 -21 -22 -23 -24 -25 25 -27 27 -29 -30 -31
leaf_value=-0.050019539013922122 -0.0095987190114345186 0.019425943769778478 -0.0072366801041862374 -0.020214831362811121 -0.017476865955163793 0.0056280638460046691 -0.00042092944560976519 -0.035792809622260939 -0.0035800871007451345 -0.0059672721845869039 0.0081799965550530557 -0.0095782885886232239 0.0076643424843512156 0.01437400738395877 0.0021471758076668001 -0.033925407829367968 -0.0087093904390473792 -0.0053287574190393431 -0.0094621397569278117 -0.030961194066740118 0.011792800662746484 0.0080687266681651083 0.0094961082621884546 0.020148021970843664 0.00016627758278739703 0.0076279110294389108 0.00091972309499312914 0.0096185345091452466 -0.023001810934234385 0.0054876483284794116
leaf_weight=1658.0852059870958 8544.1359545737505 6196.8561050742865 1367.4081545621157 5766.6467005461454 2117.4775539785624 10762.658017218113 10081.548393025994 2026.7165234982967 6354.6655910015106 16632.828681990504 9743.2597214877605 2210.3770614415407 16959.697025641799 7013.1022935658693 7378.9014867842197 3786.4789330214262 779.77117566764355 10965.770849972963 3296.8719144761562 138.48816095292568 12875.182936057448 3709.9527748376131 2844.5357393175364 1627.5215853452682 23560.321338042617 6808.2641522884369 16957.918693512678 4551.8521652370691 427.89789825677872 18785.147989287972
leaf_count=8553 34059 24953 5389 24999 8488 42349 39637 9440 24989 65681 38565 8780 66551 27694 29036 18021 3097 43291 13565 554 50745 14595 11172 6463 92602 26727 66639 17868 1690 73793
internal_value=0.000795746 0.00292025 0.00199752 -0.0261088 0.00307952 0.00334708 0.00263584 -0.0198651 0.00398556 -0.00258752 0.0129098 0.00304852 0.00334416 0.00907862 -0.00463401 -0.0388267 0.0088127 -0.00232166 -0.0163035 0.00940141 0.00957377 0.00394675 0.00176143 0.009893 0.00384388 0.00183908 0.00489936 0.00374784 0.00300906 0.00332044
internal_weight=225930 209396 191689 16534.8 164801 162683 143951 11090.2 114392 29558.9 17706.1 96616.1 94405.8 17775.8 26888.8 5444.56 18732.3 18344.7 9063.52 11509.3 17952.5 5077.36 12926.1 11370.8 88051.1 30368.6 57682.5 40722.8 36171 35743.1
internal_count=899985 825407 754872 74578 648486 639998 566172 48004 449682 116490 70535 379639 370859 70043 106386 26574 73826 72327 38564 45582 70729 19984 50809 45028 345870 119329 226541 159990 142122 140432
is_linear=0
shrinkage=0.05


Tree=18
num_leaves=31
num_cat=0
split_feature=21 21 7 3 24 24 4 25 12 13 25 29 9 4 12 29 25 9 17 9 15 15 15 9 9 15 21 9 24 22
split_gain=4716.16 736.128 535.414 492.989 301.412 195.657 192.943 195.208 214.61 183.855 164.277 140.966 127.997 112.882 96.8318 89.3446 89.0143 84.1378 83.4152 82.7287 82.4715 75.4526 68.9827 94.0182 65.8948 64.8036 63.6618 72.9757 59.7123 58.4792
threshold=5.6279862295376664e-05 0.00064117267754749496 0.002287702660378648 inf 28.319568222398065 485.6205300154873 1.6233630974942159 43.520080651991528 31.631182841805732 0.00056723383432133077 66.456980864957586 -129.0123435516376 -0.0045026070235688271 -0.15101493409833697 99.999999860876088 108.86409058450137 51.42112820258032 -0.0090544934463632782 1.0000000180025095e-35 -0.021302589516786038 1.0000000180025095e-35 1.0000000180025095e-35 1.0000000180025095e-35 -0.03206588934256855 -0.0086293194867784629 1.0000000180025095e-35 0.0037059595500295354 -0.017240972013697706 1.5580617462372339 0.0049131115426758803
decision_type=2 2 10 8 2 2 10 2 10 2 2 2 8 10 8 2 2 10 2 10 2 2 2 10 10 2 2 10 2 2
left_child=3 4 5 14 9 6 7 19 22 13 29 -4 25 17 18 -15 -10 21 -1 -3 -5 -2 23 -9 -20 -11 27 -13 -21 -8
right_child=1 2 11 20 -6 -7 10 8 16 12 -12 26 -14 15 -16 -17 -18 -19 24 28 -22 -23 -24 -25 -26 -27 -28 -29 -30 -31
leaf_value=-0.015658151819486196 -0.01395015247087697 0.0027335260951008387 0.021022355550815695 -0.045014509021054375 -0.022444467414779668 -0.03699968790999756 0.0029583682040685002 -0.0024959275830334529 0.00076425598058911569 -0.0036896671356417541 0.019735776871571988 -0.0083467096677685235 0.0079948940019598253 -0.0023447191964603557 -0.038670714819936128 0.0054695393879011268 -0.0052319798328579713 -0.0033461362448290268 -0.032567990757717977 0.0074901686060776969 -0.03052516332124754 -0.0035455631145203817 0.005559456696841672 0.0032896000632276928 -0.019035875545365608 0.0044611967138495886 0.018796021677493575 0.0098653865580804693 0.015397020406075469 0.0086497050630974827
leaf_weight=6199.6137311011553 4699.9614764302969 7916.4359118938446 4173.387913569808 3005.2249428778887 1741.6322213411331 297.25288179516792 7612.8185188621283 8884.8333196491003 12353.934182226658 6511.1210861206055 2604.578076466918 582.82026846706867 7310.7846659868956 17393.008845001459 681.55262023210526 4632.0778359621763 12403.398560494184 12120.406548589468 1653.3173844218254 12176.726227492094 1458.8015182465315 2769.0725464224815 21395.04689027369 33493.558482497931 1973.4222772568464 3898.6951415985823 1900.5452616512775 9781.2222141176462 2970.2401761114597 11086.433678790927
leaf_count=26878 18721 31152 16918 15545 7342 1239 29946 34949 48553 25619 10354 2310 28731 68871 3108 18237 48923 47950 7252 48009 7186 10993 84068 131554 8470 15319 7586 38859 11740 43603
internal_value=0.000756265 0.00268296 0.00457107 -0.0263594 -0.00194277 0.00352037 0.003611 0.00277859 0.00171123 -0.00134099 0.0079713 0.0130848 0.00292416 -0.00315722 -0.0204457 -0.000701309 -0.00223985 -0.00591848 -0.0191816 0.00687576 -0.0402795 -0.0100928 0.00324507 0.00207664 -0.0252047 -0.000636997 0.0103838 0.00884123 0.00904066 0.00633265
internal_weight=225682 210710 149633 14971.9 61076.8 133195 132898 111594 88530.8 59335.1 21303.8 16438 17720.6 41614.5 10507.9 22025.1 24757.3 19589.4 9826.35 23063.4 4464.03 7469.03 63773.4 42378.4 3626.74 10409.8 12264.6 10364 15147 18699.3
internal_count=899985 831546 589763 68439 241783 524090 522851 438948 348047 234441 83903 65673 69669 164772 45708 87108 97476 77664 42600 90901 22731 29714 250571 166503 15722 40938 48755 41169 59749 73549
is_linear=0
shrinkage=0.05


Tree=19
num_leaves=31
num_cat=0
split_feature=21 7 3 24 12 25 4 11 29 21 24 21 25 11 12 25 24 15 6 7 25 12 29 6 24 29 3 6 15 2
split_gain=4303.62 632.183 619.773 374.015 355.006 345.168 216.603 243.504 212.108 157.503 130.744 125.497 115.445 93.501 132.057 88.4452 87.6211 107.748 85.8603 85.4669 84.5205 80.6866 79.1893 79.0785 78.6287 77.9271 75.3061 66.4823 64.0016 57.3201
threshold=0.00010351352571201588 0.00012297064425461696 inf 80.422562998567926 38.220198222782898 46.196551647324306 1.6233630974942159 56.09522747431479 -108.35260960000979 7.9608216269734971e-06 1.0356131082696256 0.0013059436146544449 58.372859638659222 34.909688355589886 20.37641831563435 36.205878501691387 1.0600292223503287 1.0000000180025095e-35 0.037853529925757759 -0.029679764114925424 32.168394175619902 95.335471459854531 72.770134263473423 -0.0026784339171794513 1.8880214579045982 127.21719857675386 -0.51865926979845678 -0.0059770446199710779 1.0000000180025095e-35 0.20367110502212635
decision_type=2 10 8 2 10 2 10 10 2 2 2 2 2 10 10 2 2 2 10 10 2 10 2 8 2 2 8 8 2 8
left_child=2 3 9 4 6 10 7 13 20 -1 15 18 -8 16 25 -6 17 -2 -10 -4 -3 -12 -9 -14 29 -15 -7 -28 -21 -11
right_child=1 8 19 -5 5 26 12 22 11 24 21 -13 23 14 -16 -17 -18 -19 -20 28 -22 -23 -24 -25 -26 -27 27 -29 -30 -31
leaf_value=-0.023347566129897603 0.0035031154553150619 0.020462300612024632 -0.048923425890908728 -0.026505668689985686 0.0047945622794126376 -0.010841343989176473 0.0047958434531156164 -0.013380154284463789 0.0038670705728005034 -0.0058610430616743694 0.0083923252707615026 0.010265248516909775 0.016222195702263086 0.00050909399900488149 -0.0029168383019998623 -0.0039507718787314934 0.0016163628538530259 0.0089995120292345517 -0.017473479721456086 -0.039597419790651095 0.011287222750232207 -0.010520245300760223 -0.0026805251336401385 0.0062158516987052097 -0.022906358151784222 0.010683940974656516 0.0092184967845764642 -0.0051793176760379471 -0.025104353363108147 -0.015381604794697785
leaf_weight=5924.7479307353497 30328.86219252646 4027.7516719102859 1362.4740945696831 1182.1218243688345 4543.7823479771614 6349.6898789554834 13867.820732042193 2709.9359702765942 13142.648286953568 3513.641300290823 8427.1824555844069 11086.352590456605 4990.5557849556208 4024.3332224488258 14170.720561400056 7948.5343633443117 30553.704908654094 12629.485635846853 488.85729585587978 1963.9949298799038 6661.2999979108572 604.39636628329754 4778.7866952419281 3267.0118774920702 1488.23033849895 3534.5875011831522 841.68400333821774 16909.561531439424 1244.3896164596081 2874.2166557312012
leaf_count=26799 119102 16288 7524 4967 17880 25150 54504 10858 51870 14335 33168 43979 19823 15824 55784 31284 120118 49605 1964 9989 26631 2406 18863 12870 6410 13888 3311 66853 6078 11860
internal_value=0.000718725 0.00277645 -0.0224741 0.00152175 0.00171609 -0.00205836 0.00309535 0.00212887 0.00885958 -0.017189 0.00254359 0.00631469 0.00758282 0.00281147 -7.00247e-05 -0.000769865 0.00366322 0.00511902 0.00310175 -0.0384316 0.0147445 0.00712669 -0.00655239 0.0122633 -0.0125562 0.0052669 -0.00616823 -0.00449664 -0.0339762 -0.0101448
internal_weight=225441 207070 18371.7 171663 170481 45624.8 124856 102730 35406.9 13800.8 21523.9 24717.9 22125.4 95241.7 21729.6 12492.3 73512.1 42958.3 13631.5 4570.86 10689.1 9031.58 7488.72 8257.57 7876.09 7558.92 24100.9 17751.2 3208.38 6387.86
internal_count=899985 816990 82995 676258 671291 180052 491239 404042 140732 59404 84738 97813 87197 374321 85496 49164 288825 168707 53834 23591 42919 35574 29721 32693 32605 29712 95314 70164 16067 26195
is_linear=0
shrinkage=0.05


Tree=20
num_leaves=31
num_cat=0
split_feature=21 21 7 21 28 4 25 25 9 8 13 12 11 8 13 15 25 25 29 7 21 5 21 9 8 15 4 12 12 25
split_gain=3924.41 613.389 450.674 392.007 212.273 179.79 187.478 152.939 144.647 123.805 121.382 139.271 117.244 112.248 93.7791 87.5707 84.2448 78.9889 73.5357 70.5475 87.287 70.0402 69.3198 115.237 67.4604 77.2363 78.3582 76.996 64.0816 62.2684
threshold=5.6279862295376664e-05 0.00064117267754749496 1.0000000180025095e-35 3.429139295122136e-08 99.251428571453076 -0.27617282732178566 64.254155529656472 37.744381915064558 -0.097059984828930884 0.0013353049663070886 0.0014081686088839532 26.976301214690906 35.756692686338532 0.010475424732436957 0.0054763633597455586 1.0000000180025095e-35 50.871618581094289 4.27819217634351e-05 92.692917149833164 -0.0059700245018244587 0.0021503425285640337 -0.0010541956702775964 0.0023237681946869722 -0.018975276028604885 0.0089947035747885724 1.0000000180025095e-35 0.91261004898762133 23.973842159359965 42.45760939420137 1.1983144471843661
decision_type=2 2 10 2 8 10 2 2 8 10 2 10 10 10 2 2 2 2 2 10 2 10 2 10 10 2 10 10 10 2
left_child=3 4 5 9 10 8 14 29 -3 -1 11 -2 15 -8 24 19 -13 -5 -6 -10 -21 -19 23 -9 27 26 -26 -7 -18 -4
right_child=1 2 7 17 18 6 13 22 12 -11 -12 16 -14 -15 -16 -17 28 21 -20 20 -22 -23 -24 -25 25 -27 -28 -29 -30 -31
leaf_value=-0.043497204025827289 0.0036872055332517932 -0.017227854103665272 -0.014123221862459678 -0.03261284261916704 -0.01104183800335661 0.0073435180407523939 0.01526172845745249 -0.02008048310899796 -0.0023123349027524172 -0.028031764334079896 0.0067342948427568886 -0.00054810932073410168 -0.0038871197657666147 0.0016066075523501638 0.01026193983091505 0.0053930316028622076 -0.0033082416729968769 -0.020710856301488431 -0.0018931435408533076 0.0012642341119398998 0.012704802769966064 -0.01159784751405433 0.012772612409769964 0.0066904600304970949 0.0024303833064907394 0.0042799196030585676 -0.004516023448133683 0.0022796334643210526 -0.010073917978128906 0.016586603369503117
leaf_weight=2459.6496476531029 10720.594178572297 1121.189883261919 168.8247367888689 871.71316653490067 7299.3484810888767 13979.103276908398 5817.3182858973742 412.72759096324444 12163.743018805981 2730.7199178040028 5256.0835518538952 18614.425244003534 10024.9185731709 2030.1932013183832 4787.475942671299 13710.969710364938 10823.715434715152 4936.8902595341206 3141.8578569293022 11154.381933867931 1960.2162959426641 3680.1940406858921 4947.9219270199537 15438.445943668485 8170.5641607195139 11910.784721240401 8069.2516516298056 16212.276542022824 5172.3474246412516 7410.2856963127851
leaf_count=13165 42200 4433 677 4110 29726 54979 23093 1632 47842 13409 20682 73412 39511 7996 18824 53944 42762 21733 12440 43867 7698 16022 19677 61008 32101 46849 31742 63770 20561 30120
internal_value=0.000683029 0.00242596 0.00415041 -0.0243129 -0.00179813 0.00282151 0.0044406 0.00982189 0.00052935 -0.0353606 -0.000458436 -0.00129242 0.000935543 0.0117291 0.00353459 0.00217554 -0.00283486 -0.0182698 -0.00828891 0.000430379 0.00297424 -0.0168189 0.00760612 0.00599341 0.00298255 0.00122178 -0.00102115 0.00462429 -0.00549593 0.0159025
internal_weight=225198 210519 149491 14679.2 61028.4 121112 70977 28378.2 50135.4 5190.37 50587.2 45331.1 49014.2 7847.51 63129.5 38989.3 34610.5 9488.8 10441.2 25278.3 13114.6 8617.08 20799.1 15851.2 58342 28150.6 16239.8 30191.4 15996.1 7579.11
internal_count=899985 831546 589763 68439 241783 476649 279354 113114 197295 26574 199617 178935 192862 31089 248265 153351 136735 41865 42166 99407 51565 37755 82317 62640 229441 110692 63843 118749 63323 30797
is_linear=0
shrinkage=0.05


Tree=21
num_leaves=31
num_cat=0
split_feature=22 7 21 24 24 24 25 12 6 9 25 29 29 8 24 26 11 11 4 9 21 8 12 24 9 22 25 24 24 17
split_gain=3587.56 539.658 429.518 411.058 266.542 224.753 199.309 301.129 171.72 133.64 125.198 124.815 120.508 119.085 95.0686 90.6851 88.9501 80.0292 79.3511 77.4968 85.3328 96.3949 75.6568 74.8453 74.0453 82.0128 73.1819 68.7975 68.6506 67.3274
threshold=2.4362927406269576e-05 0.0024561487167662666 3.429139295122136e-08 0.59494794764320236 15.272588430655533 28.319568222398065 39.460765237354984 37.801945200169271 -0.001580610422102366 -0.011163883185034928 48.687739292706404 84.279261514648724 -105.17388825715319 0.0012545503073789844 0.3596070849559288 3.977984768782972e-05 65.960725190672235 30.163901480217479 -0.21243625764890114 -0.11804862330491823 0.0033514156859447866 0.062476720863089155 95.335471459854531 80.422562998567926 -0.021844988985054225 0.0062022653843763183 67.971742950057148 1.5896008437737117 1.0651599331194477 1.0000000180025095e-35
decision_type=2 10 2 2 2 2 2 10 10 10 2 2 2 10 2 2 10 10 10 10 2 10 10 2 8 2 2 2 2 2
left_child=2 3 13 14 6 15 22 8 11 16 27 -8 -3 -1 -2 -4 19 -16 -13 -10 21 28 24 -14 25 -5 -20 -9 29 -21
right_child=1 12 5 4 -6 -7 7 10 9 -11 -12 18 23 -15 17 -17 -18 -19 26 20 -22 -23 -24 -25 -26 -27 -28 -29 -30 -31
leaf_value=-0.04229468873858612 -0.0084782650099187902 0.016439941172599903 -0.015996212469686757 -0.0072749883522188821 -0.015133362817011695 -0.033183246454565302 0.003788981140107648 -0.00067958511322586609 -0.016962611489760734 0.0043031139010289978 -0.0053134295881233154 0.0028257949999663263 0.0081961072940262471 -0.026991214481576681 0.0019408635570621006 -0.0036514065895147797 -0.013377235881511493 -0.0047963603745967151 0.0095509174293738185 0.0039176394581334735 0.0077010984373326987 -0.011536243625019286 -0.0076211866474412589 -0.028887167416565114 0.010328046237491723 0.0070547723580317205 0.018904079334218025 0.0079596838753161446 -0.0017275631853137701 -0.0029200755175862944
leaf_weight=2397.4932221621275 8519.101331859827 6121.0179657936096 7239.5446697324514 1366.9556862860918 2101.829592436552 1716.3872026950121 14267.175281360745 10451.536328420043 608.29667410254478 42325.593386918306 16125.666877523065 2457.4589664340019 11322.695478454232 2706.0016812235117 7375.1075405180454 1872.4475893378258 1140.3068690001965 10955.676705494523 5738.3363012224436 18163.677111968398 4298.5981682389975 1652.4644280523062 777.83916628360748 137.72064343094826 12838.895218551159 3704.2589533179998 3290.6299151033163 2956.2007301002741 15850.760997146368 4489.979267001152
leaf_count=13124 34059 24953 31823 5389 8488 8397 56178 41109 2398 166393 63755 9670 45028 13450 29036 7784 4541 43291 22653 71359 16881 6513 3097 554 50745 14595 13106 11626 62339 17651
internal_value=0.000649123 0.00239225 -0.0222219 0.00162239 0.00255809 -0.0165858 0.00278691 0.00215569 0.00331877 0.00227341 -0.00234497 0.00691224 0.0107757 -0.0341804 -0.004114 -0.0134594 0.000414091 -0.00208574 0.0107916 0.000763071 0.00100562 0.000288898 0.00764454 0.00775047 0.00830753 0.00319216 0.0129597 0.00122524 0.000796388 0.0025624
internal_weight=224970 209038 15931.9 191456 164606 10828.4 162505 143817 114283 88529.7 29533.4 25753.6 17581.4 5103.49 26849.9 9111.99 46204.1 18330.8 11486.4 45063.8 44455.5 40156.9 18687.9 11460.4 17910.1 5071.21 9028.97 13407.7 38504.4 22653.7
internal_count=899985 825407 74578 754872 648486 48004 639998 566172 449682 348075 116490 101607 70535 26574 106386 39607 181682 72327 45429 177141 174743 157862 73826 45582 70729 19984 35759 52735 151349 89010
is_linear=0
shrinkage=0.05


Tree=22
num_leaves=31
num_cat=0
split_feature=21 13 3 24 24 11 29 7 12 7 8 25 4 29 11 24 12 8 17 21 8 7 17 21 8 25 25 6 7 25
split_gain=3274.29 537.426 418.775 403.098 311.099 196.789 299.499 170.041 179.45 158.854 111.388 110.871 100.591 96.8881 91.2231 90.7813 83.9027 82.9918 78.7167 76.3921 84.1564 74.9738 70.5383 74.1619 68.6281 66.4734 74.2056 64.0155 59.146 58.752
threshold=5.6279862295376664e-05 0.0035497220495637493 inf 80.422562998567926 0.45647227426396636 36.901975918123078 135.46966046675496 -0.0012303864147613108 40.013767603496113 0.0041063048050597808 0.0089947035747885724 59.211158634699309 1.7215269166933858 -100.22679672313264 81.651547903527657 1.0651599331194477 99.999999860876088 0.0025245782918468817 1.0000000180025095e-35 0.0028637319516378362 0.05084911689704371 -0.029679764114925424 1.0000000180025095e-35 0.0014445271710217678 0.09906059494809337 1.1983144471843661 48.927152774337181 -0.0037588015827020728 0.002287702660378648 30.146386556859486
decision_type=2 2 8 2 2 10 2 10 10 8 8 2 10 2 10 2 8 10 2 2 10 10 2 2 10 2 2 10 10 2
left_child=2 3 16 4 29 7 12 8 10 24 11 -6 14 -10 -7 22 18 -8 -1 20 -17 -4 -12 -24 -3 -9 28 -14 -27 -2
right_child=1 9 21 -5 5 6 17 25 13 -11 15 -13 27 -15 -16 19 -18 -19 -20 -21 -22 -23 23 -25 -26 26 -28 -29 -30 -31
leaf_value=-0.012377732905249191 0.005011565409986693 0.0071826207212943921 -0.04603598418650072 -0.023296026150418675 0.0034897385849831232 -0.0035617524136140211 0.013743988029616428 -0.010334861341538666 0.0033585145424972953 0.015874816191934805 0.0043394309566436263 0.010045427221801358 0.011957804104060535 -0.0047965237493963267 -0.015557645245749896 -0.0029451986104108833 -0.034382998245596791 0.0036090704424042055 -0.021766601533693329 0.0047500850448929334 -0.0225883137075799 -0.031412673461505121 -0.0095175990701254036 0.0049706094743909865 -0.008859074462269894 0.0065291726082238296 0.003259922425929429 -0.00048247978237002208 0.01245804641290172 -0.0066744912437621045
leaf_weight=6060.1874328553677 1173.1842062473297 21386.480149880052 1255.8883235305548 1663.437518119812 29520.531921848655 26342.139991343021 3153.5214261859655 601.67949970066547 5045.1234655678272 5971.2741488218307 18349.557973638177 8252.3054091483355 1548.0864211022854 13097.296569570899 1686.2697757929564 10783.090235605836 651.18588837981224 5619.1571963280439 3534.4609009325504 3254.8443509936333 574.30429844558239 2901.6167621314526 2061.2592418640852 1545.5424481630325 688.16993825137615 14373.422517701983 11656.998128324747 3114.667433694005 5946.9203729480505 12922.525944709778
leaf_count=26878 4656 84511 7447 7129 116025 104022 12508 2431 19851 24384 72094 32587 6161 51772 6864 42423 3108 22106 15722 12788 2267 15284 8114 6067 2721 56691 45891 12314 23753 51416
internal_value=0.00061688 0.00219621 -0.022446 0.00120484 0.00143048 0.0020342 -0.000950894 0.00302389 0.00192963 0.00863966 0.00301766 0.00492197 -0.00315222 -0.00252874 -0.00428346 0.00105064 -0.0170151 0.00725228 -0.0158364 -0.00200312 -0.00393848 -0.03583 0.00308297 -0.00330929 0.00668253 0.00613021 0.00644001 0.00364783 0.00826431 -0.00570186
internal_weight=224735 210332 14403.3 182286 180622 166527 41463.8 125063 92483.9 28045.9 74341.4 37772.8 32691.2 18142.4 28028.4 36568.6 10245.8 8772.68 9594.65 14612.2 11357.4 4157.51 21956.4 3606.8 22074.7 32579 31977.3 4662.75 20320.3 14095.7
internal_count=899985 831546 68439 719930 712801 656729 163975 492754 363988 111616 292365 148612 129361 71623 110886 143753 45708 34614 42600 57478 44690 22731 86275 14181 87232 128766 126335 18475 80444 56072
is_linear=0
shrinkage=0.05


Tree=23
num_leaves=31
num_cat=0
split_feature=22 3 13 24 10 12 25 6 12 25 25 10 12 11 15 15 2 11 4 14 4 8 8 21 24 4 25 17 24 17
split_gain=2985.59 500.284 476.292 318.411 225.554 196.229 308.327 170.992 141.052 134.377 108.17 105.63 104.448 94.3687 79.7248 76.744 75.5576 92.0094 72.5107 69.258 68.684 78.2784 66.151 135.167 64.4916 62.8865 53.3955 50.9856 53.3522 49.7254
threshold=2.4362927406269576e-05 inf 0.0035497220495637493 0.41832643700922995 62.836651032634762 24.578666892820539 46.896050375509788 -0.00031560853553547387 40.974006505455684 28.413679831402472 54.527152136960858 97.297779748888118 95.335471459854531 36.901975918123078 1.0000000180025095e-35 1.0000000180025095e-35 0.38191846993200651 25.857199187848376 -0.10766573795708566 1.0000000180025095e-35 -1.6900445475130637 0.17088879710021324 0.018555152536301422 0.0028637319516378362 7.6296496189118219 2.4567339067541232 47.269601615704666 1.0000000180025095e-35 0.12598252608730004 1.0000000180025095e-35
decision_type=2 8 2 2 10 10 2 10 10 2 2 8 10 10 2 2 10 10 10 2 10 10 10 2 2 10 2 2 2 2
left_child=1 11 3 27 5 7 16 10 13 12 -5 19 -4 -8 -3 22 17 -7 -12 -1 -11 -22 -9 -24 25 26 -6 -2 -29 -13
right_child=2 14 9 4 24 6 8 15 -10 20 18 29 -14 -15 -16 -17 -18 -19 -20 -21 21 -23 23 -25 -26 -27 -28 28 -30 -31
leaf_value=-0.0053047722412369012 -0.003772543924914694 -0.039907751784075421 0.021579556088149442 0.001819408802372564 0.00085727411537404755 0.007418033936236558 0.0016308769540963654 0.0025747467101858153 -0.0055777269874571662 0.012129107229267433 0.0041946456685443443 -0.01725507598561294 -0.017142436632051474 -0.0033214607357948886 -0.025557694829767004 0.0052643091176674392 -0.00046172922958724095 0.0017189130463087137 0.011881141217855551 -0.015374487732673497 0.0060521041377685058 -0.027289650724747979 -0.0059217494582654599 0.0086619855062533557 -0.014354751354508994 0.015388387901573415 -0.010329734111008607 -0.025746484605761167 -0.0086832683473448899 -0.02856351040913023
leaf_weight=2917.9401532560587 6801.9424512833357 2830.1175245195627 2494.054893553257 5481.7554654479027 1854.6837932020426 19373.071373954415 28307.333933800459 19215.096224546432 15806.342181786895 5362.0958861857653 4104.0322461128235 2832.5951704978943 187.22424200177193 14570.840210333467 1470.951267555356 15814.150141209364 6890.8707134723663 11162.604105964303 12156.619216457009 4116.509914547205 19788.831259220839 177.61746060848236 6995.7198497354984 2055.6769867241383 2114.1229885220528 389.62536770105362 2510.3479277789593 507.15484242141247 4737.2154475748539 1480.0282381922007
leaf_count=12624 27127 16113 10194 21569 7359 76580 111306 75520 62563 21575 16147 13030 761 57451 7769 62234 27106 43986 48149 18180 78355 709 27558 8090 8552 1550 10002 2082 18882 6862
internal_value=0.000586222 -0.0204789 0.00216447 0.00122479 0.00178525 0.00216167 0.000721267 0.00426487 -0.00154034 0.00823159 0.00789347 -0.0149748 0.0188757 -5.2024e-05 -0.0350001 0.0024751 0.00426745 0.00533467 0.00994114 -0.0111975 0.00710481 0.0057555 0.000914629 -0.00260961 -0.00708907 -0.00385844 -0.00557642 -0.0066288 -0.0103334 -0.021136
internal_weight=224507 15648.1 208859 180849 168803 161934 96111.1 65823.1 58684.5 28009.8 21742.4 11347.1 2681.28 42878.2 4301.07 44080.6 37426.5 30535.7 16260.7 7034.45 25328.5 19966.4 28266.5 9051.4 6868.78 4754.66 4365.03 12046.3 5244.37 4312.62
internal_count=899985 74578 825407 713813 665722 638259 378992 259267 231320 111594 85865 50696 10955 168757 23882 173402 147672 120566 64296 30804 100639 79064 111168 35648 27463 18911 17361 48091 20964 19892
is_linear=0
shrinkage=0.05


Tree=24
num_leaves=31
num_cat=0
split_feature=21 21 3 7 24 11 24 25 6 12 7 18 12 9 17 25 9 17 24 11 29 24 24 15 2 13 12 15 9 21
split_gain=2731.74 449.806 339.457 325.745 217.979 147.501 145.721 128.099 158.49 97.9903 107.222 96.8615 90.3861 87.6739 100.504 86.4861 79.3221 72.3848 72.2594 68.4526 69.4025 68.4176 64.1973 62.6743 61.0175 58.2173 58.4482 52.5429 64.5709 90.7596
threshold=4.5885006996005831e-05 0.00067620005064876075 inf 0.0032546164003371485 80.422562998567926 36.901975918123078 485.6205300154873 39.460765237354984 -0.0030974971203952587 39.543797575795757 -0.027636232095089596 1.0000000180025095e-35 12.083398012827397 -0.0087353588273173261 1.0000000180025095e-35 47.016926637890826 -0.046180963707276625 1.0000000180025095e-35 1.021267463808849 29.665330994693672 118.11499409392464 0.79786683535882907 11118.826550388729 1.0000000180025095e-35 -0.015036323321761528 0.00166548044261498 40.734728745879529 1.0000000180025095e-35 -0.010912411343653363 0.0021205135134696163
decision_type=2 2 8 10 2 10 2 2 8 10 8 2 10 10 2 2 10 2 2 10 2 2 2 2 8 2 10 2 8 2
left_child=2 4 17 6 5 13 7 18 12 10 -10 -7 -9 14 -2 22 -4 -1 -3 21 -21 -12 -5 -18 -11 26 -15 28 29 -23
right_child=1 3 16 15 -6 11 -8 8 9 24 19 -13 -14 25 -16 -17 23 -19 -20 20 -22 27 -24 -25 -26 -27 -28 -29 -30 -31
leaf_value=-0.012931823042601568 -0.00025338443287662528 0.0032990518473055759 -0.044247639409773803 0.01385026649000517 -0.02119328891532575 -0.0047934283103540113 -0.033358090197581861 0.014016650433111306 -0.0037015524268817707 0.0012611906165331029 0.007811200781608036 0.0045454422569844288 0.0048845883050579993 0.0049612577101068502 -0.011966620977207415 0.0044620456775501883 -0.034958455489490607 -0.022091549683633596 0.01055241408066938 -0.0012810215052765277 0.0046339743186662842 -0.0036908438642748115 -0.047495552326269536 -0.019371630758994764 -0.0051425837551544954 0.011133560371957538 -0.00035069457102697823 0.0052766414276724351 0.0039366528223422877 0.0050799771717450169
leaf_weight=6003.8199376016855 11605.690995499492 6121.7752572894096 1228.1755518466234 9372.3519170582294 1371.9185647666454 25172.641861855984 278.68374858796597 3241.3502464294434 7158.5136553794146 6796.8867148905993 8532.940735951066 3120.7482858598232 16516.471394270658 9855.3141210377216 2174.4687081575394 3602.9393150210381 1670.0288763642311 3366.1447781324387 7819.5823436528444 16683.289295449853 7056.773208796978 9144.7969252765179 42.841753154993057 1050.6861795783043 8216.6639339476824 1984.6162533909082 10912.422338142991 15240.222079768777 14585.527258753777 4353.7760936319828
leaf_count=27155 45828 24217 7634 38245 6027 100228 1188 12936 28171 26821 33514 12307 65211 38738 8626 14266 9321 15330 31128 65637 27754 35959 175 5504 32452 7851 43239 60000 57409 17114
internal_value=0.00055708 0.00194359 -0.0214044 0.00350482 -0.00147062 -0.00105322 0.00275927 0.00283583 0.00229828 0.00147287 0.00214709 -0.00376336 0.00638274 0.0010457 -0.0021017 0.0110501 -0.0337004 -0.0162224 0.0073674 0.00270092 0.000477221 0.00371892 0.0135711 -0.0289391 -0.00224349 0.00295194 0.00217009 0.00291292 0.00163022 -0.000861938
internal_weight=224282 210963 13318.9 144765 66197.8 64825.9 131747 131469 117527 97769.4 82755.8 28293.4 19757.8 36532.5 13780.2 13018.1 3948.89 9369.96 13941.4 75597.3 23740.1 51857.3 9415.19 2720.72 15013.6 22752.4 20767.7 43324.3 28084.1 13498.6
internal_count=899985 835041 64944 572197 262844 256817 519511 518323 462978 384831 325558 112535 78147 144282 54454 52686 22459 42485 55345 297387 93391 203996 38420 14825 59273 89828 81977 170482 110482 53073
is_linear=0
shrinkage=0.05


Tree=25
num_leaves=31
num_cat=0
split_feature=22 3 13 24 10 12 25 8 7 15 12 9 25 9 24 13 9 13 8 12 24 15 9 9 15 3 24 22 8 24
split_gain=2484.81 445.504 400.657 270.675 193.161 163.072 276.191 139.088 126.977 97.0935 96.8106 87.2655 87.0565 80.633 79.5208 74.882 71.0055 98.167 90.2895 69.4269 68.2495 65.7266 60.8162 59.097 57.4462 57.1669 55.2194 71.0621 58.6509 53.6859
threshold=2.4362927406269576e-05 inf 0.0035497220495637493 0.41832643700922995 71.700516537351064 31.631182841805732 47.387491394246105 0.0022355474532052204 0.0041063048050597808 1.0000000180025095e-35 99.999999860876088 -0.010548641968833259 60.48008963286744 -0.046180963707276625 11118.826550388729 6.2827521632792325e-06 -0.0086293194867784629 -0.0052283068273053998 0.0076097140788207529 46.850459107035469 0.71358349091864259 1.0000000180025095e-35 -0.043346498275759225 -0.012647754605205942 1.0000000180025095e-35 -0.51865926979845678 1.0651599331194477 0.0063146536291606445 0.068815371158600633 1.1550933416797575
decision_type=2 8 2 2 10 10 2 10 8 2 8 10 2 10 2 2 10 2 10 10 2 2 10 10 2 10 2 2 10 2
left_child=1 10 3 -2 5 7 11 12 22 16 14 24 -5 -3 15 -1 17 -9 -19 25 -13 -15 -4 -11 -7 -8 -20 28 -28 -14
right_child=2 13 8 4 -6 6 19 9 -10 23 -12 20 29 21 -16 -17 -18 18 26 -21 -22 -23 -24 -25 -26 -27 27 -29 -30 -31
leaf_value=-0.0141163017013302 -0.0061482547849591495 -0.043478863438484651 0.0012121345748691888 0.0039719542599243058 -0.0082588477867466311 -0.0033432714321602456 -0.0056102311081125235 0.0054799498785252435 0.014032934966557551 0.002910415032187314 -0.032133146964992206 0.00031416685488291961 0.0074468105671331858 -0.034401824838614106 -0.041475091240647119 -0.0037844172079783212 0.0035895819964639635 0.0025524745202171323 -0.0017483352142244318 -0.00744350878871712 0.0070304307439474608 -0.018999762768617801 0.007293107133544312 0.007502495709357228 0.0040353991274642573 -0.00053009621887286859 -0.011871791105621886 -0.0020598924702768698 -0.056129800456651391 0.015681173277510212
leaf_weight=8096.006626650691 12031.617668896914 1251.4829834401608 5469.4458968043327 9330.324946552515 4812.8281856477261 6217.4403476268053 7649.4570410847664 5865.7911173701286 5917.465147703886 19705.587639331818 669.60169950127602 5039.7167997956276 4495.0572058707476 1745.2103484869003 232.04599688947201 2238.6311130672693 17026.722041517496 8681.6749923229218 12531.610051751137 7199.7721701711416 15163.32270732522 1148.4980932325125 16562.053034245968 10871.650859192014 4581.620918944478 20060.141979798675 2929.7245497256517 2929.0042945891619 76.819593742489815 3536.9478825628757
leaf_count=36869 48091 7936 21560 36734 19340 24471 30223 23084 24379 77622 3283 19872 17820 9890 1121 9423 67047 34137 49264 28550 60046 6056 65655 42851 18041 79069 11541 11537 306 14167
internal_value=0.000529371 -0.018865 0.00195886 0.00109733 0.00161406 0.00190399 -1.89726e-05 0.00319756 0.00753008 0.00232332 -0.0136965 0.00341558 0.00725692 -0.0328749 -0.0125282 -0.0118783 0.00096694 -0.000385642 -0.00165297 -0.00306911 0.00535504 -0.0282888 0.00578347 0.00454312 -0.000212789 -0.00193251 -0.00363 -0.00760273 -0.0130026 0.0110729
internal_weight=224067 15381.5 208686 180737 168705 163892 65911.5 97980.9 27949 80618.6 11236.3 31002.1 17362.3 4145.19 10566.7 10334.6 50041.3 33014.6 27148.8 34909.4 20203 2893.71 22031.5 30577.2 10799.1 27709.6 18467.2 5935.55 3006.54 8032.01
internal_count=899985 74578 825407 713813 665722 646382 260272 386110 111594 317389 50696 122430 68721 23882 47413 46292 196916 129869 106785 137842 79918 15946 87215 120473 42512 109292 72648 23384 11847 31987
is_linear=0
shrinkage=0.05


Tree=26
num_leaves=31
num_cat=0
split_feature=21 21 7 3 4 11 24 25 29 24 8 25 24 11 29 9 9 25 4 5 21 9 22 13 29 12 13 17 25 8
split_gain=2282.12 436.517 339.737 260.49 189.852 147.432 145.812 139.85 118.651 108.886 90.3 84.0775 80.7542 80.4801 76.5146 75.1353 70.1758 68.8935 68.4357 70.7628 68.2066 86.9935 92.3474 63.2026 61.9292 60.2479 75.4222 60.014 56.2919 48.5854
threshold=2.7448052908616035e-05 0.00032226273332334944 1.0000000180025095e-35 -4.715015146791024 -0.17162193408313162 31.680941410402788 3.1622814082690316 64.254155529656472 -129.0123435516376 28.319568222398065 0.0061991166834836665 43.95647807655596 11118.826550388729 41.007907196580589 135.46966046675496 -0.1378870260906844 -0.046180963707276625 28.413679831402472 1.144779401185706 -0.0041229920587811169 0.0038547809657808645 -0.017240972013697706 0.004341074764850383 0.0054763633597455586 71.751900834642001 46.200612758495943 0.0023290496710823244 1.0000000180025095e-35 47.016926637890826 0.0087794122956861755
decision_type=2 2 10 10 10 10 2 2 2 2 10 2 2 10 2 8 10 2 10 10 2 10 2 2 2 10 2 2 2 8
left_child=3 6 4 16 5 12 11 13 17 10 -9 -2 15 23 -7 -3 -1 -4 19 -13 21 22 -10 29 -8 28 -27 -5 -17 -6
right_child=1 2 8 27 7 14 24 9 20 -11 -12 18 -14 -15 -16 25 -18 -19 -20 -21 -22 -23 -24 -25 -26 26 -28 -29 -30 -31
leaf_value=-0.042379727516733245 0.0016239805431446097 -0.020995232975693688 0.02059114784541308 -0.012761281043635414 0.0037478869435553191 -0.0050630772586785977 -0.017728887176343643 0.013096927859588856 -0.045737105929074019 -0.02193171796436098 0.0030760943907062262 -0.014107331819042787 -0.051367604447990559 -0.0023506260845565351 0.0021884469187174252 0.0050144240552252254 -0.027503005281155093 0.0097265016251288933 0.00088273939029685647 -0.004855713173745964 0.014344686966810028 0.0053704886039060637 -0.0032994560576853128 0.0086208862412457121 0.0020936149107717919 -0.0068914954863472308 0.0055884273811566722 -0.021920429760659797 0.00087963250156801215 0.00097789047754696522
leaf_weight=1153.384274944663 6691.8131054341793 373.47063446044922 1983.280898630619 5015.5019326210022 34767.466125056148 19034.462022960186 2590.3423058837652 6248.0030169785023 149.79684413969517 283.70178063213825 3511.6752023845911 2653.1869242936373 72.810987010598183 8205.0525315403938 4497.1431477814913 12432.541190698743 2534.9400987327099 5520.7109920829535 3693.2829204946756 9352.5741317123175 1999.644126996398 23222.891200393438 888.83128455281258 4494.7750981450081 464.70756311714649 4093.8468480408192 1718.9834260940552 2779.6749347746372 24360.172070622444 29063.237644150853
leaf_count=7570 26660 1475 8229 23195 136915 75195 11369 24955 600 1188 13840 10809 334 32363 17702 48951 14278 22433 14770 37401 8086 92363 3527 17723 1869 16191 6793 13010 95816 114375
