tree
version=v4
num_class=1
num_tree_per_iteration=1
label_index=0
max_feature_idx=128
objective=binary sigmoid:1
feature_names=Column_0 Column_1 Column_2 Column_3 Column_4 Column_5 Column_6 Column_7 Column_8 Column_9 Column_10 Column_11 Column_12 Column_13 Column_14 Column_15 Column_16 Column_17 Column_18 Column_19 Column_20 Column_21 Column_22 Column_23 Column_24 Column_25 Column_26 Column_27 Column_28 Column_29 Column_30 Column_31 Column_32 Column_33 Column_34 Column_35 Column_36 Column_37 Column_38 Column_39 Column_40 Column_41 Column_42 Column_43 Column_44 Column_45 Column_46 Column_47 Column_48 Column_49 Column_50 Column_51 Column_52 Column_53 Column_54 Column_55 Column_56 Column_57 Column_58 Column_59 Column_60 Column_61 Column_62 Column_63 Column_64 Column_65 Column_66 Column_67 Column_68 Column_69 Column_70 Column_71 Column_72 Column_73 Column_74 Column_75 Column_76 Column_77 Column_78 Column_79 Column_80 Column_81 Column_82 Column_83 Column_84 Column_85 Column_86 Column_87 Column_88 Column_89 Column_90 Column_91 Column_92 Column_93 Column_94 Column_95 Column_96 Column_97 Column_98 Column_99 Column_100 Column_101 Column_102 Column_103 Column_104 Column_105 Column_106 Column_107 Column_108 Column_109 Column_110 Column_111 Column_112 Column_113 Column_114 Column_115 Column_116 Column_117 Column_118 Column_119 Column_120 Column_121 Column_122 Column_123 Column_124 Column_125 Column_126 Column_127 Column_128
feature_infos=[-0.23191413753603948:0.2959523851766187] [-0.27804214506296332:0.4015917307294658] [-0.34367587439183656:0.66955750994697993] [-0.41382480554526696:0.53733552631578951] [-0.25756653791205886:1.1380739795918366] [-0.62961003227684009:0.49089912280701753] none [-0.31480501613842005:0.31842105263157894] [-0.34212127625800304:0.70325255102040796] [-0.30696202531645572:1.0089285714285712] [-0.24548917932165729:0.23026315789473686] [-0.28358962947242644:0.3591678708191462] [-0.26346756110905928:0.28404129779275772] [-0.27220500259106134:0.39586059779717803] [-0.38097905008160976:0.40712645732954] [-0.29015432098765431:0.13304093567251438] [-0.35173863321067955:0.14226255236827803] [-0.33270146843633963:0.21878685378501317] [-0.56989157847725813:0.15581467573651209] [-0.37172072596433692:0.41447368421052594] [-0.22370372285418744:1.5141900510204092] [-0.35818508915815661:0.59723214285714199] [-0.28821951468335572:0.22653125993988962] [-0.22874804405751847:0.37612088300088803] [-0.41943366355935369:1.0538047355174478] [-0.49912168796579431:0.45191889465488311] [-0.35495321071313346:1.6865899419716086] [-0.29047275786691323:2.3193751484257694] [-0.22599230502069304:2.95216035487993] [-0.26112870673429439:0.37499999999999994] [-0.83223689525756395:0.13815789473684173] [-0.37172072596433692:0.41447368421052594] [-0.10869756519371178:0.69078947368421006] [-0.13047429080887665:0.45792298004954107] [-0.51711627305512353:0.22439413705025957] [-0.62961003227684009:0] [-0.31480501613842005:0.23026315789473686] [0:0.54336734693877542] [-0.3472008420722057:0.32953333134586993] [-0.27220500259106134:0.39586059779717803] [-0.19720916310991699:0.46218786424848612] [-0.32832722832722833:1.7788263762855412] [-0.23482295482295479:3.2872353297035688] [-0.18132335431195776:5.2151240169388968] [-0.17349889436979071:6.7235329703569251] [-0.90685970355049994:1.3710884353741499] [-1.7635757575757576:0.81488095238095259] [-3.5853599516031451:0.53358843537415013] [-0.32832722832722833:1.7788263762855412] [-0.26619975579975574:3.0914920750151236] [-0.22781733821733818:3.9024583182093164] [-0.18132335431195776:5.2151240169388968] [-0.54843234581703004:1.3324559523809525] [-0.86939675973802133:1.1348059523809526] [-1.7635757575757576:0.81488095238095259] [-0.26274606734715938:0.2081429197861808] [-0.40152357253943566:0.50615082443611881] [-0.42807435474189659:0.33230500835711829] [-0.34400287866679663:0.21348572756242978] [-0.34400287866679663:0.21348572756242978] [-47.184298966879375:6.151443346971484] [-349.61211580801825:470.80111141056261] [-487.17528988584388:517.83187751150138] [-0.040008592974767318:0.056727530024939951] [-0.17826237886685764:0.10410421361005841] [-0.16673618297640996:0.051170153108025321] [-0.030957303974221261:0.034923795546329184] [-0.29755566690962099:0.36699853733757642] [-27.99150995616186:1014.034413819574] [-965.17642170311058:529.69645959734282] [-54.680965278253922:62.556000734408116] [-186.93893058999333:1438.7148687494357] [-2.2072943365317395:2317.8443948754089] [-2.2611298604063106:10779.858960262374] [0:0.079286336133582047] [0:0.018666442037878123] [3.6910187290719253e-16:1.8889776032262076e+193] none none [0.34620032304115261:99.999999999999815] [4:100] [4:100] [0:100.00000000000001] [0:100.00000000000001] [0:35.000000000034106] [0:70.999999999866418] [-666.6666667160307:666.66666667983043] [-2820.1673102903169:1949.6000451052641] [-99.999999999999986:100.00000000000001] [-329.37210150970225:489.76948675944254] [0:100] [-2.9170266846386794:8.1397760208944892] [-13.726441790735713:14.847832335935776] [-12.030428470142921:6.7080563150412864] [-32.050566659782092:166.1538461538143] [-99.999999999999858:107.69230769230771] [-99.999999999999972:71.473573100883101] [-31.531531531531531:109.98888888888889] [0:100] [0:100.00000000000001] [0:100.00000000000001] [0:100] [0:100] [-1.546347143267075:1.0605213874118882] [-1.3682581838394554:0.7429942819619243] [-100:100] [0:100] [-99.999999999999986:0] [-62.778093360011255:55.027513756878491] [0:0.20131636578395254] [-4.2485291572598962:4.2485291572600232] [0:1.4659600859826758] [-0.58972473588981988:1.5897247358877469] [0:46.868024229284885] [-1:1] [0:1] [0:1] [0:1] [0:1] [0:1] [0:1] [0:1] [0:1] [0:1] [0:1] [0:1] [0:1] [0:1] [0:1]
tree_sizes=3561 3593 3611 3585 3605 3605 3595 3620 3603 3596 3596 3616

Tree=0
num_leaves=31
num_cat=0
split_feature=13 100 100 47 23 44 20 10 102 109 82 109 44 92 15 59 98 52 109 95 85 15 61 100 80 10 20 47 98 50
split_gain=15096.2 2247.49 1259.17 782.532 707.522 672.953 508.993 494.914 420.414 376.325 364.621 304.096 263.332 256.957 234.747 200.606 189.321 186.986 175.62 170.822 167.518 161.25 146.809 144.72 137.324 132.017 133.975 130.157 125.806 123.983
threshold=1.0000000180025095e-35 16.905892664766821 74.565444057873023 -0.062192633579472037 0.00046667172896177619 0.053732066726022307 0.00042493731610717848 0.00044714229874019603 67.874198672183738 0.00099067577186299615 51.337896605035986 0.0007445026239608413 0.045705465414648476 0.076325936961830002 0.0002074541076496152 0.0010782594212921724 46.378271334139392 -0.028748684489081255 0.00042827336406524151 -56.204967489482542 0.84291323586403077 0.0014450579340504705 0.00285781452840997 99.903119482174432 94.000000000000014 0.00027181593998141547 0.00067012470782508817 -0.033209439535514099 99.788171268212466 0.023193164447328132
decision_type=2 10 8 2 2 2 2 2 10 2 8 2 2 2 2 2 2 2 2 2 10 2 2 10 2 2 2 2 2 2
left_child=2 4 14 8 -2 11 9 16 20 19 15 27 -9 29 25 -7 23 -13 -8 -5 -4 -14 -10 -3 -18 26 -1 -6 -21 -11
right_child=1 7 3 6 5 10 18 12 22 13 -12 17 21 -15 -16 -17 24 -19 -20 28 -22 -23 -24 -25 -26 -27 -28 -29 -30 -31
leaf_value=0.02627922965297989 0.055563367317689447 0.053216555672797448 0.0015168729757620639 -0.0076559423794718903 0.072372107515386752 0.065846458467181623 0.05250398514699843 0.078481977994121627 0.034427553377791117 -0.025687869436524111 0.087266587558813113 0.082718168024895691 0.056486768959076013 0.012951444841169939 0.04493770279792568 0.095715990448446864 0.045188037462043702 0.10913954528214152 0.022759258107715397 0.01372633133997727 0.020809942763501323 0.075392325309753927 0.021096404848712402 0.096629164561092162 0.020397756479567226 0.044505215163924791 0.039954607172580828 0.092161260592528493 0.063902356070381763 0.0031483820036043025
leaf_weight=6432.6882474422455 3285.5584899634123 8071.8443577289581 1557.4481761306524 982.99392345547676 1705.1221488714218 7941.1616373509169 603.93907295167446 2264.3342486917973 10527.330195501447 1591.6805522143841 3426.2360646724701 878.54769569635391 7434.9222654849291 907.78264461457729 6064.377865344286 604.93855838477612 5755.2869951575994 2816.0502077639103 2782.8173171132803 6344.2337866127491 4053.1633025854826 1329.5654973834753 2569.1773057878017 196.64875896275043 618.68148308992386 1931.5055994689465 2481.9722017496824 1620.665629774332 127.43439272046089 486.74940592050552
leaf_count=25744 13149 32304 6233 3934 6824 31781 2417 9062 42131 6370 13712 3516 29755 3633 24270 2421 23033 11270 11137 25390 16221 5321 10282 787 2476 7730 9933 6486 510 1948
internal_value=0.045377 0.0653667 0.025992 0.0202395 0.0769868 0.0806928 0.0112201 0.0552824 0.0269063 0.00575654 0.0734857 0.0929835 0.0632818 -0.00924158 0.0370593 0.0679608 0.0492573 0.102857 0.0280634 0.0117645 0.0154544 0.0593547 0.0318123 0.054249 0.0427818 0.0326543 0.0300867 0.0820154 0.0147144 -0.0189347
internal_weight=97394.9 47949.6 49445.3 32534.8 22278.3 18992.7 13827.6 25671.3 18707.1 10440.9 11972.3 7020.39 11028.8 2986.21 16910.5 8546.1 14642.5 3694.6 3386.76 7454.66 5610.61 8764.49 13096.5 8268.49 6373.97 10846.2 8914.66 3325.79 6471.67 2078.43
internal_count=389780 191897 197883 130206 89159 76010 55339 102738 74867 41785 47914 28096 44138 11951 67677 34202 58600 14786 13554 29834 22454 35076 52413 33091 25509 43407 35677 13310 25900 8318
is_linear=0
shrinkage=1


Tree=1
num_leaves=31
num_cat=0
split_feature=98 107 100 124 82 23 58 10 10 23 88 76 81 44 99 119 102 76 81 72 99 49 109 81 84 100 47 107 82 56
split_gain=13640.8 1808.93 1698.42 739.541 529.514 488.103 441.381 407.796 386.489 363.491 350.47 331.277 309.093 260.98 254.435 247.85 197.883 188.158 184.208 173.413 154.565 141.721 185.974 137.553 134.576 114.441 112.8 110.735 110.606 110.355
threshold=48.808904450926775 -83.499856455919215 72.964511845849771 1.0000000180025095e-35 44.323083930198479 0.00031147637381288054 -0.00060100803723242828 -0.00023898238673653426 0.00021370645099162724 -0.00017495260335455528 37.931034482758093 1.3273556527413615 90.000000000000014 0.045287497010368848 29.972101946099276 1.0000000180025095e-35 64.214542477872669 1.4719441956808639 94.000000000000014 0.49424285904569504 67.384943368717629 -0.0078590845657502059 0.0007445026239608413 94.000000000000014 0.87389710533352671 99.903119482174432 -0.045786713865412311 -1.0000000180025095e-35 34.814701171809908 4.8183364711008711e-05
decision_type=2 10 8 2 10 2 2 2 2 2 2 2 2 2 10 2 8 2 2 8 10 2 2 2 10 8 2 10 10 2
left_child=1 4 8 6 11 -6 -4 27 18 10 13 26 17 21 15 -7 -8 29 28 -12 -15 -5 -23 -10 -13 -11 -1 -3 -2 -9
right_child=2 7 3 9 5 14 16 12 23 25 19 24 -14 20 -16 -17 -18 -19 -20 -21 -22 22 -24 -25 -26 -27 -28 -29 -30 -31
leaf_value=0.015446945523427605 -0.01047287812563978 -0.002246164749740509 -0.038060957451019242 -0.030493348115905303 -0.0042724837679377131 0.044185722470607633 -0.024652167787807822 0.01734800289478786 0.001785348265816054 -0.020606037325409832 -0.028803724308616132 0.057552090054404051 0.043659901514380199 -0.046286569796043897 0.059680753069605609 0.023039776700522922 -0.011535310403664486 0.02284654920499286 0.004591693065126452 -0.0049736619289974526 -0.026926865186824647 -0.043846388845023565 -0.068036562196611403 0.024572079802402568 0.032337114295160341 0.0072192977866180523 0.028821059196036676 0.040511787287812379 -0.02337077244052246 0.0070728327050427909
leaf_weight=6415.2370543032885 9318.4189003556967 5382.3144419938326 2256.9252079874277 732.40921030938625 587.55387972295284 5187.1085378676653 3709.6059376001358 3698.1774170398712 5981.1294671297073 903.79696302115917 3438.6458134502172 655.68336248397827 866.29451951384544 1498.6381252557039 1780.7381177395582 1890.8543456345797 12785.270337209105 3749.1127759516239 1764.7953598350286 981.29623886942863 3303.9238582253456 1743.0813964754343 1460.0686045140028 744.75195418298244 2742.3444862067699 625.09445977210999 2090.3025307357311 155.8065093755722 2023.0643600970507 8905.9967618733644
leaf_count=25691 37286 21542 9029 2930 2352 20788 14840 14805 23940 3616 13757 2628 3469 5995 7138 7577 51152 15011 7062 3926 13218 6973 5841 2981 10986 2501 8374 624 8095 35653
internal_value=3.92378e-07 0.0205663 -0.0170279 -0.0239034 0.0310205 0.0398599 -0.0173227 0.0107588 -0.00543508 -0.0323054 -0.0349867 0.0240059 0.0145545 -0.0407903 0.0427869 0.0385367 -0.0144852 0.0130127 -0.0104353 -0.0235131 -0.0329681 -0.0503358 -0.0548728 0.00430851 0.0372026 -0.00922952 0.0187337 -0.00104324 -0.0127736 0.0100877
internal_weight=97378.4 44107.5 53270.9 33438.8 21349.8 9446.25 18751.8 22757.7 19832.2 14687 13158.1 11903.6 17219.6 8738.12 8858.7 7077.96 16494.9 16353.3 13106.3 4419.94 4802.56 3935.56 3203.15 6725.88 3398.03 1528.89 8505.54 5538.12 11341.5 12604.2
internal_count=389780 176638 213142 133778 85534 37855 75021 91104 79364 58757 52640 47679 68938 34957 35503 28365 65992 65469 52443 17683 19213 15744 12814 26921 13614 6117 34065 22166 45381 50458
is_linear=0
shrinkage=0.05


Tree=2
num_leaves=31
num_cat=0
split_feature=13 107 100 23 46 124 20 59 10 80 15 32 56 102 50 98 111 102 63 62 95 45 4 50 107 92 98 87 100 107
split_gain=12334.8 1835.6 1036.35 598.067 525.338 515.531 448.405 434.078 417.678 293.454 261.042 260.497 227.002 184.941 182.758 165.082 156.937 153.973 146.024 145.023 141.848 135.665 134.847 128.301 125.346 115.308 113.269 111.969 110.725 107.286
threshold=1.0000000180025095e-35 -83.094107335233176 82.735907846889646 0.00046667172896177619 -0.052096338699365169 1.0000000180025095e-35 0.00034323800590722425 0.00060874007127080943 0.00044714229874019603 90.000000000000014 0.00023776140267737372 0.00086334182361205714 4.8183364711008711e-05 22.064174343476434 0.022948914989722239 44.423994546512937 0.0018305787857437127 78.526206201379168 -1.1990208601343576e-05 0.024356237446562561 -60.380166659132534 -0.029408430727637679 0.0015877417387544243 0.050481371767685281 -40.186915887852102 0.076325936961830002 84.613227698894505 11.543519993379961 36.37078620616608 -0.25316455696197698
decision_type=2 10 8 2 2 2 2 2 2 2 2 2 2 10 2 2 2 10 2 2 2 2 10 2 10 2 2 2 10 10
left_child=2 3 10 -2 9 7 11 13 15 17 19 20 28 -5 25 29 -8 -4 24 22 -6 -7 -1 -15 -17 -13 -22 -19 -10 -3
right_child=1 8 4 5 6 21 16 -9 12 -11 -12 14 -14 23 -16 18 -18 27 -20 -21 26 -23 -24 -25 -26 -27 -28 -29 -30 -31
leaf_value=-0.015455120507380755 0.0088991629691047465 0.0090761990001333014 -0.022454605415077194 0.01583473207219915 -0.049757588196228081 0.031911707327900003 0.0083391594782119879 0.050879386085315031 0.033838762550803168 -0.042520068216307425 -0.0021479119269068167 -0.061189386480832046 0.011328357102988936 0.036124796401766593 -0.029778397616959825 -0.0031881267544778373 -0.020041554432464428 -0.014100563697497083 0.0061500914213742305 -0.026789550081808507 -0.029789080222577032 0.046127481679968899 -0.0048633707048933274 0.01538893487748633 -0.025627673343972052 -0.034945261144171562 -0.0029946261797409151 -0.0005602958744308508 0.015995582500930274 0.050300478522105001
leaf_weight=8367.0455737560987 3278.7092805057764 5338.8060679137707 4049.420365139842 5982.2451540827751 850.0336762368679 2418.3963074833155 583.78231574594975 1417.2167276442051 2149.0864610821009 1019.9720232188702 7712.8865463137627 1802.079917371273 7408.65918597579 2583.6044081449509 1023.8947612792253 4187.8148449957371 2941.1846127212048 5604.2621410638094 4226.0305055826902 1800.1581461876631 5950.0863130092621 5484.0471910089254 4689.0673632472754 1048.808100476861 730.95315380394459 545.15339477360249 422.42491199076176 2098.5282012969255 1460.1797157526016 162.63359463214874
leaf_count=33474 13133 21375 16199 23988 3402 9706 2336 5693 8613 4081 30863 7215 29676 10370 4096 16762 11766 22419 16917 7202 23804 22030 18760 4205 2925 2181 1690 8395 5851 653
internal_value=7.53783e-07 0.0180916 -0.0175112 0.028615 -0.0241417 0.032029 -0.0307887 0.0250462 0.00898334 -0.016794 -0.00961092 -0.0359287 0.0163376 0.0212384 -0.0474051 0.00345093 -0.0153413 -0.0145613 -0.000666328 -0.0134855 -0.0305721 0.041777 -0.0116511 0.0301376 -0.00652275 -0.0550941 -0.0280129 -0.0104117 0.0266201 0.0102949
internal_weight=97337.2 47877.2 49460 22213 26890.8 18934.3 14118.6 11031.9 25664.2 12772.2 22569.2 10593.7 11017.9 9614.66 3371.13 14646.2 3524.97 11752.2 9144.8 14856.3 7222.54 7902.44 13056.1 3632.41 4918.77 2347.23 6372.51 7702.79 3609.27 5501.44
internal_count=389780 191897 197883 89125 107584 75992 56490 44256 102772 51094 90299 42388 44140 38563 13492 58632 14102 47013 36604 59436 28896 31736 52234 14575 19687 9396 25494 30814 14464 22028
is_linear=0
shrinkage=0.05


Tree=3
num_leaves=31
num_cat=0
split_feature=98 100 100 124 82 23 58 20 10 76 17 88 81 88 83 83 102 76 111 76 101 82 100 81 49 20 72 23 76 44
split_gain=11167.6 1479.97 1408.2 677.867 458.477 424.491 419.296 385.31 347.519 292.886 279.458 277.348 263.957 209.658 183.513 175.002 165.103 163.553 149.616 147.806 142.585 132.042 128.874 128.794 123.608 120.424 117.878 115.07 114.329 109.566
threshold=48.808904450926775 16.500143544080764 68.964951125518823 1.0000000180025095e-35 44.323083930198479 0.00046667172896177619 -0.00057333812496261182 0.0013200892772717136 -5.6539408901259737e-05 1.3273556527413615 0.00014468561908201886 34.502795760138419 90.000000000000014 -37.757935075185749 36.213935648604526 99.643755930068181 64.214542477872669 1.3011492813968204 0.0035320055160787994 1.2469298375693361 62.538667267056276 99.662704654325168 99.998879802845295 94.000000000000014 0.036713115007048838 -0.00069369197516952789 0.81291129923653582 -0.00052644823321865077 0.99570652913339253 0.048156117519460265
decision_type=2 10 8 2 10 2 2 2 2 2 2 2 2 2 10 10 8 2 2 2 10 10 10 2 2 2 10 2 2 2
left_child=1 4 10 6 9 -6 -4 11 22 -1 20 14 17 21 19 26 -8 25 -9 -5 -2 29 -3 -12 -11 -10 -13 -16 -15 -7
right_child=2 8 3 7 5 13 16 18 12 24 23 15 -14 28 27 -17 -18 -19 -20 -21 -22 -23 -24 -25 -26 -27 -28 -29 -30 -31
leaf_value=0.016620209368659718 -0.011930833897015091 -0.00051335121062530387 -0.033756368913995929 -0.023411730209814394 0.0049499200511466676 0.045085792680281955 -0.020892490765002891 0.0087587947519202139 -0.0006556244598892578 0.040532309393590531 0.0020145795549988874 -0.028382216081307102 0.041480877640227426 0.039991770782875337 -0.048269826704833201 0.016230598357888905 -0.0096410391324470816 0.020194921073998194 -0.018797077245505976 -0.044850558666169306 0.00071490012518396549 -0.004736330337510258 0.039324758848364449 0.023417715319497764 0.020006550173674212 0.011984784720316034 -0.0058672218570334778 -0.029005552519310675 0.056630126391867708 0.028075727215432
leaf_weight=8488.5670728385448 8067.8900398015976 6952.5660294145346 2622.4978810995817 2804.4480393230915 965.58050316572189 1492.9802143871784 4292.2455636709929 732.27499169111252 2505.0695221871138 2310.0873132199049 5395.0146720856428 3625.050510391593 824.99992160499096 2148.6249833852053 3686.81735932827 276.92915053665638 13563.50511033833 4635.3661646842957 1504.9850535541773 1127.0425729453564 3080.0624530166388 228.77609357237816 209.11140891909599 808.1670309305191 1074.714638158679 7602.4815738350153 692.37386274337769 981.54646541178226 1987.5189614444971 2587.1907553076744
leaf_count=34068 32277 27831 10496 11225 3869 6017 17174 2930 10036 9297 21596 14507 3314 8658 14771 1108 54261 18585 6021 4515 12324 922 840 3237 4317 30459 2770 3930 8016 10409
internal_value=1.07425e-06 0.0186374 -0.0153996 -0.021051 0.0281123 0.0363551 -0.0150876 -0.0289647 0.00976517 0.0215791 -0.00370354 -0.0322181 0.0139585 0.0399459 -0.0375167 -0.0223001 -0.0123457 0.0124183 -0.0097778 -0.0295576 -0.00843695 0.0322273 0.000649868 0.00480304 0.0340151 0.00885197 -0.0247715 -0.0442194 0.0479869 0.0342999
internal_weight=97274.5 44013.6 53260.9 35909.7 21284 9410.67 20478.2 15431.5 22729.6 11873.4 17351.1 13194.2 15567.9 8445.09 8599.85 4594.35 17855.8 14742.9 2237.26 3931.49 11148 4308.95 7161.68 6203.18 3384.8 10107.6 4317.42 4668.36 4136.14 4080.17
internal_count=389780 176638 213142 143708 85573 37891 81931 61777 91065 47682 69434 52826 62394 34022 34441 18385 71435 59080 8951 15740 44601 17348 28671 24833 13614 40495 17277 18701 16674 16426
is_linear=0
shrinkage=0.05


Tree=4
num_leaves=31
num_cat=0
split_feature=23 100 100 47 99 124 99 109 17 43 17 20 109 8 44 109 23 15 47 82 86 59 44 61 44 101 59 44 47 100
split_gain=10121.2 1660.81 1414.28 631.74 565.892 418.896 404.727 388.857 371.347 329.598 328.252 263.277 197.51 181.534 179.116 166.683 162.135 154.645 151.828 148.382 146.546 146.076 120.607 120.576 116.6 111.208 110.101 100.885 90.108 89.7749
threshold=0.00016517850498204035 21.739130434783274 68.964951125518823 -0.062192633579472037 32.656358246097177 1.0000000180025095e-35 55.915792565072358 0.0010574876167763706 -0.00012711627547791474 0.048528329084899534 0.00014468561908201886 0.00014372013264334183 0.00051931735498431293 -0.0050424197829928288 0.05839648870412302 0.0017263024595550601 0.00086826617889610065 0.0010262593479313296 -0.064271428322134838 30.357687865330622 68.857000688178303 0.00099020580950747914 0.069360788014916144 -0.033777913121576998 0.034187776887923065 62.538667267056276 0.0018397877499143234 0.032445902243080825 -0.030553202755947074 99.903119482174432
decision_type=2 10 8 2 8 2 10 2 2 2 2 2 2 2 2 2 2 2 2 10 2 2 2 2 2 10 2 2 2 10
left_child=2 4 10 6 5 21 -4 11 -3 13 25 20 -7 -9 -14 23 -6 27 -18 -17 -5 24 -19 29 -2 -1 -12 -10 -22 -8
right_child=1 8 3 7 16 12 15 9 17 -11 26 -13 14 -15 -16 19 18 22 -20 -21 28 -23 -24 -25 -26 -27 -28 -29 -30 -31
leaf_value=-0.0120857942724745 0.028957869868858385 -0.002470083593977592 -0.034991272314278218 -0.036555476838055115 0.026146324902843604 0.015086126544975065 -0.0092033503501350797 -0.024569373695822187 0.020431988676348149 -0.017715619472494525 0.0023564680003050897 -0.0096960381823277784 0.046462680839878867 -0.056373791975805582 0.028197025971867486 -0.01463624456596941 0.035324755644668714 0.042551198617111853 0.054446229002329517 -0.033791846321482549 -0.018159186356548177 0.042043215452455408 0.016609740147853415 -0.01189009189317114 0.012997553302870597 -0.00043129129785151785 0.021483665196037019 0.007871392692017835 -0.032642509925930166 0.0091442954026263561
leaf_weight=8012.125156968832 1311.4429811537266 6493.0084298998117 2231.4719603955746 3112.9013371318579 1428.5914478451014 1348.7820210456848 1321.5291455984116 551.75730673968792 1881.9912494719028 1041.3373013138771 6641.2736661732197 2577.3547733575106 2453.2022160738707 2401.2910904437304 2963.5171155035496 3433.3256177306175 1921.0153366327286 635.85872347652912 2258.7633378952742 1432.8600836396217 3407.6741138100624 526.08285713195801 1516.9343489408493 10179.501435026526 8980.9064958244562 2749.1869256347418 848.48980371654034 10616.92747323215 1568.0779211074114 1345.5084297060966
leaf_count=32055 5281 25991 8944 12482 5754 5431 5288 2210 7546 4168 26601 10316 9919 9644 11939 13738 7751 2554 9144 5736 13644 2125 6087 40731 36088 11001 3399 42548 6281 5384
internal_value=1.40699e-06 0.0176184 -0.0147763 -0.0207161 0.0268585 0.0224476 -0.0149239 -0.0285957 0.00748352 -0.0419024 -0.00351431 -0.0236124 0.0322064 -0.0504313 0.0364694 -0.0123958 0.0406879 0.0118945 0.045658 -0.0202767 -0.0280467 0.0163448 0.0242719 -0.00941063 0.0150312 -0.00910842 0.00452332 0.00976267 -0.0227235 5.29542e-05
internal_weight=97192.7 44337 52855.7 34604.6 23192.3 17583.9 19944.2 14660.4 21144.7 3994.39 18251.1 10666 6765.5 2953.05 5416.72 17712.7 5608.37 14651.7 4179.78 4866.19 8088.65 10818.4 2152.79 12846.5 10292.3 10761.3 7489.76 12498.9 4975.75 2667.04
internal_count=389780 178158 211622 138566 93432 70783 79821 58745 84726 16022 73056 42723 27289 11854 21858 70877 22649 58735 16895 19474 32407 43494 8641 51403 41369 43056 30000 50094 19925 10672
is_linear=0
shrinkage=0.05


Tree=5
num_leaves=31
num_cat=0
split_feature=23 100 100 99 82 47 59 10 10 99 82 109 44 119 109 23 15 20 15 0 100 28 109 82 100 20 87 20 47 45
split_gain=9149.25 1647.8 1152.2 625.923 594.318 482.028 313.242 311.297 296.482 295.942 240.955 221.368 201.535 188.808 183.533 171.386 155.004 152.533 150.243 124.776 123.435 119.266 113.515 114.646 110.041 109.881 107.189 113.481 95.2851 92.3845
threshold=3.7951333517241774e-05 28.528592750149585 73.382863213373682 66.666666666666742 44.029843049451991 -0.063235980547044532 0.0010077108994932694 0.00027181593998141547 -0.00034492700055737958 32.656358246097177 33.402228301351265 0.00059680586229734253 0.053732066726022307 1.0000000180025095e-35 0.00077106052878321053 0.00077635493548513189 7.0380393190549401e-05 0.00096574537495774145 0.00076992884610706659 0.00081630324393858547 9.0487208445398384 0.0069772843412466571 0.0016744128333405163 30.357687865330622 99.998879802845295 0.0032442135384931014 9.7408276898702315 0.00026076022996390189 -0.047117692725593581 -0.012010889422761553
decision_type=2 10 8 10 10 2 2 2 2 10 10 2 2 2 2 2 2 2 2 2 10 10 2 10 10 2 2 2 2 2
left_child=2 4 7 17 6 22 12 16 25 13 -7 -12 14 15 -2 29 -1 -4 24 -11 -17 -13 26 -24 -10 -3 27 -5 -16 -6
right_child=1 8 3 5 9 10 -8 -9 18 19 11 21 -14 -15 28 20 -18 -19 -20 -21 -22 -23 23 -25 -26 -27 -28 -29 -30 -31
leaf_value=-0.014602968066944758 0.016190148292193552 -0.0098916279749530489 -0.038150929641656041 -0.014358552533590472 0.0077393054082980049 -0.01947145874604321 0.041875781461782842 0.0038532279195918544 0.0061918443380627897 0.025841602831889 -0.020241313474407965 -0.052458368166771435 0.012028535987392421 0.016129939238377258 0.025744677204051034 0.041793918800536907 -0.003263524689320479 -0.015988650935109955 0.021810206485956895 0.055800025088068708 0.022487684916831154 -0.029081614592274343 -0.013024096493477641 -0.031160933515006442 0.041463911367805528 0.0025130603220021629 0.00077065623648191791 0.0001517785731673765 0.047608212105314608 0.032401207125167614
leaf_weight=6969.9651309549809 2855.314441755414 3386.1240913271904 5300.2827734351158 6382.583468452096 865.45157459378242 6542.0580505728722 1254.6349238157272 6468.5709871500731 9982.1637967824936 437.74143581092358 1536.8368392884731 1600.6540009081364 10586.954010665417 2193.8358197212219 1069.3166277706623 3868.9460059255362 5309.3858850896358 909.62214955687523 2048.6675169616938 1687.1356406211853 1053.3098369985819 827.7867167443037 3033.01820987463 1222.5224177539349 226.13114681839943 3775.9603159725666 2382.7051916569471 1708.0106460005045 933.27714973688126 676.62833762168884
leaf_count=27887 11491 13553 21292 25543 3487 26220 5079 25910 40008 1769 6161 6448 42551 8849 4313 15719 21245 3644 8231 6870 4247 3323 12138 4898 910 15114 9534 6834 3782 2730
internal_value=1.68793e-06 0.0158797 -0.0148348 -0.0206841 0.0237576 -0.0171848 0.0178492 -0.00502374 0.00473046 0.0329079 -0.0253663 -0.0350918 0.0158975 0.0288043 0.0243292 0.0331057 -0.00969998 -0.0349046 0.00945309 0.0496284 0.0376626 -0.0444899 -0.0113482 -0.0182344 0.00697318 -0.00335169 -0.00855024 -0.0112953 0.0359338 0.0185604
internal_weight=97095.6 46901.6 50194 31446.1 27482.5 25236.2 16699.5 18747.9 19419 10783 10507.3 3965.28 15444.9 8658.17 4857.91 6464.34 12279.4 6209.9 12257 2124.88 4922.26 2428.44 14728.8 4255.54 10208.3 7162.08 10473.3 8090.59 2002.59 1542.08
internal_count=389780 188703 201077 126035 110887 101099 67216 75042 77816 43671 42152 15932 62137 35032 19586 26183 49132 24936 49149 8639 19966 9771 58947 17036 40918 28667 41911 32377 8095 6217
is_linear=0
shrinkage=0.05


Tree=6
num_leaves=31
num_cat=0
split_feature=98 100 100 99 47 47 100 56 23 0 99 44 109 23 28 109 61 56 101 100 74 95 44 109 80 83 105 0 61 61
split_gain=8296.09 1136.77 1057.48 534.769 410.715 364.479 293.334 310.96 272.041 253.382 234.742 228.748 297.069 213.795 178.875 288.86 162.367 157.566 152.164 148.261 114.651 120.284 108.973 147.222 106.364 104.354 98.2004 96.696 94.3894 92.7289
threshold=48.808904450926775 11.688311688312032 74.982148268686444 66.666666666666742 -0.045329468966041592 -0.04214009121864893 35.487463547091899 4.8183364711008711e-05 0.00084520627028027682 8.5737378474279365e-05 31.546836770583692 0.041659889517855896 0.00069755541399867777 -0.00033094059925871665 0.024288938225009191 0.00053564147128491572 0.0030377068448298773 -1.0000000180025095e-35 43.02919650254298 99.998879802845295 0.00030690453654617656 -30.302656365439116 0.12954327237886679 0.0014318515378169603 94.000000000000014 29.370860259430867 -99.461814269139168 0.00038385787397447957 0.0046101373929540628 -0.017110341947047188
decision_type=2 10 8 10 2 2 10 2 2 2 8 2 2 2 10 2 2 2 8 10 2 2 2 2 2 10 2 2 2 2
left_child=1 5 9 13 16 8 7 25 -1 17 22 12 -6 -4 15 -7 20 -2 -9 24 -5 -22 23 -10 27 -3 -17 -8 -19 -11
right_child=2 6 3 4 11 14 19 18 10 29 -12 -13 -14 -15 -16 26 -18 28 -20 -21 21 -23 -24 -25 -26 -27 -28 -29 -30 -31
leaf_value=0.0055926962123670531 -0.0038016015623524159 0.022694035147089408 -0.036402138817233608 0.0083152739474995074 -0.021863258648222014 0.025301617063237421 0.0013538850745222588 0.0068626682397776046 0.018896780268310709 0.015641163696534909 0.039127536642963666 -0.012864259437835016 -0.047228818096399124 -0.012386592354517804 0.017813437010185975 -0.013939246493400576 -0.021463518247267444 -0.01063270774525763 0.02040044693467203 0.037046022785299136 -0.021210899061808931 -0.0087388221907271687 0.011533205505796465 0.037272610767382988 -0.0097026522423339576 0.043428830670837214 0.051318910838668852 0.012117444165711901 -0.024757947627211268 0.00068388545282451439
leaf_weight=2394.5715371072292 8564.5975943356752 2098.985022559762 5149.47911927104 835.15476667881012 2792.8993538022041 2007.655489102006 7106.2824996560812 7994.794305190444 3649.9945259392262 1301.4305294603109 2118.2141333371401 2204.3703139424324 1967.3568653911352 1130.1088006198406 1131.4416959285736 58.845912024378777 3631.2807355970144 4581.4780619442463 2803.5293260663748 322.10960972309113 2303.1583431214094 12034.131209909916 2415.1909104734659 1554.0583104789257 1513.5004218071699 853.56706508994102 2831.659175992012 2953.9417997300625 1594.2380211651325 5084.7711335867643
leaf_count=9647 34273 8459 20738 3345 11206 8134 28464 32131 14747 5215 8645 8839 7944 4532 4582 240 14562 18333 11286 1300 9227 48184 9745 6305 6064 3449 11579 11861 6381 20363
internal_value=1.98756e-06 0.0161134 -0.0132715 -0.0189965 -0.015808 0.0256846 0.00933554 0.0143091 0.0206911 -0.0045871 0.0244039 -0.0261802 -0.0323465 -0.0320802 0.0357319 0.039871 -0.0119663 -0.00819133 0.0103774 0.0035864 -0.00969334 -0.0107424 0.0203107 0.0243843 0.00265518 0.0286884 0.0499904 0.00451434 -0.0142791 0.003732
internal_weight=96982.8 43808.3 53174.5 32047.9 25768.4 18161.6 25646.7 13750.9 12132 21126.5 9737.46 6964.63 4760.26 6279.59 6029.6 4898.16 18803.7 14740.3 10798.3 11895.8 15172.4 14337.3 7619.24 5204.05 11573.7 2952.55 2890.51 10060.2 6175.72 6386.2
internal_count=389780 176638 213142 128577 103307 73624 103014 55325 49089 84565 39442 27989 19150 25270 24535 19953 75318 58987 43417 47689 60756 57411 30797 21052 46389 11908 11819 40325 24714 25578
is_linear=0
shrinkage=0.05


Tree=7
num_leaves=31
num_cat=0
split_feature=1 100 37 20 86 47 15 47 109 44 109 109 28 109 10 10 81 63 95 56 44 109 109 20 20 53 109 104 81 44
split_gain=7500.78 1156.99 701.372 426.226 470.331 384.245 306.846 258.581 239.726 241.553 207.689 204.902 201.089 332.3 195.797 181.582 177.496 171.525 160.155 156.261 154.171 140.437 136.485 132.506 129.704 115.959 124.341 108.5 107.096 106.446
threshold=-1.0000000180025095e-35 16.905892664766821 0.0010206719925701122 0.00018186535416296235 66.666666666666842 -0.04214009121864893 0.00068091777214792412 -0.035444468832117 0.00084956382075551228 0.10811571711008709 0.0009366087318029711 0.00061226218102974493 0.025481185229126391 0.00065800624079480807 -0.00094085223728087913 -0.00037184265746465297 98.000000000000014 0.00016628559124052413 -57.524808385552952 -1.0000000180025095e-35 0.066815880843725459 0.001096275454841804 0.00052474878171489346 -9.890766005429679e-05 -9.890766005429679e-05 -0.058858687440275108 0.0014196390578389551 -0.0075926836895170331 94.000000000000014 0.03881315741324419
decision_type=2 10 2 2 2 2 2 2 2 2 2 2 10 2 2 2 2 2 2 2 2 2 2 2 2 2 2 2 2 2
left_child=2 5 3 4 10 8 15 16 17 25 18 -5 13 -7 19 27 21 24 -1 -4 -8 -6 -9 -17 -2 -10 -27 -3 -16 -24
right_child=1 6 14 11 7 12 20 22 9 -11 -12 -13 -14 -15 28 23 -18 -19 -20 -21 -22 -23 29 -25 -26 26 -28 -29 -30 -31
leaf_value=-0.041164877615558662 -0.0026872025225809924 0.0018261100375049943 -0.0080725550292231295 0.0033027261651190146 -0.015030299437685513 0.02455809881276038 0.030569496052427265 -0.018282895582077293 0.016274527677904996 0.014500598921410247 -0.045685443036846608 -0.014495589548314564 0.014647487903064249 0.048834320488690935 -0.0041176059756389705 0.0002060124642070991 -0.008346328917253459 0.05563150987143109 -0.021710963385081869 -0.023817249950449957 0.011897153961581695 -0.031978862046355777 -0.048417343292670077 0.0097564504674948569 0.013680687469294557 0.026858149995972844 0.045129478013485651 -0.014526872628117624 0.0099107514826878452 -0.019429358875050748
leaf_weight=1448.9795561283827 1761.4638220816851 2410.0348983108997 5687.6864634603262 2665.6541665643454 3971.6809700280428 2884.8470692783594 1655.3270977586508 1276.4607684016228 1070.635825663805 4280.4643403589725 2044.9296288639307 4110.8110077381134 1305.9592385292053 2756.6285628527403 10196.742473110557 5398.3837637007236 6905.5530409067869 200.4165104329586 3920.320156738162 2179.8468627184629 3327.9608855098486 1765.5652644634247 1130.4310748279095 11098.608236148953 3868.4078838676214 2111.2452374845743 1665.837786257267 1751.4748727679253 1569.9725332409143 439.93588981032372
leaf_count=5870 7101 9651 22785 10674 15922 11727 6678 5126 4343 17313 8267 16481 5295 11359 40817 21651 27681 823 15747 8744 13387 7096 4575 44564 15658 8570 6809 7011 6287 1768
internal_value=2.25707e-06 0.0141722 -0.01366 -0.0185099 -0.021769 0.0226107 0.00696318 -0.0168119 0.0180977 0.0231564 -0.0321253 -0.00749428 0.0323275 0.0364203 -0.00632867 0.00427682 -0.0137463 0.0101776 -0.0269609 -0.0124349 0.0180997 -0.020246 -0.030426 0.00663122 0.00855953 0.0307994 0.0349165 -0.00505645 -0.00224587 -0.0402964
internal_weight=96862.3 47547.7 49314.6 29680.3 22903.9 21905.9 25641.8 15489.6 14958.5 9128.18 7414.23 6776.47 6947.43 5641.48 19634.2 20658.5 12642.8 5830.29 5369.3 7867.53 4983.29 5737.25 2846.83 16497 5629.87 4847.72 3777.08 4161.51 11766.7 1570.37
internal_count=389780 191940 197840 119207 92052 88998 102942 62168 60617 37035 29884 27155 28381 23086 78633 82877 50699 23582 21617 31529 20065 23018 11469 66215 22759 19722 15379 16662 47104 6343
is_linear=0
shrinkage=0.05


Tree=8
num_leaves=31
num_cat=0
split_feature=23 107 107 82 80 82 59 99 81 107 95 44 101 0 28 15 2 2 83 46 23 107 107 99 11 1 36 87 95 124
split_gain=6919.3 1137.28 943.05 558.022 519.99 358.091 270.305 267.274 242.448 233.293 231.771 196.658 189.273 181.797 144.376 134.307 117.397 114.643 112.746 101.752 97.4495 96.5789 105.801 96.5569 95.6032 94.2117 87.6503 105.58 86.6591 82.4336
threshold=0.00016517850498204035 -69.412280249518759 -31.034482758621092 44.029843049451991 86.000000000000014 34.814701171809908 0.0010077108994932694 32.656358246097177 94.000000000000014 -1.0000000180025095e-35 -16.810492705330862 0.053732066726022307 67.855797510224122 0.00017869365466376277 0.0060335205581338704 -0.00036003532429045195 -0.00010157586518428965 0.0001335441290581494 0.278229825048387 -0.017645138921291843 0.00086826617889610065 -1.0000000180025095e-35 -40.186915887852102 44.595144237644938 0.00089780411575616354 -0.00043724300080117084 -0.0006430515322054601 10.14608301511271 -29.206950654102119 1.0000000180025095e-35
decision_type=2 10 8 10 2 10 2 10 2 10 2 2 10 2 10 2 10 10 10 2 2 10 10 10 2 2 2 2 2 2
left_child=2 3 8 6 5 12 11 10 13 17 20 19 23 -1 26 -3 -6 -7 -12 -2 -5 22 -17 -4 -9 -16 27 -11 -14 -22
right_child=1 15 4 7 16 9 -8 24 -10 14 18 -13 28 -15 25 21 -18 -19 -20 -21 29 -23 -24 -25 -26 -27 -28 -29 -30 -31
leaf_value=-0.0089175540110143937 0.017844234539379621 -0.0019998463019871172 -0.035078544652548338 0.022974164869711822 -0.040254396517820118 -0.036218091503168036 0.037279393631043975 0.024393033164853056 0.013156269781023446 -0.036888544732366788 -0.017503585973305875 0.0096735663903088683 -0.016291580769342295 0.0022318632635600251 -0.0099421904274559301 0.010022549480102614 -0.02059604250518117 -0.013916047940850225 0.020107359255008617 0.035162550364118333 0.019795275923242251 0.034807528806431891 -0.00087964054778472828 -0.016421159262512648 0.050963924138035605 0.020340604498866738 -0.0040890694188152592 0.0017862600689045592 -0.0069064194214356438 0.044119606921538067
leaf_weight=10638.342380046844 3663.177145242691 5668.9956296235323 765.54266013205051 1165.2790080010891 2682.5329070985317 3439.3236292600632 1280.6826558411121 422.65422931313515 2052.0171650052071 1034.5172391533852 208.46426755189896 10871.123728021979 3065.0559102743864 5570.6255319863558 878.7816444337368 7270.3701966106892 1059.3807763159275 692.20588028430939 4511.654629945755 1103.6888100206852 412.6458123922348 314.46551574766636 3206.9766465425491 7364.8387808799744 1700.8908912688494 362.89421014487743 428.91796772181988 212.75957232713699 12452.335190519691 2233.9246112704277
leaf_count=42580 14862 22717 3099 4737 10864 13890 5245 1724 8226 4192 851 43842 12308 22334 3535 29201 4278 2781 18401 4511 1679 1271 12844 29584 7061 1458 1726 858 49909 9212
internal_value=2.46484e-06 0.0146315 -0.0122212 0.0208399 -0.0170917 -0.0149466 0.0151951 0.0298026 -0.00303588 -0.0248375 0.025852 0.0133865 -0.0119981 -0.00508577 -0.0140141 0.00423158 -0.0346889 -0.0324816 0.0184463 0.021854 0.0350223 0.00750499 0.00668553 -0.0181779 0.0456755 -0.00109169 -0.0235866 -0.0302914 -0.00876021 0.040327
internal_weight=96735.1 44035 52700.1 27574.2 34439.1 30697.2 16918.7 10655.5 18261 7049.4 8531.97 15638 23647.8 16209 2917.87 16460.8 3741.91 4131.53 4720.12 4766.87 3811.85 10791.8 10477.3 8130.38 2123.55 1241.68 1676.19 1247.28 15517.4 2646.57
internal_count=389780 178158 211622 112125 138482 123340 68460 43665 73140 28440 34880 63215 94900 64914 11769 66033 15142 16671 19252 19373 15628 43316 42045 32683 8785 4993 6776 5050 62217 10891
is_linear=0
shrinkage=0.05


Tree=9
num_leaves=31
num_cat=0
split_feature=23 100 37 82 80 47 109 76 99 17 43 17 95 109 83 47 20 61 87 20 84 14 109 81 49 106 81 9 27 81
split_gain=6261.6 1157.18 785.862 486.055 415.721 318.262 335.676 273.832 251.915 245.293 204.575 193.319 186.619 179.615 164.247 151.928 149.272 135.112 131.143 133.634 113.971 113.719 110.544 109.03 107.055 101.966 96.9782 96.6518 92.9063 91.6731
threshold=-1.7522725821418413e-05 30.58771975048122 0.0011087443534229917 44.029843049451991 86.000000000000014 -0.045329468966041592 0.0007445026239608413 1.5085126641880306 32.656358246097177 8.5814391690388717e-05 0.030531657151309382 -0.00012711627547791474 -16.810492705330862 0.0016574175081058341 34.939610148624205 -0.17942269158406252 0.00092298210849364119 0.0484718001034996 9.7408276898702315 -0.00089645871559621752 0.91396323827359927 0.00084536305091632358 0.0004866392665965888 90.000000000000014 0.018883541571894955 99.994818384372266 98.000000000000014 -0.0005526370429639265 0.0024972020465256336 94.000000000000014
decision_type=2 10 2 10 2 2 2 2 10 2 2 2 2 2 10 2 2 2 2 2 8 2 2 2 2 2 2 2 10 2
left_child=2 3 4 7 5 13 27 14 12 17 -8 -3 16 18 -2 -15 -5 -4 19 -1 -9 -10 -14 -13 -24 28 -17 -7 -6 -11
right_child=1 11 9 8 25 6 10 20 21 29 -12 23 22 15 -16 26 -18 -19 -20 -21 -22 -23 24 -25 -26 -27 -28 -29 -30 -31
leaf_value=-0.015398304424497798 0.0091405042347407622 -0.0028957870171487051 -0.0068301669774672481 0.018657688711000452 -0.041880701618431451 -0.020540601726914062 -0.046043887363586639 0.04115824474220104 0.020555981807561626 0.0011018312416839224 -0.01810039415530762 0.0060554149526216537 0.0010465457172834029 -0.0066451154379064421 0.027450857214872851 -0.040693725528041583 0.038956437611071482 -0.022645338440140841 0.00087635693803348445 -0.0043690893716984511 0.021074132123372773 0.048746010146042518 0.028906393693866373 0.024873495929180776 0.012332198153584351 0.014131594892984659 -0.019648707471377418 -0.0058536445100496031 -0.023087282485458552 0.019925477773382844
leaf_weight=8133.8098187893629 12625.222898468375 7509.4446497261524 11256.316310435534 1400.111999720335 2189.2637139707804 3781.1955574899912 2037.6627507954836 944.73058713972569 452.56477048993111 5726.3560431748629 965.25492073595524 10785.984780579805 874.65053591132164 1018.7467631399632 1356.3169374167919 1079.0380329340696 2564.7362161874771 1534.5877905339003 2506.178599357605 4146.5382723212242 2799.571034476161 1707.6443253010511 1971.449785515666 828.87778174877167 1926.167606279254 103.81872342526913 1111.0849588662386 1591.7219172120094 939.96821618080139 729.16823154687881
leaf_count=32672 51031 30073 45107 5731 8914 15221 8327 3893 1853 22946 3886 43309 3557 4092 5512 4356 10599 6168 10045 16632 11388 7154 8104 3345 7848 418 4468 6393 3808 2930
internal_value=2.70963e-06 0.0128789 -0.0125827 0.0192415 -0.0176961 -0.0156215 -0.0236727 0.0141328 0.0275514 -0.00471751 -0.0370618 0.0033562 0.0237713 -0.0118741 0.0109167 -0.0225971 0.0317883 -0.00872759 -0.00954701 -0.0116742 0.0261416 0.0428402 0.0171107 0.00739834 0.0207156 -0.0346181 -0.0300172 -0.0161896 -0.0362355 0.00322801
internal_weight=96598.2 47747.5 48850.7 28623.2 29604.3 26371.2 8375.84 17725.8 10897.3 19246.4 3002.92 19124.3 8737.12 17995.4 13981.5 3208.87 3964.85 12790.9 14786.5 12280.3 3744.3 2160.21 4772.27 11614.9 3897.62 3233.05 2190.12 5372.92 3129.23 6455.52
internal_count=389780 193397 196383 116670 119232 106092 33827 71824 44846 77151 12213 76727 35839 72265 56543 12916 16330 51275 59349 49304 15281 9007 19509 46654 15952 13140 8824 21614 12722 25876
is_linear=0
shrinkage=0.05


Tree=10
num_leaves=31
num_cat=0
split_feature=23 35 100 80 47 109 44 109 10 46 43 81 10 90 81 20 73 43 109 95 52 20 124 101 82 80 82 106 20 109
split_gain=5680.37 1016.27 787.386 461.998 382.037 371.801 477.941 267.401 248.635 243.732 219.106 218.879 163.998 152.523 146.437 146.262 134.978 134.302 134.502 129.199 126.952 125.793 116.446 108.247 108.025 107.083 97.8163 95.9837 92.405 91.4477
threshold=0.00016517850498204035 -0.0011144256755225019 65.845242302654682 86.000000000000014 -0.061214902741925224 0.00082108725322901151 0.059821881283829967 0.0010574876167763706 0.00047774219549444845 -0.026055102006987747 0.043091211789108894 94.000000000000014 0.00069242221945527941 95.268086857074437 90.000000000000014 0.00018186535416296235 3.3335260033262961 0.084363860050969061 0.0014196390578389551 -31.098634041755059 -0.052002408857392102 0.0017138855381785265 1.0000000180025095e-35 83.745643060857915 54.624916459438758 98.000000000000014 35.353916170826004 99.994818384372266 0.0032442135384931014 0.0009366087318029711
decision_type=2 2 8 2 2 2 2 2 2 2 2 2 2 2 2 2 10 2 2 2 2 2 2 8 8 2 10 2 2 2
left_child=2 8 11 4 19 9 20 15 25 13 16 12 -1 -3 22 26 -9 18 -8 -4 -7 27 -10 -21 -11 28 -6 29 -2 -5
right_child=1 5 3 21 7 6 17 10 14 24 -12 -13 -14 -15 -16 -17 -18 -19 -20 23 -22 -23 -24 -25 -26 -27 -28 -29 -30 -31
leaf_value=-0.006938336659098307 -0.003215363266514502 0.0066928842299712639 -0.017227608867325477 -0.030495043034215491 -0.015387743337646765 0.012930155618478044 0.017377883350795525 -0.044171697717020189 0.0063350076692392579 0.0182007335296046 -0.014061329193448905 0.014777156493149063 0.0054548223299613965 0.028881694387590778 0.036321812818107584 -0.0045148550219572319 -0.00067374479133976487 0.010909311770230436 0.036016855971491187 -0.010463789364690989 0.044034686563723197 -0.005796110746210832 0.019772231937218162 -0.0020741011763657016 0.034185475877368844 -0.02079174351315172 -0.028439329939022595 0.014082957028957259 0.0059373568723162969 -0.048245103757494752
leaf_weight=11270.567915245891 5408.2124021798372 6933.8023265451193 3698.7754025608301 2258.3163782060146 5089.3745419830084 361.2897060662508 2313.2675009220839 2143.0879000425339 6244.907776221633 3169.8003189712763 1171.8915413469076 1733.5886897593737 3497.8688973635435 871.85601511597633 554.94057177007198 2281.781800583005 194.53535494208336 2818.1436344832182 1664.207209482789 8896.5351246744394 3564.8809288144112 420.80566109716892 2173.4250150173903 6770.7906763702631 1585.6858187764883 568.9799727499485 1999.6022443920374 97.699447855353355 5626.6078089028597 1069.162216514349
leaf_count=45135 21684 28071 14884 9221 20514 1482 9423 8787 25249 12898 4714 6959 14030 3611 2280 9158 788 11466 6870 35727 14897 1694 8814 27131 6572 2281 8122 393 22560 4365
internal_value=2.84347e-06 0.01329 -0.0110777 -0.0152144 -0.0132608 0.0204451 0.027284 -0.0199341 0.00519409 0.0146076 -0.0317062 -0.00203013 -0.00400305 0.00917127 0.0114441 -0.0155252 -0.0405518 0.0192599 0.0251766 -0.00882242 0.0411724 -0.0315946 0.0098042 -0.0068381 0.0235307 0.000360893 -0.0190692 -0.0347641 0.00145157 -0.0361984
internal_weight=96454.4 43860 52594.4 36092.4 32246.4 23282.9 10721.8 12880.3 20577.1 12561.1 3509.51 16502 14768.4 7805.66 8973.27 9370.76 2337.62 6795.62 3977.47 19366.1 3926.17 3845.98 8418.33 15667.3 4755.49 11603.8 7088.98 3425.18 11034.8 3327.48
internal_count=389780 178158 211622 145498 129825 95290 44138 52083 82868 51152 14289 66124 59165 31682 36343 37794 9575 27759 16293 77742 16379 15673 34063 62858 19470 46525 28636 13979 44244 13586
is_linear=0
shrinkage=0.05


Tree=11
num_leaves=31
num_cat=0
split_feature=23 35 37 109 51 124 10 99 81 95 10 109 54 81 56 52 80 82 124 1 44 99 27 80 81 103 7 44 23 54
split_gain=5143.44 966.018 665.456 422.78 408.412 358.078 306.01 222.328 219.223 245.491 218.045 201.911 176.209 167.706 161.752 146.235 141.732 122.591 116.533 112.79 112.715 109.597 109.553 105.191 99.535 99.4184 92.1312 124.002 90.4344 98.7125
threshold=-1.7522725821418413e-05 -0.00098503419782382576 0.0011087443534229917 0.00082108725322901151 0.055164679939735707 1.0000000180025095e-35 0.00040281765998213354 63.841916558214528 90.000000000000014 -37.526664577530866 -0.00020019331863369621 0.0010343435191795102 -0.02798978241820093 90.000000000000014 -1.0000000180025095e-35 -0.027115017912939871 94.000000000000014 0.30780753178518877 1.0000000180025095e-35 -0.00043724300080117084 0.032445902243080825 99.630790514943172 0.0030203630906892689 98.000000000000014 94.000000000000014 -0.0049032842404117954 0.00043907484864075247 0.02134206430124112 -0.00071842462450369632 -0.046535425632456072
decision_type=2 2 2 2 2 2 2 8 2 2 2 2 2 2 2 2 2 8 2 2 2 10 10 2 2 2 2 2 2 2
left_child=2 6 5 7 15 16 23 12 11 22 14 20 25 18 -4 -5 21 -11 -8 -19 -7 28 -10 -2 -12 -3 -14 -28 29 -1
right_child=1 3 10 4 -6 8 13 -9 9 17 24 -13 26 -15 -16 -17 -18 19 -20 -21 -22 -23 -24 -25 -26 -27 27 -29 -30 -31
leaf_value=-0.0096861581492069665 0.00067431558745221012 0.014463590156872378 -0.0046840659544010689 0.023427221154167097 0.015604140991881441 -0.033363231872571064 0.0061435513858450787 0.027213976969812172 -0.03476929145624974 0.022848568891673558 -0.00032187000345599567 -0.041991819773480488 0.005556291613785385 0.034575257695972299 -0.017986600482821108 0.041150289154781472 -0.038349226500130673 -0.015850945541273413 0.018392539484796723 0.0026682890042337031 -0.01606154371018469 0.0039710587509400076 -0.011968937642965971 -0.020376063160782772 0.016712475821750904 0.00070006542099553871 0.041512782142030497 0.017146952854175754 -0.004205695683661405 -0.019523165449724177
leaf_weight=6318.5196639895439 12887.417985841632 1852.8748168349266 6765.6141249984503 1665.7010134607553 4565.2074692994356 1517.176077708602 7405.1237273514271 2299.4371982365847 1976.0046698600054 268.26922428607941 8056.1143641322851 2029.9379173517227 1179.7949542105198 705.51267470419407 3450.6970666497946 3863.4119372665882 457.98766447603703 3824.1247558444738 2631.834854632616 1047.3523393273354 2480.1581765413284 1265.2943211942911 718.37565898895264 622.11961242556572 959.72137659788132 4494.9995508044958 644.67608568072319 2747.7032045125961 3325.8065177351236 4276.2361176759005
leaf_count=25370 51671 7515 27141 6866 18667 6153 29951 9502 8108 1079 32276 8317 4765 2908 13875 16257 1871 15467 10692 4236 9997 5086 2919 2493 3859 18182 2665 11263 13362 17267
internal_value=2.99863e-06 0.0116996 -0.0114124 0.0189671 0.0266724 -0.0161294 0.0047133 0.0130834 -0.0219811 -0.0164657 -0.00417585 -0.0291498 0.0101079 0.0110117 -0.00917718 0.035811 -0.0109445 -0.0100573 0.00935541 -0.0118694 -0.0226283 -0.010118 -0.0286903 -0.000295063 0.00149141 0.00471749 0.0175917 0.0217774 -0.0113986 -0.0136566
internal_weight=96303.2 47565.8 48737.4 23313.8 10094.3 29505.2 24252 13219.5 13861.4 7834.13 19232.1 6027.27 10920 10742.5 10216.3 5529.11 15643.8 5139.75 10037 4871.48 3997.33 15185.9 2694.38 13509.5 9015.84 6347.87 4572.17 3392.38 13920.6 10594.8
internal_count=389780 193397 196383 95682 41790 119232 97715 53892 56276 31809 77151 24467 44390 43551 41016 23123 62956 20782 40643 19703 16150 61085 11027 54164 36135 25697 18693 13928 55999 42637
is_linear=0
shrinkage=0.05


end of trees

feature_importances:
Column_109=29
Column_100=24
Column_23=18
Column_44=18
Column_20=17
Column_81=16
Column_47=15
Column_82=15
Column_10=14
Column_99=13
Column_107=10
Column_80=9
Column_95=9
Column_15=8
Column_124=8
Column_76=7
Column_98=7
Column_56=6
Column_59=6
Column_61=6
Column_17=5
Column_83=5
Column_101=5
Column_102=5
Column_0=4
Column_28=4
Column_43=4
Column_87=4
Column_1=3
Column_37=3
Column_46=3
Column_49=3
Column_50=3
Column_52=3
Column_88=3
Column_2=2
Column_13=2
Column_27=2
Column_35=2
Column_45=2
Column_54=2
Column_58=2
Column_63=2
Column_72=2
Column_84=2
Column_86=2
Column_92=2
Column_106=2
Column_111=2
Column_119=2
Column_4=1
Column_7=1
Column_8=1
Column_9=1
Column_11=1
Column_14=1
Column_32=1
Column_36=1
Column_51=1
Column_53=1
Column_62=1
Column_73=1
Column_74=1
Column_85=1
Column_90=1
Column_103=1
Column_104=1
Column_105=1

parameters:
[boosting: gbdt]
[objective: binary]
[metric: binary_logloss]
[tree_learner: serial]
[device_type: cpu]
[data_sample_strategy: bagging]
[data: ]
[valid: ]
[num_iterations: 500]
[learning_rate: 0.05]
[num_leaves: 31]
[num_threads: 4]
[seed: 42]
[deterministic: 0]
[force_col_wise: 0]
[force_row_wise: 0]
[histogram_pool_size: -1]
[max_depth: -1]
[min_data_in_leaf: 20]
[min_sum_hessian_in_leaf: 0.001]
[bagging_fraction: 0.8]
[pos_bagging_fraction: 1]
[neg_bagging_fraction: 1]
[bagging_freq: 0]
[bagging_seed: 400]
[bagging_by_query: 0]
[feature_fraction: 0.8]
[feature_fraction_bynode: 1]
[feature_fraction_seed: 30056]
[extra_trees: 0]
[extra_seed: 12879]
[early_stopping_round: 0]
[early_stopping_min_delta: 0]
[first_metric_only: 0]
[max_delta_step: 0]
[lambda_l1: 0]
[lambda_l2: 0]
[linear_lambda: 0]
[min_gain_to_split: 0]
[drop_rate: 0.1]
[max_drop: 50]
[skip_drop: 0.5]
[xgboost_dart_mode: 0]
[uniform_drop: 0]
[drop_seed: 17869]
[top_rate: 0.2]
[other_rate: 0.1]
[min_data_per_group: 100]
[max_cat_threshold: 32]
[cat_l2: 10]
[cat_smooth: 10]
[max_cat_to_onehot: 4]
[top_k: 20]
[monotone_constraints: ]
[monotone_constraints_method: basic]
[monotone_penalty: 0]
[feature_contri: ]
[forcedsplits_filename: ]
[refit_decay_rate: 0.9]
[cegb_tradeoff: 1]
[cegb_penalty_split: 0]
[cegb_penalty_feature_lazy: ]
[cegb_penalty_feature_coupled: ]
[path_smooth: 0]
[interaction_constraints: ]
[verbosity: -1]
[saved_feature_importance_type: 0]
[use_quantized_grad: 0]
[num_grad_quant_bins: 4]
[quant_train_renew_leaf: 0]
[stochastic_rounding: 1]
[linear_tree: 0]
[max_bin: 255]
[max_bin_by_feature: ]
[min_data_in_bin: 3]
[bin_construct_sample_cnt: 200000]
[data_random_seed: 175]
[is_enable_sparse: 1]
[enable_bundle: 1]
[use_missing: 1]
[zero_as_missing: 0]
[feature_pre_filter: 1]
[pre_partition: 0]
[two_round: 0]
[header: 0]
[label_column: ]
[weight_column: ]
[group_column: ]
[ignore_column: ]
[categorical_feature: ]
[forcedbins_filename: ]
[precise_float_parser: 0]
[parser_config_file: ]
[objective_seed: 16083]
[num_class: 1]
[is_unbalance: 0]
[scale_pos_weight: 1]
[sigmoid: 1]
[boost_from_average: 1]
[reg_sqrt: 0]
[alpha: 0.9]
[fair_c: 1]
[poisson_max_delta_step: 0.7]
[tweedie_variance_power: 1.5]
[lambdarank_truncation_level: 30]
[lambdarank_norm: 1]
[label_gain: ]
[lambdarank_position_bias_regularization: 0]
[eval_at: ]
[multi_error_top_k: 1]
[auc_mu_weights: ]
[num_machines: 1]
[local_listen_port: 12400]
[time_out: 120]
[machine_list_filename: ]
[machines: ]
[gpu_platform_id: -1]
[gpu_device_id: -1]
[gpu_use_dp: 0]
[num_gpu: 1]

end of parameters

pandas_categorical:null
