tree
version=v4
num_class=1
num_tree_per_iteration=1
label_index=0
max_feature_idx=128
objective=binary sigmoid:1
feature_names=Column_0 Column_1 Column_2 Column_3 Column_4 Column_5 Column_6 Column_7 Column_8 Column_9 Column_10 Column_11 Column_12 Column_13 Column_14 Column_15 Column_16 Column_17 Column_18 Column_19 Column_20 Column_21 Column_22 Column_23 Column_24 Column_25 Column_26 Column_27 Column_28 Column_29 Column_30 Column_31 Column_32 Column_33 Column_34 Column_35 Column_36 Column_37 Column_38 Column_39 Column_40 Column_41 Column_42 Column_43 Column_44 Column_45 Column_46 Column_47 Column_48 Column_49 Column_50 Column_51 Column_52 Column_53 Column_54 Column_55 Column_56 Column_57 Column_58 Column_59 Column_60 Column_61 Column_62 Column_63 Column_64 Column_65 Column_66 Column_67 Column_68 Column_69 Column_70 Column_71 Column_72 Column_73 Column_74 Column_75 Column_76 Column_77 Column_78 Column_79 Column_80 Column_81 Column_82 Column_83 Column_84 Column_85 Column_86 Column_87 Column_88 Column_89 Column_90 Column_91 Column_92 Column_93 Column_94 Column_95 Column_96 Column_97 Column_98 Column_99 Column_100 Column_101 Column_102 Column_103 Column_104 Column_105 Column_106 Column_107 Column_108 Column_109 Column_110 Column_111 Column_112 Column_113 Column_114 Column_115 Column_116 Column_117 Column_118 Column_119 Column_120 Column_121 Column_122 Column_123 Column_124 Column_125 Column_126 Column_127 Column_128
feature_infos=[-0.013158844193239261:0.014750185372480431] [-0.016550530619446113:0.023567811901589776] [-0.025753552162020264:0.037363480135272964] [-0.037482912639877922:0.054784924018328351] [-0.017762044984650085:0.066817469984339656] [-0.047365453292400224:0.023651544950903106] none [-0.017143349414197106:0.021306568057756648] [-0.03406741432241088:0.040514473305856419] [-0.038836852327548396:0.04345586120962331] [-0.010470835160704217:0.015828510881082402] [-0.015437808821477378:0.016298052763111359] [-0.01363734369307228:0.01618196173993415] [-0.016411462668360053:0.023043390808087542] [-0.020106211351342471:0.029732958912286455] [-0.010386757898727611:0.020336635545102465] [-0.01230040522766118:0.024276912910660527] [-0.009819592906937482:0.017850104223638356] [-0.015874665703893211:0.018388322055700977] [-0.018231603684508726:0.03161878817896651] [-0.042395291648392924:0.042238330298092645] [-0.026495207067226328:0.034979995019506875] [-0.011830083653673478:0.012543747481554374] [-0.019277949786192176:0.02574232561275823] [-0.10477950535935075:0.029063763750374502] [-0.1348548945062697:0.010869024044695943] [-0.074704116212431684:0.051203965251328379] [-0.044628727065512609:0.073344166752282253] [-0.014553337918593652:0.095484368253236127] [-0.016370465179714157:0.021778894156308681] [-0.030107159179323537:0.007015500895255382] [-0.018231603684508726:0.03161878817896651] [-0.0075556015354618297:0.070366423137599027] [-0.015559932876553563:0.032426473290131964] [-0.018915789806053681:0.01801630706471986] [-0.040884860538284724:0] [-0.013540818244470898:0.021306568057756648] [0:0.059184859301070807] [-0.022559999920463716:0.011481129775472139] [-0.016411462668360053:0.023043390808087542] [-0.011952036804132392:0.042915449696794852] [-0.1223816385773657:0.083836537645852069] [-0.082398763653071097:0.12887428760922029] [-0.060183154773092787:0.17980396239656349] [-0.033769481026865097:0.22484171235993172] [-0.14459724745734401:0.032906862858508863] [-0.18458012238163862:0.02732430529672417] [-0.21700086498387985:0.022992504244833605] [-0.1223816385773657:0.083836537645852069] [-0.098621817764133465:0.12049609390062384] [-0.083942975586325019:0.14314440614179175] [-0.060183154773092787:0.17980396239656349] [-0.14614145939059794:0.047176981391080307] [-0.16082030156840638:0.030504079181678852] [-0.18458012238163862:0.02732430529672417] [-0.015192247593351723:0.031282465106211486] [-0.029416786396889161:0.03445912977623429] [-0.032338683294351966:0.017277575678023831] [-0.025506490663091522:0.0087413159855683192] [-0.016519165495353334:0.017843316773110945] [-0.55758050704218498:0.19500766525327004] [-0.010755707976129849:0.015232658667192034] [-0.0075157400129654845:0.0095526403001943514] [-0.005273615123463575:0.002526603674130649] [-0.010874292253202363:0.0064295970410194764] [-0.0095402167826516646:0.0056717885459909518] [-0.0032439985994703702:0.0014533158065133636] [-0.0293311909307593:0.017297991307603421] [-14.290048504853292:10.418679576482607] [-12.165063565043484:11.953752803295076] [-4.3029628939062947:5.8620656719269473] [-8.3774717854359668:7.4966733680225612] [-1.7131896981855661:30.245451176361676] [-1.8703286516530198:15.458402725212528] [2.734581674658346e-06:0.01002623824116047] [0.00018089024682665551:0.0018197701724744209] [0.008557648354498083:13.229147131806897] none none [7.2453013016677072:81.042830835111531] [4:100] [4:100] [0.51573619062399889:85.417571672594846] [3.9400845427273103:87.261555698633387] [0:1.7205882352941178] [0.20588235294117646:2.3500000000000001] [-422.0229055028442:531.65044272121406] [-66.492546120129191:57.546398256922657] [-100:100] [-40.014433330973972:21.733751586245653] [0:100] [-0.51464599362245766:0.25206774215640737] [-1.0717132907235511:0.65032960418764252] [-0.94110177969002851:0.57555222849956744] [-29.799760881051128:125.69008531101858] [-99.775792446467364:104.08435083666323] [-99.640072951595783:59.174372187237609] [-4.0155933062880322:1.9989299090422685] [6.5795424000526879:92.586826467685086] [0:100] [0:100] [0:100] [0:100] [-0.14063290266625633:0.083769594430011279] [-0.12019083414940619:0.078368996255283527] [-78.561935116541619:85.874353465602809] [0:96.01010985252563] [-100:0] [-4.8709828866642653:8.0735381537245043] [0:0.0085826022951334211] [-3.9932014584318591:4.0365752989549648] [0:0.07773763645618148] [-0.52423456296655835:1.5353597183223704] [2.2146019250873623:34.164539780812781] [-0.98918973917173514:0.99198759147508531] [0:1] [0:1] [0:1] [0:1] [0:1] [0:1] [0:1] [0:1] [0:1] [0:1] [0:1] [0:1] [0:1] [0:1]
tree_sizes=3472 3491

Tree=0
num_leaves=31
num_cat=0
split_feature=109 95 109 25 109 74 53 2 98 109 85 47 82 82 49 109 83 35 111 68 109 90 108 113 75 68 116 73 104 4
split_gain=333.569 134.88 97.8497 117.869 72.0313 113.505 76.0106 64.6767 66.0763 63.7744 54.0041 53.2109 47.6276 45.5419 52.8671 47.8488 44.362 43.2137 42.7644 40.8306 40.5157 37.814 37.5012 37.1091 36.811 36.7694 36.6649 42.1957 40.7684 37.1143
threshold=0.00042416493288001986 10.170886987428828 0.00019938138265397038 -0.0078712088082313874 0.00054231314756654665 0.00048924654100331174 -0.074850899062328169 -0.0036475207975117771 30.876858523195768 0.00032198111294280072 0.69199589322381938 -0.093163428930664746 33.168551907812116 19.16760534259986 0.01989727413232557 0.001021303890884287 20.9605021339713 -0.0066046875598193399 0.0028536640341180622 -1.8778635214536787 0.0012964723316592926 34.12329269328665 2.9390268549310292 26.524140744932929 0.00062215342854522336 -0.78917801376324237 1.0000000180025095e-35 -1.0206980753051982 -0.00039063058103630126 0.00062849470609961081
decision_type=2 2 2 2 2 2 2 2 2 2 10 2 2 2 2 2 2 2 2 2 2 2 2 2 2 2 2 2 2 2
left_child=2 4 -1 9 5 -2 20 21 -9 19 -5 18 -11 -8 23 16 -16 -10 -12 -4 -6 -3 -22 -15 -14 -17 27 -13 -28 -29
right_child=1 7 3 10 6 -7 13 8 17 12 11 26 24 14 15 25 -18 -19 -20 -21 22 -23 -24 -25 -26 -27 28 29 -30 -31
leaf_value=-0.6845007913197565 -0.74559347307160095 -0.81555668579355289 -0.74587080278262352 -0.69843637707755402 -0.70301259619243373 -0.71104578243644789 -0.72555328426744881 -0.6852194612122593 -0.7854186106561768 -0.69882939058605675 -0.7606054316591373 -0.68720578908321261 -0.74008401992693063 -0.74996590436429988 -0.69987837035152922 -0.7403188229049964 -0.73603600358214982 -0.72252541684992422 -0.66381343526190395 -0.6807027634828835 -0.76880442764601853 -0.68466562675642528 -0.68645511602523879 -0.77777913635190299 -0.69335251617859006 -0.78921928418163423 -0.72517571323186414 -0.74379169599740491 -0.69900317263433176 -0.72054855193221101
leaf_weight=407.63211017847061 366.28253008425236 5.6732061505317679 25.381655037403107 280.18979676067829 199.54228334128857 677.50866028666496 310.65560053288937 121.94614061713219 28.393032059073448 446.76148371398449 126.1421844214201 62.522763013839722 156.56245914101601 727.40442632138729 112.16342996060848 102.36072246730328 348.10626272857189 717.36413091421127 12.54655711352825 453.2607711404562 52.194490849971771 201.53902246057987 18.806335017085075 143.60286138951778 57.660160109400749 61.560658633708954 259.61775858700275 290.50710970163345 348.54178586602211 420.12669782340527
leaf_count=1227 1341 25 93 885 640 2231 1071 368 116 1413 482 190 564 2697 356 369 1239 2450 35 1346 204 607 57 575 179 254 894 1058 1103 1426
internal_value=-0.719229 -0.728622 -0.707458 -0.710641 -0.733884 -0.723169 -0.73927 -0.713347 -0.71934 -0.698058 -0.718607 -0.722325 -0.708123 -0.742973 -0.746592 -0.735486 -0.727225 -0.72492 -0.751849 -0.684159 -0.714555 -0.688249 -0.746992 -0.754551 -0.727506 -0.758683 -0.719361 -0.726586 -0.710176 -0.73005
internal_weight=7542.56 4195.1 3347.45 2939.82 3120.19 1043.79 2076.4 1074.92 867.703 1139.63 1800.19 1520 660.984 1805.85 1495.2 624.191 460.27 745.757 138.689 478.642 270.543 207.212 71.0008 871.007 214.223 163.921 1381.32 773.157 608.16 710.634
internal_count=25495 14600 10895 9668 11034 3572 7462 3566 2934 3595 6073 5188 2156 6561 5490 2218 1595 2566 517 1439 901 632 261 3272 743 623 4671 2674 1997 2484
is_linear=0
shrinkage=1


Tree=1
num_leaves=31
num_cat=0
split_feature=109 82 98 109 25 53 109 49 4 70 109 45 117 4 69 81 45 30 94 29 109 109 79 60 89 76 28 75 26 90
split_gain=287.471 117.451 111.32 82.8181 100.601 76.4463 69.965 73.4185 61.1776 56.8903 54.348 61.1179 48.4101 61.5351 66.6582 42.9304 42.6447 41.7404 41.4831 41.3027 40.4531 38.802 44.8526 36.7227 35.4731 34.8061 34.2895 54.8786 47.796 43.0765
threshold=0.00042416493288001986 12.247466742543711 30.876858523195768 0.00019938138265397038 -0.0078712088082313874 -0.074850899062328169 0.00076260757486628077 0.02531974085785417 0.0025096938872273757 1.5773150592117335 0.00033643924707582921 -0.038821875965871257 1.0000000180025095e-35 0.0032800478510086211 -1.7064170955855789 34.000000000000007 -0.036674840897917386 -0.0066772718747476001 15.505963262794126 -0.00045888404623921814 0.0021851078168589203 0.00056389542409241474 17.97402333151771 -0.00043666470264155591 -1.8541895174460015 1.0883974002140577 0.0060324302891899108 0.00071526438376946593 0.010722916181227516 5.7927569430817352
decision_type=2 2 2 2 2 2 2 2 2 2 2 2 2 2 2 2 2 2 2 2 2 2 2 2 2 2 2 2 2 2
left_child=3 -2 -3 -1 10 8 7 16 -4 25 -5 -12 23 -14 -15 -13 17 -7 20 -10 26 22 -18 -6 -11 -9 27 -8 29 -28
right_child=1 2 5 4 12 6 18 9 19 24 11 15 13 14 -16 -17 21 -19 -20 -21 -22 -23 -24 -25 -26 -27 28 -29 -30 -31
leaf_value=0.070780376091713268 0.067058379677554347 0.066570553770948671 0.068588789200897546 0.069259774759271017 0.081361446708274443 0.14661520270397585 0.010752180644414629 0.045666886767479542 -0.014099855046588471 0.09970461168591381 0.088899584914150509 0.019104074408761218 0.0233305161916397 -0.0052443542275341917 0.10714876786433919 0.050920887005181339 0.041091504598684783 0.036150889192369307 0.041380325246654054 0.041448639236440168 -0.055234058957912238 0.010793063809823963 0.019233324930630048 0.043497644228671958 0.0020302411490996765 0.07935350441087638 0.055855174253538566 0.063358414639027263 0.028198661314950316 -0.0081859801118049965
leaf_weight=418.58778065443039 208.38555116951466 183.88018445670605 186.0948353856802 585.58712215721607 67.903165966272354 8.7150352597236616 156.85153874754906 239.27254319190979 44.502116054296494 10.448432624340056 77.779562056064606 152.21970167756081 570.45992617309093 18.506393909454346 45.940088972449303 349.32684156298637 361.14601910114288 456.31889227032661 112.97013220191002 134.91104781627655 23.736895635724068 588.05314987897873 670.27522651851177 1124.513853803277 84.250124216079712 112.84216010570526 28.08743605017662 72.486202612519264 157.09582875669003 403.1457494199276
leaf_count=1227 627 552 558 1730 194 19 576 783 174 28 215 539 2002 70 119 1111 1200 1544 375 446 105 2160 2384 3688 315 328 90 225 546 1565
internal_value=0.0391415 0.0304542 0.0285638 0.0499495 0.0470354 0.0267492 0.024468 0.0288176 0.0485035 0.04721 0.0585179 0.0476599 0.0397154 0.0285625 0.0748741 0.0412645 0.0248752 0.0382211 0.0129313 0.0276702 0.00911168 0.021043 0.0268868 0.0456538 0.012807 0.0564624 0.0109796 0.0273793 0.00458685 -0.0040148
internal_weight=7654.29 4243.47 4035.08 3410.82 2992.24 3851.2 3485.7 2531.32 365.508 446.813 1164.91 579.326 1827.32 634.906 64.4465 501.547 2084.51 465.034 954.374 179.413 841.404 1619.47 1031.42 1192.42 94.6986 352.115 817.667 229.338 588.329 431.233
internal_count=25495 14600 13973 10895 9668 13421 12243 8761 1178 1454 3595 1865 6073 2191 189 1650 7307 1563 3482 620 3107 5744 3584 3882 343 1111 3002 801 2201 1655
is_linear=0
shrinkage=0.05


end of trees

feature_importances:
Column_109=12
Column_4=3
Column_82=3
Column_25=2
Column_45=2
Column_49=2
Column_53=2
Column_68=2
Column_75=2
Column_90=2
Column_98=2
Column_2=1
Column_26=1
Column_28=1
Column_29=1
Column_30=1
Column_35=1
Column_47=1
Column_60=1
Column_69=1
Column_70=1
Column_73=1
Column_74=1
Column_76=1
Column_79=1
Column_81=1
Column_83=1
Column_85=1
Column_89=1
Column_94=1
Column_95=1
Column_104=1
Column_108=1
Column_111=1
Column_113=1
Column_116=1
Column_117=1

parameters:
[boosting: gbdt]
[objective: binary]
[metric: binary_logloss]
[tree_learner: serial]
[device_type: cpu]
[data_sample_strategy: bagging]
[data: ]
[valid: ]
[num_iterations: 500]
[learning_rate: 0.05]
[num_leaves: 31]
[num_threads: 4]
[seed: 42]
[deterministic: 0]
[force_col_wise: 0]
[force_row_wise: 0]
[histogram_pool_size: -1]
[max_depth: -1]
[min_data_in_leaf: 20]
[min_sum_hessian_in_leaf: 0.001]
[bagging_fraction: 0.8]
[pos_bagging_fraction: 1]
[neg_bagging_fraction: 1]
[bagging_freq: 0]
[bagging_seed: 400]
[bagging_by_query: 0]
[feature_fraction: 0.8]
[feature_fraction_bynode: 1]
[feature_fraction_seed: 30056]
[extra_trees: 0]
[extra_seed: 12879]
[early_stopping_round: 0]
[early_stopping_min_delta: 0]
[first_metric_only: 0]
[max_delta_step: 0]
[lambda_l1: 0]
[lambda_l2: 0]
[linear_lambda: 0]
[min_gain_to_split: 0]
[drop_rate: 0.1]
[max_drop: 50]
[skip_drop: 0.5]
[xgboost_dart_mode: 0]
[uniform_drop: 0]
[drop_seed: 17869]
[top_rate: 0.2]
[other_rate: 0.1]
[min_data_per_group: 100]
[max_cat_threshold: 32]
[cat_l2: 10]
[cat_smooth: 10]
[max_cat_to_onehot: 4]
[top_k: 20]
[monotone_constraints: ]
[monotone_constraints_method: basic]
[monotone_penalty: 0]
[feature_contri: ]
[forcedsplits_filename: ]
[refit_decay_rate: 0.9]
[cegb_tradeoff: 1]
[cegb_penalty_split: 0]
[cegb_penalty_feature_lazy: ]
[cegb_penalty_feature_coupled: ]
[path_smooth: 0]
[interaction_constraints: ]
[verbosity: -1]
[saved_feature_importance_type: 0]
[use_quantized_grad: 0]
[num_grad_quant_bins: 4]
[quant_train_renew_leaf: 0]
[stochastic_rounding: 1]
[linear_tree: 0]
[max_bin: 255]
[max_bin_by_feature: ]
[min_data_in_bin: 3]
[bin_construct_sample_cnt: 200000]
[data_random_seed: 175]
[is_enable_sparse: 1]
[enable_bundle: 1]
[use_missing: 1]
[zero_as_missing: 0]
[feature_pre_filter: 1]
[pre_partition: 0]
[two_round: 0]
[header: 0]
[label_column: ]
[weight_column: ]
[group_column: ]
[ignore_column: ]
[categorical_feature: ]
[forcedbins_filename: ]
[precise_float_parser: 0]
[parser_config_file: ]
[objective_seed: 16083]
[num_class: 1]
[is_unbalance: 1]
[scale_pos_weight: 1]
[sigmoid: 1]
[boost_from_average: 1]
[reg_sqrt: 0]
[alpha: 0.9]
[fair_c: 1]
[poisson_max_delta_step: 0.7]
[tweedie_variance_power: 1.5]
[lambdarank_truncation_level: 30]
[lambdarank_norm: 1]
[label_gain: ]
[lambdarank_position_bias_regularization: 0]
[eval_at: ]
[multi_error_top_k: 1]
[auc_mu_weights: ]
[num_machines: 1]
[local_listen_port: 12400]
[time_out: 120]
[machine_list_filename: ]
[machines: ]
[gpu_platform_id: -1]
[gpu_device_id: -1]
[gpu_use_dp: 0]
[num_gpu: 1]

end of parameters

pandas_categorical:null
