tree
version=v4
num_class=1
num_tree_per_iteration=1
label_index=0
max_feature_idx=128
objective=binary sigmoid:1
feature_names=Column_0 Column_1 Column_2 Column_3 Column_4 Column_5 Column_6 Column_7 Column_8 Column_9 Column_10 Column_11 Column_12 Column_13 Column_14 Column_15 Column_16 Column_17 Column_18 Column_19 Column_20 Column_21 Column_22 Column_23 Column_24 Column_25 Column_26 Column_27 Column_28 Column_29 Column_30 Column_31 Column_32 Column_33 Column_34 Column_35 Column_36 Column_37 Column_38 Column_39 Column_40 Column_41 Column_42 Column_43 Column_44 Column_45 Column_46 Column_47 Column_48 Column_49 Column_50 Column_51 Column_52 Column_53 Column_54 Column_55 Column_56 Column_57 Column_58 Column_59 Column_60 Column_61 Column_62 Column_63 Column_64 Column_65 Column_66 Column_67 Column_68 Column_69 Column_70 Column_71 Column_72 Column_73 Column_74 Column_75 Column_76 Column_77 Column_78 Column_79 Column_80 Column_81 Column_82 Column_83 Column_84 Column_85 Column_86 Column_87 Column_88 Column_89 Column_90 Column_91 Column_92 Column_93 Column_94 Column_95 Column_96 Column_97 Column_98 Column_99 Column_100 Column_101 Column_102 Column_103 Column_104 Column_105 Column_106 Column_107 Column_108 Column_109 Column_110 Column_111 Column_112 Column_113 Column_114 Column_115 Column_116 Column_117 Column_118 Column_119 Column_120 Column_121 Column_122 Column_123 Column_124 Column_125 Column_126 Column_127 Column_128
feature_infos=[-0.013158844193239261:0.0090819258933577691] [-0.016550530619446113:0.010862084620136336] [-0.025753552162020264:0.031022167100502315] [-0.037482912639877922:0.034015522436242333] [-0.017762044984650085:0.054424028838911009] [-0.047365453292400224:0.022936618960507908] none [-0.017143349414197106:0.010905077262693156] [-0.03406741432241088:0.023765199612611643] [-0.038836852327548396:0.035962552458839989] [-0.010470835160704217:0.0094990126759666223] [-0.015437808821477378:0.010529559280614725] [-0.01363734369307228:0.0097652328100727472] [-0.016411462668360053:0.010673908923551214] [-0.020106211351342471:0.014841379423058337] [-0.0087719204514896693:0.020336635545102465] [-0.01230040522766118:0.019964755038942864] [-0.009819592906937482:0.015508413032913849] [-0.015874665703893211:0.0095844550908269818] [-0.018231603684508726:0.011984399645642952] [-0.042395291648392924:0.03436345394665094] [-0.026495207067226328:0.0165983519966195] [-0.01102588579763672:0.012543747481554374] [-0.019277949786192176:0.012683754769998208] [-0.10477950535935075:0.022012183063853892] [-0.1348548945062697:0.0089393445432764795] [-0.074704116212431684:0.043684209634833104] [-0.044628727065512609:0.069371171102860493] [-0.014553337918593652:0.095058132570888049] [-0.016370465179714157:0.0098840313982597166] [-0.030005804533307735:0.0045638282253711799] [-0.018231603684508726:0.011984399645642952] [-0.0075556015354618297:0.027999746659982575] [-0.010753758696025016:0.013110075250596369] [-0.018915789806053681:0.011356300264257421] [-0.028399926499111865:0] [-0.013540818244470898:0.0092935982339955852] [0:0.029091377865629632] [-0.022559999920463716:0.0070444669794189002] [-0.016411462668360053:0.010673908923551214] [-0.011952036804132392:0.020271749163502849] [-0.1223816385773657:0.082584213404817419] [-0.082398763653071097:0.12756992427918862] [-0.060183154773092787:0.1784407521241112] [-0.023951573926616232:0.2234264629984824] [-0.14459724745734401:0.031713385559894822] [-0.18458012238163862:0.022952388021542029] [-0.21700086498387985:0.018639021533842899] [-0.1223816385773657:0.082584213404817419] [-0.098621817764133465:0.11920141119558765] [-0.083942975586325019:0.14182355433334098] [-0.060183154773092787:0.1784407521241112] [-0.14614145939059794:0.045967015614047195] [-0.16082030156840638:0.028278149820900253] [-0.18458012238163862:0.022952388021542029] [-0.015192247593351723:0.025718217667475375] [-0.019639522440672276:0.027167995187246271] [-0.011912948854448534:0.016667988167978435] [-0.01726814398636016:0.008233379510474299] [-0.0069680766471994504:0.017843316773110945] [-0.3387380518116988:0.19500766525327004] [-0.0074313764071087182:0.011145245053135305] [-0.0067875506671451046:0.0095526403001943514] [-0.0031365087228272452:0.0018424337297838127] [-0.0052125705855668491:0.0064295970410194764] [-0.0047201796814943563:0.0056717885459909518] [-0.0013525609219894586:0.0014533158065133636] [-0.01098017699534976:0.015502263360682295] [-9.1758699458298985:10.418679576482607] [-8.1380991424582589:10.274833783236735] [-4.2673770713583545:5.8620656719269473] [-8.3774717854359668:6.5562930501739949] [-1.7131896981855661:26.218336470783235] [-1.8620685375977988:14.789509709505699] [2.734581674658346e-06:0.0066355580273858824] [0.00018089024682665551:0.0018197701724744209] [0.008557648354498083:9.9528847114284833] none none [7.2453013016677072:79.397539651199253] [4:100] [4:100] [1.082238277821475:85.417571672594846] [4.1611261393886592:80.476616341953942] [0.10062893081761007:1.7205882352941178] [0.20588235294117646:1.8490566037735849] [-422.0229055028442:531.65044272121406] [-38.189887884213022:46.626844615185291] [-100:100] [-17.055218474850307:21.72275240111594] [0:100] [-0.31124056611008738:0.18742190091681438] [-0.51616935982978096:0.65018356552330092] [-0.46856402868302066:0.57555222849956744] [-28.747857140572115:111.06894722652703] [-99.775792446467364:100.16153674383051] [-99.640072951595783:58.837394833660476] [-1.6690307328605201:1.9989299090422685] [6.5795424000526879:92.586826467685086] [0:100] [0:100] [0:100] [0:100] [-0.069646612068312963:0.083769594430011279] [-0.075596092515757551:0.077800767422950751] [-78.561935116541619:75.845014808847651] [0:96.01010985252563] [-100:0] [-4.1855773261260172:8.0735381537245043] [0:0.0074974569482641014] [-3.9932014584318591:4.0365752989549648] [0:0.035843200736339786] [-0.52423456296655835:1.5353597183223704] [2.2146019250873623:33.837855912665958] [-0.98220366266696024:0.99198759147508531] [0:1] [0:1] [0:1] [0:1] [0:1] [0:1] [0:1] [0:1] [0:1] [0:1] [0:1] [0:1] [0:1] [0:1]
tree_sizes=3411 3491 3493 3521 3493 3498 3503

Tree=0
num_leaves=31
num_cat=0
split_feature=104 35 74 25 114 25 28 35 68 49 62 52 68 76 44 5 82 7 79 81 62 50 43 18 20 61 85 85 11 70
split_gain=42.8974 34.0145 20.7136 19.3894 18.4698 17.7935 16.282 17.2491 16.9801 21.216 18.8872 14.9502 14.3202 14.2371 17.0123 16.2732 13.6539 13.5691 13.0735 14.905 12.7927 12.7884 17.4963 12.4573 15.2154 15.3924 12.3843 12.3137 13.3831 12.1925
threshold=0.0076144069159637716 -0.00041097646504729637 0.00013109088036485135 -0.051462565780830825 -0.85983616400462382 -0.00078604858853202652 0.0015400749796418351 -0.0012793684501865848 -1.2545409946695905 0.0071809739731155372 9.5123160325296798e-05 -0.014207791533579563 1.0909121021567234 1.1801550659571756 0.16004662067693973 -0.0046583111049055088 43.250002723675934 0.00067867961685883068 15.036797112811209 42.000000000000007 0.00085936088356691851 0.032572193207799069 0.022394609796918531 0.0021185788114057814 0.00072433823903658246 7.3590156617040333e-05 0.47440587843179816 0.92907469809586773 0.00027162619282187318 1.0767334776229112
decision_type=2 2 2 2 2 2 2 2 2 2 2 2 2 2 2 2 2 2 2 2 2 2 2 2 2 2 10 10 2 2
left_child=1 2 -1 12 -4 16 8 13 -6 10 11 29 -2 20 15 -15 17 -3 19 -9 -8 22 -5 24 25 -18 -7 -21 -29 -10
right_child=3 5 4 21 6 26 7 18 9 -11 -12 -13 -14 14 -16 -17 23 -19 -20 27 -22 -23 -24 -25 -26 -27 -28 28 -30 -31
leaf_value=-0.0018779128564986591 0.15506401492579555 0.099247536336556086 0.025221669268071664 0.14254167089378353 0.043404614693589832 0.075251667036509193 0.08129213097760371 0.10670008137962511 0.11975922789280224 0.1530824249285444 0.057983850642552216 0.14799703923033555 0.065773092158091365 0.066774361859079506 0.020403965779259167 0.10901629237695502 0.072395015929360762 0.13030697843056044 0.10799709945815145 0.041537293969874836 0.016922422242422006 0.15409523759380611 0.1054726994555539 0.15337646731523327 0.068255213341296472 0.14250866070321205 0.14877925639644257 0.070538192709714287 0.15688047242327585 0.046901334967727928
leaf_weight=5.4852747321128836 5.7346054017543819 58.343376696109772 9.225234776735304 60.587352722883224 7.7292507588863364 6.4825974106788626 236.86413615942001 45.12885120511055 15.209170848131182 32.911648392677307 16.705154865980148 23.686413615942001 20.694445580244064 27.675704330205917 6.7319280803203574 129.40261754393578 13.463856160640715 88.512387722730637 249.82933098077774 24.185074955224991 7.9785814285278311 44.879520535469055 67.069950133562088 7.7292507588863364 45.627512544393539 18.699800223112106 49.118141919374466 17.951808214187626 5.9839360713958731 9.225234776735304
leaf_count=22 23 234 37 243 31 26 950 181 61 132 67 95 83 111 27 519 54 355 1002 97 32 180 269 31 183 75 197 72 24 37
internal_value=0.103579 0.0998993 0.0949785 0.125028 0.0955917 0.114798 0.096349 0.0937679 0.114746 0.120388 0.10379 0.119691 0.0851475 0.0868282 0.0982379 0.101574 0.108719 0.117968 0.102034 0.0860581 0.0791945 0.131137 0.123066 0.0928363 0.0868211 0.113159 0.140207 0.0666995 0.0921238 0.0922517
internal_weight=1358.85 1159.89 871.909 198.966 866.424 287.977 857.199 751.732 105.467 97.7376 64.826 48.1208 26.4291 408.653 163.81 157.078 232.376 146.856 343.079 93.2497 244.843 172.537 127.657 85.5204 77.7912 32.1637 55.6007 48.1208 23.9357 24.4344
internal_count=5450 4652 3497 798 3475 1155 3438 3015 423 392 260 193 106 1639 657 630 932 589 1376 374 982 692 512 343 312 129 223 193 96 98
is_linear=0
shrinkage=1


Tree=1
num_leaves=31
num_cat=0
split_feature=103 35 68 114 25 75 109 96 96 52 2 49 72 76 68 17 51 76 25 45 82 72 113 52 89 46 7 84 72 41
split_gain=29.2387 30.3066 18.1978 16.3294 16.0411 14.2725 14.4718 14.7188 15.7391 18.1687 14.7178 18.1236 15.85 13.3269 22.2897 19.6548 20.1053 16.6319 13.1536 14.8849 12.992 12.8243 12.4088 14.6031 23.0225 17.9917 12.4995 12.1587 12.0541 11.9641
threshold=0.0098051577016765278 -0.00041097646504729637 2.5828333897861921 -0.85983616400462382 -0.00078604858853202652 0.00058451170524429798 0.00021950704576654834 -33.954282436374001 -2.4276616752586349 0.015402979281893398 -0.00063594931539297987 0.012147915737416148 -0.92867840297984383 0.66928226014700687 1.3336246143231107 2.6504023910750074e-05 0.023794197930093915 1.6496321946518127 -0.051462565780830825 -0.061881741843574034 43.250002723675934 -0.63549564984617135 25.562336363238305 -0.0144698024172353 -1.3775488387332475 -0.03396380694347307 0.00075561287203484084 1.2636237417563347 0.38600081416277082 -0.0045142549466287681
decision_type=2 2 2 2 2 2 2 2 2 2 2 2 2 2 2 2 2 2 2 2 2 2 2 2 2 2 2 10 2 2
left_child=1 2 3 -1 20 6 10 -8 22 -10 -5 12 -12 -7 15 16 -15 21 -2 -20 -3 -17 23 24 -9 -26 -24 -6 -16 -4
right_child=18 4 29 5 27 13 7 8 9 -11 11 -13 -14 14 28 17 -18 -19 19 -21 -22 -23 26 -25 25 -27 -28 -29 -30 -31
leaf_value=-0.074245798826663836 -0.015572351599779537 0.014385794946345851 -0.016311371753039147 -0.052472472459712011 0.048522814130023698 -0.003577640165861927 -0.019775115411897012 0.054028875941927207 -0.0091063462549514831 0.085338546925783521 0.053313659110794012 0.077556685592171257 -0.037669151261611827 0.021940797547067382 -0.077539136089868482 -0.01921204197997449 -0.041359468061350983 -0.050746368885607386 0.080504077760738146 0.021363994643817844 -0.0099027934176686878 0.032803353945751942 0.047174581335585788 0.019735160583743302 -0.0070268238419166603 -0.069980182810592303 -0.020552682393155171 -0.0060238144057682347 -0.0080832730709039687 0.067724567673061786
leaf_weight=9.2485290169715864 21.462169826030731 153.6986159235239 6.2370137125253704 27.680235266685486 42.520791009068489 132.18705134093761 77.30077551305294 12.214509904384611 186.98988164961338 5.2347730845212928 5.982755362987521 5.7332916706800452 23.947538986802101 14.963281124830244 25.946908131241798 17.455757588148117 77.588589772582054 11.228012874722479 11.689124867320059 118.48847942054272 85.787330225110054 36.897389560937881 39.638144373893738 98.217992022633553 52.627367317676544 14.469974264502524 8.2263452410697919 13.447088330984114 8.2275977581739408 13.197101294994352
leaf_count=37 86 617 25 111 171 530 310 49 750 21 24 23 96 60 104 70 311 45 47 476 344 148 159 394 211 58 33 54 33 53
internal_value=1.17796e-06 -0.0025989 -0.00711002 -0.00815285 0.0113174 -0.0074604 -0.00261329 0.000266731 0.00397645 -0.00653437 -0.0251156 -0.00388255 -0.0194826 -0.0157994 -0.0242003 -0.0162869 -0.0311254 0.00465403 0.0206951 0.0266744 0.00568527 0.0160984 0.0129405 0.00684882 -0.00910934 -0.0206031 0.0355345 0.0354172 -0.0608175 0.0407548
internal_weight=1358.53 1206.89 911.441 892.007 295.454 882.758 558.264 494.92 417.619 192.225 63.3438 35.6636 29.9303 324.495 192.308 158.133 92.5519 65.5812 151.64 130.178 239.486 54.3531 225.394 177.53 79.3119 67.0973 47.8645 55.9679 34.1745 19.4341
internal_count=5450 4841 3655 3577 1186 3540 2239 1985 1675 771 254 143 120 1301 771 634 371 263 609 523 961 218 904 712 318 269 192 225 137 78
is_linear=0
shrinkage=0.05


Tree=2
num_leaves=31
num_cat=0
split_feature=104 110 69 28 68 50 95 25 46 33 3 41 41 68 0 58 88 79 94 16 73 2 116 116 62 50 79 25 5 84
split_gain=35.8484 28.3573 16.3745 16.8324 18.8666 16.8513 16.5805 16.1777 15.3084 14.8969 14.6813 15.1549 14.4746 12.6693 12.6003 12.2242 11.8971 12.6467 11.8413 15.7184 15.2937 13.8906 12.771 11.7069 17.5267 13.6152 15.1159 11.5198 11.5188 13.7611
threshold=0.0076144069159637716 -0.84414936947477581 -1.1890786336744656 0.0015400749796418351 -1.0939316981273024 0.012984263410323502 -36.61681349529686 -0.051462565780830825 -0.026492365036854596 0.0013714173075659037 -0.0054258902237313 -0.038340815773074736 -0.00012077716533543679 1.0909121021567234 -9.2073359684676721e-05 0.00010818193149606308 6.8227455275648055 17.467330547529762 10.502497535436422 -0.00049870120215858604 -0.97086990429597975 0.0011983679317401109 1.0000000180025095e-35 1.0000000180025095e-35 5.7224167502838436e-05 0.028457791265187674 23.953762075977043 -0.012551139775581524 0.0037759296386060642 1.2801494087567915
decision_type=2 2 2 2 2 2 2 2 2 2 2 2 2 2 2 2 2 2 2 2 2 2 2 2 2 2 2 2 2 10
left_child=1 28 14 5 6 8 -5 13 15 10 -6 -12 -10 -2 -3 -4 -13 -18 19 22 -21 -22 -19 -9 25 26 -25 -8 29 -1
right_child=7 2 3 4 9 -7 27 23 12 -11 11 16 -14 -15 -16 -17 17 18 -20 20 21 -23 -24 24 -26 -27 -28 -29 -30 -31
leaf_value=0.0092215703318736884 0.049149255887074361 -0.038858910606251018 -0.083886911243222007 0.057611501094566003 -0.072347853414666943 0.039067080054099472 -0.054436011684705181 0.035119142613949175 0.045262216286948431 -0.069293927899993932 0.042457382931475642 -0.0019057515234230278 -0.024340241291719005 -0.034926381287851131 -0.0055821067103979712 -0.0099835578791940289 -0.033485271213649047 0.032738109782650966 -0.033549888094728676 0.060471792262042467 -0.017166543103601339 -0.095645637992911162 -0.025876426871264908 -0.070920246808844442 -0.048668430976434585 0.059730946945168506 0.017619376514847268 0.010422517093025644 0.0430696988895043 -0.018169218983248105
leaf_weight=326.68050365149975 5.7157886922359493 73.593027532100677 7.7383006364107159 16.960800915956497 9.7375970482826215 38.30604475736618 7.9817147552967063 109.29944099485874 20.641682296991348 11.476429864764212 13.215135112404822 176.29781354963779 11.705454647541044 20.73722106218338 46.371703073382378 20.20576086640358 93.090283215045929 38.674340158700943 41.177199482917786 5.7347462475299826 58.634220719337463 6.2382474094629279 12.232256218791006 5.731174871325492 11.20112134516239 15.384713485836981 30.340212255716324 48.124536842107773 21.410832151770592 53.342088595032692
leaf_count=1312 23 295 31 68 39 154 32 440 83 46 53 707 47 83 186 81 373 155 165 23 235 25 49 23 45 62 122 193 86 214
internal_value=2.27603e-06 -0.00335813 -0.00904779 -0.00586185 -0.00933305 0.0131344 0.0142913 0.0196416 -0.00334199 -0.0130332 -0.0116143 -0.0102862 0.0200752 -0.0167599 -0.0259959 -0.030449 -0.0118993 -0.0187874 -0.0103774 -0.00252498 -0.0177945 -0.0247132 0.0186537 0.0252414 0.0080106 0.0203487 0.00355183 0.0011957 0.00738723 0.00537685
internal_weight=1357.98 1159.57 758.137 638.173 539.575 98.5972 73.0671 198.41 60.2912 466.508 455.032 445.294 32.3471 26.453 119.965 27.9441 432.079 255.781 162.691 121.514 70.6072 64.8725 50.9066 171.957 62.6572 51.4561 36.0714 56.1063 401.433 380.023
internal_count=5450 4652 3040 2559 2163 396 293 798 242 1870 1824 1785 130 106 481 112 1732 1025 652 487 283 260 204 692 252 207 145 225 1612 1526
is_linear=0
shrinkage=0.05


Tree=3
num_leaves=31
num_cat=0
split_feature=104 110 51 42 61 114 128 69 50 76 7 73 51 69 82 7 69 23 20 5 42 36 96 72 46 11 52 71 59 41
split_gain=32.4208 25.5942 15.8465 15.1573 15.3616 15.0618 13.0255 13.0461 17.1355 12.6324 12.5335 16.2053 16.8197 12.5019 12.3268 15.0059 12.0923 12.3312 16.1278 15.2116 14.8836 12.4928 12.0414 12.5125 14.5146 14.6848 11.9442 14.5091 11.6042 12.0654
threshold=0.0076144069159637716 -0.84414936947477581 0.048078883412200506 0.028634286816347564 3.8729497464533496e-05 -0.85983616400462382 1.0000000180025095e-35 -0.92859169849491741 0.020786003789128881 0.64397181427694672 0.00077390499943316964 1.9050554397315709 0.03560232579877786 2.1245460459941063 39.036714530185556 0.00025263167404393467 -0.27806084823882721 -0.00073447994006604347 -0.0043521992774447227 -0.0024734254656001964 -0.00034958998212942523 -0.0011581067736566866 1.2529194462483455 -0.84284688959609066 -0.013406236201740578 -0.00058393799152660884 -0.041958932197571526 1.4521921815519256 -0.00011163265034596083 -0.00062504716570194847
decision_type=2 2 2 2 2 2 2 2 2 2 2 2 2 2 2 2 2 2 2 2 2 2 2 2 2 2 2 2 2 2
left_child=1 -1 5 -2 -5 -3 7 8 -7 28 11 12 14 -6 15 16 -9 18 20 -19 -18 -22 23 -11 25 -25 -20 -28 -4 -30
right_child=3 2 9 4 13 6 -8 10 -10 22 -12 -13 -14 -15 -16 -17 17 19 26 -21 21 -23 -24 24 -26 -27 27 -29 29 -31
leaf_value=0.0070217723795566386 0.011522313238593183 -0.076416122718455756 -0.070129428292555307 0.064899403070109052 -0.042378528640652259 -0.031907693589326935 0.044311607147454801 0.018427060841091452 0.011677093739331231 -0.06140337107166223 -0.034461606815104157 0.042004815401058493 0.026814141865461206 0.060210242331143887 -0.040784654692690415 0.026835399305203889 -0.068499032615261177 -0.051400420118318579 0.080045496381865144 -0.011768507001660995 0.032645607372856489 -0.048152465392614606 -0.059430170552655127 -0.053247981858786965 0.062262569373206782 0.00029361030731352237 -0.0044652287437448521 0.048417319175501211 -0.019108078335545804 0.027722858525282203
leaf_weight=401.22861433029175 155.95744590461254 7.2398367822170249 5.9911724627017966 29.635053262114525 7.4374902844428998 83.353309616446495 13.707851573824881 41.887547641992569 30.91509473323822 15.980239316821097 26.69227147102356 22.6565802693367 46.604728430509567 4.9436860829591751 22.688071340322495 38.114471271634102 12.975282207131384 30.432143449783325 6.4826778173446646 118.45053972303867 11.954041600227354 7.9762252122163799 29.954720735549927 20.477551132440567 5.983416572213172 34.185215428471565 50.839707583189011 17.412930071353912 28.952127307653427 26.199778810143471
leaf_count=1612 628 29 24 120 30 334 55 168 124 64 107 91 187 20 91 153 52 122 26 475 48 32 120 82 24 137 204 70 116 105
internal_value=3.20629e-06 -0.00319011 -0.00859475 0.0187033 0.0453579 -0.00474172 -0.00385187 -0.0050113 -0.0201159 -0.0221572 -0.00121933 0.000851532 -0.00144603 -0.00141581 -0.00511253 -0.00270757 -0.00648094 -0.0105481 0.00234449 -0.0198694 -0.0268229 0.000309682 -0.0325504 -0.0220426 -0.0116711 -0.0197639 0.0151867 0.00902641 -0.00404043 0.00313884
internal_weight=1357.31 1159.34 758.108 197.974 42.0162 590.383 583.143 569.436 114.268 167.724 455.167 428.475 405.818 12.3812 359.214 336.526 298.411 256.524 107.641 148.883 32.9055 19.9303 106.581 76.6264 60.6462 54.6628 74.7353 68.2526 61.1431 55.1519
internal_count=5450 4652 3040 798 170 2368 2339 2284 458 672 1826 1719 1628 50 1441 1350 1197 1029 432 597 132 80 427 307 243 219 300 274 245 221
is_linear=0
shrinkage=0.05


Tree=4
num_leaves=31
num_cat=0
split_feature=104 99 69 25 43 43 16 69 75 30 83 84 94 104 67 25 15 27 62 82 7 68 44 45 116 75 69 75 44 76
split_gain=29.3153 25.7676 16.6587 14.3504 12.1556 17.6103 18.8194 13.3985 12.4471 12.1284 14.5589 17.428 12.4808 13.3742 17.3108 12.8445 14.7143 15.5198 12.1874 11.6316 11.5025 11.4476 11.3301 11.076 11.6965 13.2754 11.2862 15.3658 10.9118 11.9216
threshold=0.0076144069159637716 60.917995613545969 -1.1890786336744656 -0.051462565780830825 0.042931838636953781 0.035461570039700914 -0.00048000722724904848 -0.81310812153779422 0.0004481119445188845 -0.0017213617213184792 11.746708595236056 1.3758116883116884 -10.421174542062891 -0.006376868339812213 -0.0014525101100080387 -0.00078604858853202652 3.078694870190992e-06 0.006617736107761933 -0.00036748084050789391 46.443551032286713 -0.0010433349266845357 1.0909121021567234 0.059263445344362474 -0.061881741843574034 1.0000000180025095e-35 0.0010166871843577073 -0.86903369842268219 0.00057168102662360782 0.0063531871333829841 0.53145100082436081
decision_type=2 10 2 2 2 2 2 2 2 2 2 10 2 2 2 2 2 2 2 2 2 2 2 2 2 2 2 2 2 2
left_child=1 9 -3 21 5 6 8 -6 -4 20 -11 12 13 14 -12 19 -17 -18 -15 -14 -1 -2 -7 -5 -25 26 -26 -28 -10 -30
right_child=3 2 4 23 7 22 -8 -9 28 10 11 -13 15 18 -16 16 17 -19 -20 -21 -22 -23 -24 24 25 -27 27 -29 29 -31
leaf_value=0.045364812998253616 0.046380929666257231 -0.034617693015081795 0.020920922563026446 0.06797462374090095 0.032226876207400182 0.05453023733124001 -0.019978566998863977 -0.03057958186209267 -0.075158309782677304 0.039311516652572494 0.043635809648482127 -0.055429155019590337 0.00075607345334009518 -0.018153104050121764 -0.041296303146655222 -0.005793781955591556 0.079044759065110978 0.013325663858165485 0.032289047564351428 -0.024923918630503066 -0.023450891419801303 -0.033709295644101633 -0.0081958405958631082 0.029931740007663705 0.052695369771460721 0.049061029474466937 0.013341389680622257 -0.048246807257658279 -0.057371862716773282 0.0055637088926227627
leaf_weight=6.7301713079214087 5.6840813755989101 69.413265824317932 68.704923048615456 12.72831556200981 9.4676785469055158 20.157683625817302 144.38631388545036 82.3625448346138 5.7414588928222647 30.105735659599304 8.9536566138267535 12.21902349591255 321.53581009805202 13.694820195436476 18.183378577232361 28.089011147618294 16.096741646528244 20.328763768076897 95.337872609496117 51.103168666362762 62.127521231770515 20.74590939283371 11.198548614978789 99.632783427834511 6.2025200724601737 11.865182414650915 18.874385118484497 21.853293135762215 8.735084190964697 54.298675432801247
leaf_count=27 23 278 276 52 38 81 579 330 23 121 36 49 1291 55 73 113 65 82 383 205 249 83 45 403 25 48 76 88 35 218
internal_value=3.94183e-06 -0.00303093 -0.0119857 0.0178054 -0.00810734 -0.00341739 -0.00737167 -0.0241042 0.00586853 0.00317611 0.00540195 0.00365849 0.0049178 0.0181359 -0.0132736 0.000800472 0.0213985 0.0423675 0.0259534 -0.00276564 -0.0167248 -0.0164849 0.0321283 0.0231005 0.0194953 0.00181002 -0.0101363 -0.0197051 -0.00916848 -0.00315777
internal_weight=1356.56 1158.97 474.466 197.586 405.053 313.223 281.866 91.8302 137.48 684.506 615.648 585.542 573.323 136.17 27.137 437.153 64.5145 36.4255 109.033 372.639 68.8577 26.43 31.3562 171.156 158.428 58.7954 46.9302 40.7277 68.7752 63.0338
internal_count=5450 4652 1903 798 1625 1257 1131 368 552 2749 2473 2352 2303 547 109 1756 260 147 438 1496 276 106 126 692 640 237 189 164 276 253
is_linear=0
shrinkage=0.05


Tree=5
num_leaves=31
num_cat=0
split_feature=104 99 74 51 69 109 10 69 76 42 28 10 22 25 90 86 3 94 99 35 68 99 75 99 42 41 49 75 69 51
split_gain=26.5287 23.2598 16.7914 14.8519 13.929 16.6803 14.5639 14.0868 13.3653 13.3156 12.9509 22.1206 11.8461 12.3476 14.8499 12.617 14.0638 13.5599 12.1232 13.0878 11.7818 11.7498 14.74 14.2916 13.8982 11.5315 11.3839 11.0927 12.5168 10.5756
threshold=0.0076144069159637716 60.917995613545969 0.00013109088036485135 0.048078883412200506 -0.6722862843207319 0.00053702367403248225 -0.00080885101109073681 -0.29910861793260257 0.64397181427694672 0.028634286816347564 0.0016276238366300917 -0.0003830429363926481 -0.00064355628947679311 -0.00078604858853202652 16.860739870085201 29.672607949292431 0.0048738656392370355 22.319292211243432 1.2565254452046906 -0.0016057288986191293 -0.20435414031962068 73.625726992237546 0.00069747581204843481 94.363578251537163 -0.026480710335203331 -0.00062504716570194847 0.032131416074407469 0.00071581246926370377 -2.0965069910512537 0.035203661044238298
decision_type=2 10 2 2 2 2 2 2 2 2 2 2 2 2 2 2 2 2 8 2 2 10 2 10 2 2 2 2 2 2
left_child=1 12 -3 4 5 6 -4 20 25 21 11 -9 -1 15 27 16 17 18 -14 -20 -6 22 24 -23 -2 -5 -27 28 -15 -12
right_child=9 2 3 8 7 -7 -8 10 -10 -11 29 -13 13 14 -16 -17 -18 -19 19 -21 -22 23 -24 -25 -26 26 -28 -29 -30 -31
leaf_value=-0.019711040007914807 -0.06619350449212355 -0.096431621414057381 -0.090418455324633884 -0.032425855465483489 0.05804415784328365 0.016319771695682835 -0.025497469500293187 0.034074392892048354 -0.041319618097873989 0.042098479118764361 -0.015763264943870176 -0.026368756964271836 -0.056486049147373846 0.029862437892043882 0.04020719546914242 0.027843488750923264 0.028210285039645452 -0.027418641308063929 -0.03243974130760368 0.0039895704552353334 -0.0099551175362461927 0.036658898727607504 -0.035520693939722264 -0.01234260800411845 0.019723064046376533 0.060554855246263299 -0.017622612870915464 0.061353906366886382 -0.027606600178630453 0.018143900977566536
leaf_weight=52.885949030518532 5.2187742143869391 5.7339731752872458 10.242938905954359 17.491134822368622 17.670323178172115 20.195781275629997 55.157506927847862 46.634078979492188 63.403946667909622 41.579983666539192 159.93464213609695 22.411876350641251 9.2202755361795408 14.382507994771002 50.263839170336723 43.091538771986961 39.53992335498333 50.080228343605995 26.447512596845627 363.78073900938034 9.9609425216913206 57.603088840842247 24.573566854000092 20.06248950958252 48.001084327697754 9.9715785533189791 8.7363695800304395 6.6799701750278464 27.765656858682632 26.858351022005081
leaf_count=212 21 23 41 70 71 81 221 188 254 170 641 90 37 58 203 173 159 201 106 1461 40 233 99 81 194 40 35 27 112 108
internal_value=4.95753e-06 -0.00287964 -0.0113874 -0.0103469 -0.00572299 -0.0233998 -0.0356653 -0.000385316 -0.0274803 0.0169657 -0.00404834 0.0144549 0.00301991 0.0049243 0.0211298 0.00190672 -0.000378552 -0.00289319 0.000181654 0.00152059 0.0335307 0.0102435 -0.00349118 0.0240009 0.011298 -0.00324028 0.024047 0.00149143 -0.00799605 -0.0108879
internal_weight=1355.58 1158.54 474.403 468.669 369.066 85.5962 65.4004 283.47 99.603 197.039 255.839 69.046 684.138 631.252 99.092 532.16 489.069 449.529 399.449 390.228 27.6313 155.459 77.7934 77.6656 53.2199 36.1991 18.7079 48.8281 42.1482 186.793
internal_count=5450 4652 1903 1880 1481 343 262 1138 399 798 1027 278 2749 2537 400 2137 1964 1805 1604 1567 111 628 314 314 215 145 75 197 170 749
is_linear=0
shrinkage=0.05


Tree=6
num_leaves=31
num_cat=0
split_feature=104 35 74 114 25 68 41 42 61 75 62 41 52 46 43 72 95 50 89 75 113 14 42 41 62 26 67 86 26 74
split_gain=24.0027 21.8502 15.8053 13.6213 12.6314 12.2282 12.4987 12.147 14.0146 11.8155 12.4675 12.284 14.4596 19.5406 17.5432 18.686 17.4022 17.6488 18.0448 14.7254 15.6303 14.4328 14.588 17.5054 14.181 12.7799 13.6495 12.4209 11.9822 11.755
threshold=0.0076144069159637716 -0.00041097646504729637 0.00013109088036485135 -0.85983616400462382 -0.00078604858853202652 2.5828333897861921 -0.0091933519577540902 0.028634286816347564 3.8729497464533496e-05 0.00058451170524429798 0.00085936088356691851 -0.024618156204735168 -0.014367958420123042 -0.020415360437559059 0.034448167652778645 -0.86054875133985087 -59.611556773378716 0.036277886516397302 -0.67835099364669715 0.00028057559865593903 25.620026911371649 -0.001379530624247586 0.020186578540840303 0.0047612015378189305 -8.4652697029838933e-05 -0.0056727455922913417 0.00013711223638258541 99.214837321278409 0.0034944720446287098 0.00087493921826972655
decision_type=2 2 2 2 2 2 2 2 2 2 2 2 2 2 2 2 2 2 2 2 2 2 2 2 2 2 2 2 2 2
left_child=1 2 -1 -4 -3 9 -7 -2 -9 11 -11 -5 16 19 15 -15 -13 18 24 -14 -21 -17 23 25 -18 -23 -27 -25 -26 -10
right_child=7 4 3 5 -6 6 -8 8 29 10 -12 12 13 14 -16 21 17 -19 -20 20 -22 22 -24 27 28 26 -28 -29 -30 -31
leaf_value=-0.091566351184613579 0.0097485836725377077 0.0041257593577868684 -0.066672614563611218 0.031426779887011168 0.030790017140532408 -0.02626613414790871 0.06746586787115702 0.059190298186132209 0.050836050184927532 -0.011099085255549713 -0.047509016787616209 0.071671069275973318 0.062621768848359086 0.036011061091780462 0.02067818190409193 0.036832394495653752 0.085995969512120962 0.074045645205853661 -0.027860233464448544 -0.00015805566858880803 0.037638653957534685 0.016223648901298401 -0.083416597879113152 -0.0093940768776673497 0.0089792497921582608 -0.015759515607260365 -0.072167582793873628 0.069830119981705616 -0.074056774565708902 -0.047760368681402911
leaf_weight=5.4490592777729026 155.2159491032362 231.91585017740726 9.1958893686532956 26.394304484128952 54.936640575528145 5.2380694150924709 11.078984841704367 29.038696587085724 5.3835144937038404 281.17324359714985 25.65695995092392 5.7392443716526023 15.41896542906761 14.194560512900351 38.53284053504467 8.6971112191677076 5.2343771904706946 5.2140881717205039 142.65422564744949 92.849732086062431 38.77541172504425 8.2187568098306567 11.456618309020994 28.908619701862335 33.875177070498466 16.949705973267562 29.199618101119995 5.9689082354307166 4.9837171137332907 6.8944857716560364
leaf_count=22 628 932 37 106 223 21 45 120 22 1128 103 23 62 57 155 35 21 21 572 373 156 33 46 116 136 68 117 24 20 28
internal_value=5.66669e-06 -0.00273653 -0.00667808 -0.0061437 0.00923237 -0.00549376 0.0373762 0.0161619 0.040255 -0.00632642 -0.0141437 -0.00182853 -0.00356024 0.00319289 -0.00877828 -0.0179619 -0.014121 -0.016686 -0.0192193 0.016392 0.0109765 -0.0249649 -0.030302 -0.0234836 0.00873673 -0.0412199 -0.05145 0.00416428 -0.00167026 -0.00452896
internal_weight=1354.44 1157.91 871.058 865.609 286.852 856.413 16.3171 196.533 41.3167 840.096 306.83 533.266 506.872 309.171 162.127 123.594 197.701 191.962 186.747 147.044 131.625 109.399 100.702 89.2456 44.0933 54.3681 46.1493 34.8775 38.8589 12.278
internal_count=5450 4652 3497 3475 1155 3438 66 798 170 3372 1231 2141 2035 1242 651 496 793 770 749 591 529 439 404 358 177 218 185 140 156 50
is_linear=0
shrinkage=0.05


end of trees

feature_importances:
Column_25=10
Column_69=10
Column_68=9
Column_41=8
Column_75=8
Column_104=7
Column_42=6
Column_62=6
Column_76=6
Column_7=5
Column_35=5
Column_50=5
Column_51=5
Column_52=5
Column_72=5
Column_99=5
Column_43=4
Column_46=4
Column_74=4
Column_82=4
Column_114=4
Column_5=3
Column_28=3
Column_44=3
Column_49=3
Column_61=3
Column_79=3
Column_84=3
Column_94=3
Column_96=3
Column_116=3
Column_2=2
Column_3=2
Column_10=2
Column_11=2
Column_16=2
Column_20=2
Column_26=2
Column_45=2
Column_67=2
Column_73=2
Column_85=2
Column_86=2
Column_89=2
Column_95=2
Column_109=2
Column_110=2
Column_113=2
Column_0=1
Column_14=1
Column_15=1
Column_17=1
Column_18=1
Column_22=1
Column_23=1
Column_27=1
Column_30=1
Column_33=1
Column_36=1
Column_58=1
Column_59=1
Column_70=1
Column_71=1
Column_81=1
Column_83=1
Column_88=1
Column_90=1
Column_103=1
Column_128=1

parameters:
[boosting: gbdt]
[objective: binary]
[metric: binary_logloss]
[tree_learner: serial]
[device_type: cpu]
[data_sample_strategy: bagging]
[data: ]
[valid: ]
[num_iterations: 500]
[learning_rate: 0.05]
[num_leaves: 31]
[num_threads: 4]
[seed: 42]
[deterministic: 0]
[force_col_wise: 0]
[force_row_wise: 0]
[histogram_pool_size: -1]
[max_depth: -1]
[min_data_in_leaf: 20]
[min_sum_hessian_in_leaf: 0.001]
[bagging_fraction: 0.8]
[pos_bagging_fraction: 1]
[neg_bagging_fraction: 1]
[bagging_freq: 0]
[bagging_seed: 400]
[bagging_by_query: 0]
[feature_fraction: 0.8]
[feature_fraction_bynode: 1]
[feature_fraction_seed: 30056]
[extra_trees: 0]
[extra_seed: 12879]
[early_stopping_round: 0]
[early_stopping_min_delta: 0]
[first_metric_only: 0]
[max_delta_step: 0]
[lambda_l1: 0]
[lambda_l2: 0]
[linear_lambda: 0]
[min_gain_to_split: 0]
[drop_rate: 0.1]
[max_drop: 50]
[skip_drop: 0.5]
[xgboost_dart_mode: 0]
[uniform_drop: 0]
[drop_seed: 17869]
[top_rate: 0.2]
[other_rate: 0.1]
[min_data_per_group: 100]
[max_cat_threshold: 32]
[cat_l2: 10]
[cat_smooth: 10]
[max_cat_to_onehot: 4]
[top_k: 20]
[monotone_constraints: ]
[monotone_constraints_method: basic]
[monotone_penalty: 0]
[feature_contri: ]
[forcedsplits_filename: ]
[refit_decay_rate: 0.9]
[cegb_tradeoff: 1]
[cegb_penalty_split: 0]
[cegb_penalty_feature_lazy: ]
[cegb_penalty_feature_coupled: ]
[path_smooth: 0]
[interaction_constraints: ]
[verbosity: -1]
[saved_feature_importance_type: 0]
[use_quantized_grad: 0]
[num_grad_quant_bins: 4]
[quant_train_renew_leaf: 0]
[stochastic_rounding: 1]
[linear_tree: 0]
[max_bin: 255]
[max_bin_by_feature: ]
[min_data_in_bin: 3]
[bin_construct_sample_cnt: 200000]
[data_random_seed: 175]
[is_enable_sparse: 1]
[enable_bundle: 1]
[use_missing: 1]
[zero_as_missing: 0]
[feature_pre_filter: 1]
[pre_partition: 0]
[two_round: 0]
[header: 0]
[label_column: ]
[weight_column: ]
[group_column: ]
[ignore_column: ]
[categorical_feature: ]
[forcedbins_filename: ]
[precise_float_parser: 0]
[parser_config_file: ]
[objective_seed: 16083]
[num_class: 1]
[is_unbalance: 0]
[scale_pos_weight: 1]
[sigmoid: 1]
[boost_from_average: 1]
[reg_sqrt: 0]
[alpha: 0.9]
[fair_c: 1]
[poisson_max_delta_step: 0.7]
[tweedie_variance_power: 1.5]
[lambdarank_truncation_level: 30]
[lambdarank_norm: 1]
[label_gain: ]
[lambdarank_position_bias_regularization: 0]
[eval_at: ]
[multi_error_top_k: 1]
[auc_mu_weights: ]
[num_machines: 1]
[local_listen_port: 12400]
[time_out: 120]
[machine_list_filename: ]
[machines: ]
[gpu_platform_id: -1]
[gpu_device_id: -1]
[gpu_use_dp: 0]
[num_gpu: 1]

end of parameters

pandas_categorical:null
